{
  "config": {
    "sh_degree": 3,
    "base_curve_count": 4,
    "visible_surface_resolution_u": 8,
    "visible_surface_resolution_v": 4,
    "visible_surface_resolution_scale": 1.0,
    "visible_surface_fit_device": "cpu",
    "visible_surface_fit_chunk_size": 4096,
    "surface_fit_mode": "lsq",
    "surface_degree_u": 2,
    "surface_degree_v": 2,
    "surface_fit_smoothness": 0.0001,
    "surface_fit_tikhonov": 0.0001,
    "surface_fit_rounds": 2,
    "use_voxel_surface_regions": true,
    "voxel_grid_resolution": 6,
    "adaptive_voxel_density": false,
    "voxel_max_subdivision_depth": 0,
    "voxel_density_quantile": 0.75,
    "voxel_density_covariance_weight_cap": 10.0,
    "voxel_normal_knn": 16,
    "voxel_boundary_angle_degrees": 35.0,
    "voxel_min_points_per_region": 1,
    "voxel_normal_chunk_size": 4096,
    "covariance_init": "knn",
    "covariance_knn_chunk_size": 600,
    "covariance_min_scale": 0.0001,
    "covariance_max_scale_ratio": 0.05,
    "covariance_scale_multiplier": 1.0,
    "surface_projection_chunk_size": 65536,
    "surface_projection_iterations": 4,
    "max_surface_control_points": 4096,
    "surface_trim_resolution": 24,
    "surface_trim_dilation": 1,
    "occlusion_offset_scale": 0.25,
    "uncertain_samples_u": 16,
    "uncertain_samples_v": 3,
    "max_uncertain_gaussians": 0,
    "uncertain_opacity": 0.08,
    "uncertain_scale": 0.025,
    "color_cluster_count": 6
  },
  "run": {
    "scenes": [
      "all"
    ],
    "output": "nurbs_constructor_benchmark\\results",
    "device": "cpu",
    "points": 600,
    "seed": 0,
    "noise_std": 0.0,
    "disable_voxel": false,
    "adaptive_voxel": false,
    "voxel_grid": 6,
    "resolution_u": 8,
    "resolution_v": 4,
    "fit_mode": "lsq",
    "trim_resolution": null,
    "trim_dilation": null,
    "max_fit_rms": null,
    "max_chart_rms": null,
    "max_chamfer_rms": null,
    "max_extrapolation": null,
    "min_topology_ari": null,
    "skip_renderer_export": false
  },
  "results": [
    {
      "scene": "plane",
      "description": "Flat chart: baseline fitting and normal stability.",
      "input_gaussians": 600,
      "patches": 1,
      "control_points": 24,
      "fit_rms": 0.025842273607850075,
      "fit_max": 0.2018500119447708,
      "surface_chart_rms": 0.0,
      "surface_chart_max": 0.0,
      "normal_mean_degrees": 0.0,
      "normal_p95_degrees": 0.0,
      "ground_truth": {
        "accuracy_rms": 0.03359971195459366,
        "accuracy_p95": 0.08763355016708374,
        "accuracy_max": 0.23445762693881989,
        "completeness_rms": 0.02388727106153965,
        "chamfer_rms": 0.028743491508066654,
        "support_coverage_uncovered_fraction": 0.02012232504785061,
        "support_extrapolation_fraction": 0.0869903713464737,
        "support_extrapolation_fraction_local": 0.1146659106016159,
        "support_local_threshold_p50": 0.12328195571899414,
        "support_local_threshold_p95": 0.25096139311790466,
        "support_observed_gt_samples": 16350,
        "support_threshold": 0.09696333669126034,
        "topology_gen_patch_count": 1,
        "topology_gt_patch_count": 1,
        "topology_patch_count_delta": 0,
        "topology_patch_count_match": true,
        "topology_label_ari": 1.0,
        "support_grid_resolution": 128,
        "support_gt_cells": 16384,
        "support_generated_cells": 12002,
        "support_intersection_cells": 12002,
        "support_coverage_fraction": 0.7325439453125,
        "support_unsupported_fraction": 0.0,
        "support_uncovered_fraction": 0.2674560546875,
        "support_precision": 1.0,
        "support_recall": 0.7325439453125,
        "support_iou": 0.7325439453125,
        "support_gt_component_count": 1,
        "support_generated_component_count": 39,
        "support_gt_hole_count": 0,
        "support_generated_hole_count": 3309,
        "support_gt_euler": 1,
        "support_generated_euler": -3270,
        "support_topology_mismatch": true,
        "support_boundary_chamfer": Infinity,
        "support_boundary_hausdorff": Infinity
      },
      "finite": true,
      "patch_diagnostics": [
        {
          "patch_id": 0,
          "fit_point_count": 36,
          "point_weights": [
            19.0,
            22.0,
            20.0,
            13.0,
            17.0,
            13.0,
            12.0,
            15.0,
            12.0,
            20.0,
            22.0,
            24.0,
            15.0,
            23.0,
            18.0,
            19.0,
            12.0,
            12.0,
            17.0,
            10.0,
            17.0,
            18.0,
            13.0,
            17.0,
            25.0,
            17.0,
            11.0,
            16.0,
            16.0,
            22.0,
            24.0,
            11.0,
            15.0,
            10.0,
            14.0,
            19.0
          ],
          "initial_uv": [
            [
              0.33760589361190796,
              1.0
            ],
            [
              0.47548702359199524,
              0.9295255541801453
            ],
            [
              0.6089945435523987,
              0.866305410861969
            ],
            [
              0.7162815928459167,
              0.7992246747016907
            ],
            [
              0.8743069171905518,
              0.728847086429596
            ],
            [
              1.0,
              0.6635480523109436
            ],
            [
              0.27987515926361084,
              0.8598794341087341
            ],
            [
              0.42312049865722656,
              0.8012741804122925
            ],
            [
              0.5545942187309265,
              0.7312118411064148
            ],
            [
              0.678286612033844,
              0.6506183743476868
            ],
            [
              0.7797948718070984,
              0.5841567516326904
            ],
            [
              0.9400142431259155,
              0.5321494340896606
            ],
            [
              0.20608209073543549,
              0.732494592666626
            ],
            [
              0.3412034213542938,
              0.6718991994857788
            ],
            [
              0.46382492780685425,
              0.6046839952468872
            ],
            [
              0.5935448408126831,
              0.5290687680244446
            ],
            [
              0.7322272062301636,
              0.4554935693740845
            ],
            [
              0.8509058952331543,
              0.40456512570381165
            ],
            [
              0.14941763877868652,
              0.5952966809272766
            ],
            [
              0.2670673727989197,
              0.5643611550331116
            ],
            [
              0.4034133553504944,
              0.47687867283821106
            ],
            [
              0.5249717831611633,
              0.40185776352882385
            ],
            [
              0.6549352407455444,
              0.3375966250896454
            ],
            [
              0.804489254951477,
              0.2695828974246979
            ],
            [
              0.07479403167963028,
              0.4777240753173828
            ],
            [
              0.2075720876455307,
              0.40268030762672424
            ],
            [
              0.3353654742240906,
              0.3406522274017334
            ],
            [
              0.4617277979850769,
              0.2860419750213623
            ],
            [
              0.6041921973228455,
              0.1976892203092575
            ],
            [
              0.7418836355209351,
              0.13566277921199799
            ],
            [
              0.0,
              0.34943580627441406
            ],
            [
              0.11696537584066391,
              0.2598707377910614
            ],
            [
              0.26391541957855225,
              0.20869052410125732
            ],
            [
              0.4043319523334503,
              0.14591054618358612
            ],
            [
              0.5267635583877563,
              0.05311388149857521
            ],
            [
              0.6625400185585022,
              0.0
            ]
          ],
          "idw_seed_control_grid": [
            [
              [
                0.5728417038917542,
                -0.181776225566864,
                0.0
              ],
              [
                0.6373394131660461,
                -0.6758702397346497,
                0.0
              ],
              [
                0.1151949018239975,
                -0.6081372499465942,
                0.0
              ],
              [
                -0.17256231606006622,
                -0.570322573184967,
                0.0
              ]
            ],
            [
              [
                0.5968948006629944,
                -0.03341653570532799,
                0.0
              ],
              [
                0.4722936749458313,
                -0.3737001121044159,
                0.0
              ],
              [
                -0.014069793745875359,
                -0.6141007542610168,
                0.0
              ],
              [
                -0.3771829903125763,
                -0.5390018224716187,
                0.0
              ]
            ],
            [
              [
                0.5875834226608276,
                0.2019464075565338,
                0.0
              ],
              [
                0.3801259696483612,
                -0.020422199741005898,
                0.0
              ],
              [
                -0.19002242386341095,
                -0.35584133863449097,
                0.0
              ],
              [
                -0.5550588369369507,
                -0.4754420518875122,
                0.0
              ]
            ],
            [
              [
                0.5644904375076294,
                0.47800883650779724,
                0.0
              ],
              [
                0.18771374225616455,
                0.35020703077316284,
                0.0
              ],
              [
                -0.3814293146133423,
                0.011327475309371948,
                0.0
              ],
              [
                -0.5888793468475342,
                -0.21391339600086212,
                0.0
              ]
            ],
            [
              [
                0.37847042083740234,
                0.5469671487808228,
                0.0
              ],
              [
                0.01438632421195507,
                0.6146354079246521,
                0.0
              ],
              [
                -0.4693174958229065,
                0.36072614789009094,
                0.0
              ],
              [
                -0.5978057384490967,
                0.023703530430793762,
                0.0
              ]
            ],
            [
              [
                0.17270241677761078,
                0.5752754807472229,
                0.0
              ],
              [
                -0.1250937283039093,
                0.592280387878418,
                0.0
              ],
              [
                -0.7887111306190491,
                0.7773478627204895,
                0.0
              ],
              [
                -0.5845054388046265,
                0.1589977741241455,
                0.0
              ]
            ]
          ],
          "rounds": [
            {
              "control_grid_after_lsq": [
                [
                  [
                    1.473722219467163,
                    -0.38396573066711426,
                    0.0
                  ],
                  [
                    0.9580320715904236,
                    -0.8252311944961548,
                    -0.0
                  ],
                  [
                    0.18335504829883575,
                    -1.123413324356079,
                    0.0
                  ],
                  [
                    -0.40064895153045654,
                    -1.1976921558380127,
                    -0.0
                  ]
                ],
                [
                  [
                    1.4095433950424194,
                    -0.12285442650318146,
                    0.0
                  ],
                  [
                    0.8446318507194519,
                    -0.5345130562782288,
                    -0.0
                  ],
                  [
                    -0.09490795433521271,
                    -1.0170930624008179,
                    -0.0
                  ],
                  [
                    -0.6379795670509338,
                    -1.181760549545288,
                    0.0
                  ]
                ],
                [
                  [
                    1.1556459665298462,
                    0.2493540346622467,
                    -0.0
                  ],
                  [
                    0.6237644553184509,
                    -0.006817942019551992,
                    -0.0
                  ],
                  [
                    -0.3513210415840149,
                    -0.5049842000007629,
                    0.0
                  ],
                  [
                    -0.8572632670402527,
                    -0.7940088510513306,
                    -0.0
                  ]
                ],
                [
                  [
                    0.8599212169647217,
                    0.7809458374977112,
                    0.0
                  ],
                  [
                    0.3557852804660797,
                    0.5008528232574463,
                    0.0
                  ],
                  [
                    -0.6169230937957764,
                    -0.0031123978551477194,
                    0.0
                  ],
                  [
                    -1.1410585641860962,
                    -0.24967698752880096,
                    0.0
                  ]
                ],
                [
                  [
                    0.6509091258049011,
                    1.2070255279541016,
                    0.0
                  ],
                  [
                    0.09698374569416046,
                    1.0099248886108398,
                    0.0
                  ],
                  [
                    -0.8483914136886597,
                    0.5200028419494629,
                    0.0
                  ],
                  [
                    -1.3976736068725586,
                    0.11740424484014511,
                    0.0
                  ]
                ],
                [
                  [
                    0.4277759790420532,
                    1.2251323461532593,
                    0.0
                  ],
                  [
                    -0.15632064640522003,
                    1.1255360841751099,
                    0.0
                  ],
                  [
                    -0.9535272717475891,
                    0.8218668103218079,
                    -0.0
                  ],
                  [
                    -1.488641381263733,
                    0.36250293254852295,
                    0.0
                  ]
                ]
              ],
              "uv_after_footpoint": [
                [
                  0.33642473816871643,
                  0.9987311363220215
                ],
                [
                  0.47736287117004395,
                  0.9284096956253052
                ],
                [
                  0.6080881953239441,
                  0.8651192784309387
                ],
                [
                  0.7193955183029175,
                  0.7990225553512573
                ],
                [
                  0.8797644972801208,
                  0.7343069911003113
                ],
                [
                  1.0,
                  0.669580340385437
                ],
                [
                  0.27528712153434753,
                  0.8620396256446838
                ],
                [
                  0.42478540539741516,
                  0.8031315207481384
                ],
                [
                  0.5539202690124512,
                  0.732745885848999
                ],
                [
                  0.6775858998298645,
                  0.6533136963844299
                ],
                [
                  0.7783865332603455,
                  0.5895609259605408
                ],
                [
                  0.9396657943725586,
                  0.5261701941490173
                ],
                [
                  0.20127707719802856,
                  0.7365267276763916
                ],
                [
                  0.342113196849823,
                  0.6739901900291443
                ],
                [
                  0.46418285369873047,
                  0.6065740585327148
                ],
                [
                  0.592779815196991,
                  0.5293442606925964
                ],
                [
                  0.730198860168457,
                  0.4561421275138855
                ],
                [
                  0.8516302108764648,
                  0.39846059679985046
                ],
                [
                  0.1482086181640625,
                  0.6009184122085571
                ],
                [
                  0.26883232593536377,
                  0.562796950340271
                ],
                [
                  0.4043002128601074,
                  0.4762210249900818
                ],
                [
                  0.5246739387512207,
                  0.3998972475528717
                ],
                [
                  0.6534465551376343,
                  0.3349945843219757
                ],
                [
                  0.808011531829834,
                  0.2649517059326172
                ],
                [
                  0.07508280128240585,
                  0.4836902916431427
                ],
                [
                  0.20907524228096008,
                  0.3945302963256836
                ],
                [
                  0.3365495204925537,
                  0.337583065032959
                ],
                [
                  0.46240663528442383,
                  0.28448745608329773
                ],
                [
                  0.6023051738739014,
                  0.19535759091377258
                ],
                [
                  0.7458948493003845,
                  0.13453309237957
                ],
                [
                  0.0,
                  0.3462805449962616
                ],
                [
                  0.11066583544015884,
                  0.2524801790714264
                ],
                [
                  0.2603820562362671,
                  0.20825862884521484
                ],
                [
                  0.4056708812713623,
                  0.14774872362613678
                ],
                [
                  0.5250990390777588,
                  0.05495758727192879
                ],
                [
                  0.6624680757522583,
                  0.0016008728416636586
                ]
              ]
            },
            {
              "control_grid_after_lsq": [
                [
                  [
                    1.6026002168655396,
                    -0.42517727613449097,
                    0.0
                  ],
                  [
                    0.9283412098884583,
                    -0.8021655678749084,
                    -0.0
                  ],
                  [
                    0.21866407990455627,
                    -1.1778250932693481,
                    0.0
                  ],
                  [
                    -0.47015538811683655,
                    -1.475765347480774,
                    -0.0
                  ]
                ],
                [
                  [
                    1.457474946975708,
                    -0.11216293275356293,
                    0.0
                  ],
                  [
                    0.8090985417366028,
                    -0.5406161546707153,
                    -0.0
                  ],
                  [
                    -0.0664263665676117,
                    -0.9837539792060852,
                    -0.0
                  ],
                  [
                    -0.6747696995735168,
                    -1.221095323562622,
                    0.0
                  ]
                ],
                [
                  [
                    1.1809499263763428,
                    0.27739575505256653,
                    -0.0
                  ],
                  [
                    0.6104455590248108,
                    -0.024587338790297508,
                    -0.0
                  ],
                  [
                    -0.34236305952072144,
                    -0.5068358778953552,
                    0.0
                  ],
                  [
                    -0.8519306182861328,
                    -0.7816083431243896,
                    -0.0
                  ]
                ],
                [
                  [
                    0.8535093069076538,
                    0.7714077830314636,
                    0.0
                  ],
                  [
                    0.3451244831085205,
                    0.5014376640319824,
                    0.0
                  ],
                  [
                    -0.6040178537368774,
                    0.015152543783187866,
                    0.0
                  ],
                  [
                    -1.1593575477600098,
                    -0.27534961700439453,
                    0.0
                  ]
                ],
                [
                  [
                    0.68863844871521,
                    1.2372779846191406,
                    0.0
                  ],
                  [
                    0.06808125972747803,
                    0.9776462316513062,
                    0.0
                  ],
                  [
                    -0.8157690763473511,
                    0.5235890746116638,
                    0.0
                  ],
                  [
                    -1.4482378959655762,
                    0.10983199626207352,
                    0.0
                  ]
                ],
                [
                  [
                    0.504037082195282,
                    1.5031731128692627,
                    0.0
                  ],
                  [
                    -0.19473598897457123,
                    1.1800343990325928,
                    0.0
                  ],
                  [
                    -0.9216921329498291,
                    0.7970167398452759,
                    -0.0
                  ],
                  [
                    -1.6142910718917847,
                    0.4157377779483795,
                    0.0
                  ]
                ]
              ],
              "uv_after_footpoint": [
                [
                  0.3357280492782593,
                  0.9966763854026794
                ],
                [
                  0.4775950610637665,
                  0.9279052019119263
                ],
                [
                  0.608826220035553,
                  0.8629915714263916
                ],
                [
                  0.7194355130195618,
                  0.7986017465591431
                ],
                [
                  0.8801383972167969,
                  0.7343059182167053
                ],
                [
                  0.9991475939750671,
                  0.6692571640014648
                ],
                [
                  0.2751827538013458,
                  0.8622485399246216
                ],
                [
                  0.42488136887550354,
                  0.8050966858863831
                ],
                [
                  0.5531824827194214,
                  0.7348734140396118
                ],
                [
                  0.6766934990882874,
                  0.6566043496131897
                ],
                [
                  0.7802659273147583,
                  0.5922799110412598
                ],
                [
                  0.9394071102142334,
                  0.5275083780288696
                ],
                [
                  0.20075662434101105,
                  0.7392385005950928
                ],
                [
                  0.3425023853778839,
                  0.676050066947937
                ],
                [
                  0.46460482478141785,
                  0.6077742576599121
                ],
                [
                  0.5912389755249023,
                  0.5311601758003235
                ],
                [
                  0.7309388518333435,
                  0.45486077666282654
                ],
                [
                  0.8521524667739868,
                  0.3945191502571106
                ],
                [
                  0.14762727916240692,
                  0.6043315529823303
                ],
                [
                  0.2679399847984314,
                  0.5640596151351929
                ],
                [
                  0.4057726562023163,
                  0.47400030493736267
                ],
                [
                  0.524359941482544,
                  0.39819055795669556
                ],
                [
                  0.6529181599617004,
                  0.33251941204071045
                ],
                [
                  0.808333158493042,
                  0.2620207369327545
                ],
                [
                  0.07509227097034454,
                  0.4823042154312134
                ],
                [
                  0.2069525569677353,
                  0.3909173607826233
                ],
                [
                  0.3375166952610016,
                  0.33420228958129883
                ],
                [
                  0.46300750970840454,
                  0.28225237131118774
                ],
                [
                  0.6020214557647705,
                  0.1930956244468689
                ],
                [
                  0.7464107871055603,
                  0.13452427089214325
                ],
                [
                  0.000563399342354387,
                  0.34623396396636963
                ],
                [
                  0.11072216928005219,
                  0.2530320882797241
                ],
                [
                  0.2600347399711609,
                  0.20851187407970428
                ],
                [
                  0.40507468581199646,
                  0.14999708533287048
                ],
                [
                  0.5244359970092773,
                  0.056733377277851105
                ],
                [
                  0.6630071997642517,
                  0.003584520425647497
                ]
              ]
            }
          ],
          "final_control_grid": [
            [
              [
                1.6026002168655396,
                -0.42517727613449097,
                0.0
              ],
              [
                0.9283412098884583,
                -0.8021655678749084,
                -0.0
              ],
              [
                0.21866407990455627,
                -1.1778250932693481,
                0.0
              ],
              [
                -0.47015538811683655,
                -1.475765347480774,
                -0.0
              ]
            ],
            [
              [
                1.457474946975708,
                -0.11216293275356293,
                0.0
              ],
              [
                0.8090985417366028,
                -0.5406161546707153,
                -0.0
              ],
              [
                -0.0664263665676117,
                -0.9837539792060852,
                -0.0
              ],
              [
                -0.6747696995735168,
                -1.221095323562622,
                0.0
              ]
            ],
            [
              [
                1.1809499263763428,
                0.27739575505256653,
                -0.0
              ],
              [
                0.6104455590248108,
                -0.024587338790297508,
                -0.0
              ],
              [
                -0.34236305952072144,
                -0.5068358778953552,
                0.0
              ],
              [
                -0.8519306182861328,
                -0.7816083431243896,
                -0.0
              ]
            ],
            [
              [
                0.8535093069076538,
                0.7714077830314636,
                0.0
              ],
              [
                0.3451244831085205,
                0.5014376640319824,
                0.0
              ],
              [
                -0.6040178537368774,
                0.015152543783187866,
                0.0
              ],
              [
                -1.1593575477600098,
                -0.27534961700439453,
                0.0
              ]
            ],
            [
              [
                0.68863844871521,
                1.2372779846191406,
                0.0
              ],
              [
                0.06808125972747803,
                0.9776462316513062,
                0.0
              ],
              [
                -0.8157690763473511,
                0.5235890746116638,
                0.0
              ],
              [
                -1.4482378959655762,
                0.10983199626207352,
                0.0
              ]
            ],
            [
              [
                0.504037082195282,
                1.5031731128692627,
                0.0
              ],
              [
                -0.19473598897457123,
                1.1800343990325928,
                0.0
              ],
              [
                -0.9216921329498291,
                0.7970167398452759,
                -0.0
              ],
              [
                -1.6142910718917847,
                0.4157377779483795,
                0.0
              ]
            ]
          ],
          "final_weights": [
            [
              1.0,
              1.0,
              1.0,
              1.0
            ],
            [
              1.0,
              1.0,
              1.0,
              1.0
            ],
            [
              1.0,
              1.0,
              1.0,
              1.0
            ],
            [
              1.0,
              1.0,
              1.0,
              1.0
            ],
            [
              1.0,
              1.0,
              1.0,
              1.0
            ],
            [
              1.0,
              1.0,
              1.0,
              1.0
            ]
          ],
          "final_gaussian_indices": [
            0,
            1,
            2,
            3,
            4,
            5,
            6,
            7,
            8,
            9,
            10,
            11,
            12,
            13,
            14,
            15,
            16,
            17,
            18,
            19,
            20,
            21,
            22,
            23,
            24,
            25,
            26,
            27,
            28,
            29,
            30,
            31,
            32,
            33,
            34,
            35,
            36,
            37,
            38,
            39,
            40,
            41,
            42,
            43,
            44,
            45,
            46,
            47,
            48,
            49,
            50,
            51,
            52,
            53,
            54,
            55,
            56,
            57,
            58,
            59,
            60,
            61,
            62,
            63,
            64,
            65,
            66,
            67,
            68,
            69,
            70,
            71,
            72,
            73,
            74,
            75,
            76,
            77,
            78,
            79,
            80,
            81,
            82,
            83,
            84,
            85,
            86,
            87,
            88,
            89,
            90,
            91,
            92,
            93,
            94,
            95,
            96,
            97,
            98,
            99,
            100,
            101,
            102,
            103,
            104,
            105,
            106,
            107,
            108,
            109,
            110,
            111,
            112,
            113,
            114,
            115,
            116,
            117,
            118,
            119,
            120,
            121,
            122,
            123,
            124,
            125,
            126,
            127,
            128,
            129,
            130,
            131,
            132,
            133,
            134,
            135,
            136,
            137,
            138,
            139,
            140,
            141,
            142,
            143,
            144,
            145,
            146,
            147,
            148,
            149,
            150,
            151,
            152,
            153,
            154,
            155,
            156,
            157,
            158,
            159,
            160,
            161,
            162,
            163,
            164,
            165,
            166,
            167,
            168,
            169,
            170,
            171,
            172,
            173,
            174,
            175,
            176,
            177,
            178,
            179,
            180,
            181,
            182,
            183,
            184,
            185,
            186,
            187,
            188,
            189,
            190,
            191,
            192,
            193,
            194,
            195,
            196,
            197,
            198,
            199,
            200,
            201,
            202,
            203,
            204,
            205,
            206,
            207,
            208,
            209,
            210,
            211,
            212,
            213,
            214,
            215,
            216,
            217,
            218,
            219,
            220,
            221,
            222,
            223,
            224,
            225,
            226,
            227,
            228,
            229,
            230,
            231,
            232,
            233,
            234,
            235,
            236,
            237,
            238,
            239,
            240,
            241,
            242,
            243,
            244,
            245,
            246,
            247,
            248,
            249,
            250,
            251,
            252,
            253,
            254,
            255,
            256,
            257,
            258,
            259,
            260,
            261,
            262,
            263,
            264,
            265,
            266,
            267,
            268,
            269,
            270,
            271,
            272,
            273,
            274,
            275,
            276,
            277,
            278,
            279,
            280,
            281,
            282,
            283,
            284,
            285,
            286,
            287,
            288,
            289,
            290,
            291,
            292,
            293,
            294,
            295,
            296,
            297,
            298,
            299,
            300,
            301,
            302,
            303,
            304,
            305,
            306,
            307,
            308,
            309,
            310,
            311,
            312,
            313,
            314,
            315,
            316,
            317,
            318,
            319,
            320,
            321,
            322,
            323,
            324,
            325,
            326,
            327,
            328,
            329,
            330,
            331,
            332,
            333,
            334,
            335,
            336,
            337,
            338,
            339,
            340,
            341,
            342,
            343,
            344,
            345,
            346,
            347,
            348,
            349,
            350,
            351,
            352,
            353,
            354,
            355,
            356,
            357,
            358,
            359,
            360,
            361,
            362,
            363,
            364,
            365,
            366,
            367,
            368,
            369,
            370,
            371,
            372,
            373,
            374,
            375,
            376,
            377,
            378,
            379,
            380,
            381,
            382,
            383,
            384,
            385,
            386,
            387,
            388,
            389,
            390,
            391,
            392,
            393,
            394,
            395,
            396,
            397,
            398,
            399,
            400,
            401,
            402,
            403,
            404,
            405,
            406,
            407,
            408,
            409,
            410,
            411,
            412,
            413,
            414,
            415,
            416,
            417,
            418,
            419,
            420,
            421,
            422,
            423,
            424,
            425,
            426,
            427,
            428,
            429,
            430,
            431,
            432,
            433,
            434,
            435,
            436,
            437,
            438,
            439,
            440,
            441,
            442,
            443,
            444,
            445,
            446,
            447,
            448,
            449,
            450,
            451,
            452,
            453,
            454,
            455,
            456,
            457,
            458,
            459,
            460,
            461,
            462,
            463,
            464,
            465,
            466,
            467,
            468,
            469,
            470,
            471,
            472,
            473,
            474,
            475,
            476,
            477,
            478,
            479,
            480,
            481,
            482,
            483,
            484,
            485,
            486,
            487,
            488,
            489,
            490,
            491,
            492,
            493,
            494,
            495,
            496,
            497,
            498,
            499,
            500,
            501,
            502,
            503,
            504,
            505,
            506,
            507,
            508,
            509,
            510,
            511,
            512,
            513,
            514,
            515,
            516,
            517,
            518,
            519,
            520,
            521,
            522,
            523,
            524,
            525,
            526,
            527,
            528,
            529,
            530,
            531,
            532,
            533,
            534,
            535,
            536,
            537,
            538,
            539,
            540,
            541,
            542,
            543,
            544,
            545,
            546,
            547,
            548,
            549,
            550,
            551,
            552,
            553,
            554,
            555,
            556,
            557,
            558,
            559,
            560,
            561,
            562,
            563,
            564,
            565,
            566,
            567,
            568,
            569,
            570,
            571,
            572,
            573,
            574,
            575,
            576,
            577,
            578,
            579,
            580,
            581,
            582,
            583,
            584,
            585,
            586,
            587,
            588,
            589,
            590,
            591,
            592,
            593,
            594,
            595,
            596,
            597,
            598,
            599
          ],
          "final_gaussian_uv": [
            [
              0.7127583026885986,
              0.39014846086502075
            ],
            [
              0.3808213770389557,
              0.9758208394050598
            ],
            [
              0.6831470727920532,
              0.6045355796813965
            ],
            [
              0.8194210529327393,
              0.33776184916496277
            ],
            [
              0.6213464736938477,
              0.4816738963127136
            ],
            [
              0.48607322573661804,
              0.6646727323532104
            ],
            [
              0.4386347532272339,
              1.0
            ],
            [
              0.5976687073707581,
              0.6612377166748047
            ],
            [
              0.6561936736106873,
              0.21574600040912628
            ],
            [
              0.46965473890304565,
              0.8600936532020569
            ],
            [
              0.7586178183555603,
              0.18343639373779297
            ],
            [
              0.8382965326309204,
              0.42260509729385376
            ],
            [
              0.5740017890930176,
              0.5452487468719482
            ],
            [
              0.0,
              0.3275240659713745
            ],
            [
              0.5292512774467468,
              0.8040906190872192
            ],
            [
              0.9197432994842529,
              0.46605411171913147
            ],
            [
              0.4540909230709076,
              0.8539431095123291
            ],
            [
              0.2663581967353821,
              0.9651622176170349
            ],
            [
              0.9566558003425598,
              0.5541772246360779
            ],
            [
              0.5999029874801636,
              0.21946319937705994
            ],
            [
              0.2911946177482605,
              0.585467517375946
            ],
            [
              0.09885035455226898,
              0.6455074548721313
            ],
            [
              0.4478500187397003,
              0.8934990763664246
            ],
            [
              0.6023203730583191,
              0.12748470902442932
            ],
            [
              0.5755497217178345,
              0.6882280111312866
            ],
            [
              0.773004412651062,
              0.05074780061841011
            ],
            [
              0.4757547974586487,
              0.3111574053764343
            ],
            [
              0.1325335055589676,
              0.34324607253074646
            ],
            [
              0.15830065310001373,
              0.5915652513504028
            ],
            [
              0.44142135977745056,
              0.8825815916061401
            ],
            [
              0.5664920210838318,
              0.2341376692056656
            ],
            [
              0.7412055134773254,
              0.6807293891906738
            ],
            [
              0.3432985246181488,
              0.3030823767185211
            ],
            [
              0.5832242965698242,
              0.43573763966560364
            ],
            [
              0.7619653344154358,
              0.06334172934293747
            ],
            [
              0.5142616033554077,
              0.8804243803024292
            ],
            [
              0.7517045140266418,
              0.1723499298095703
            ],
            [
              0.6740903854370117,
              0.0
            ],
            [
              0.1184777170419693,
              0.6140424609184265
            ],
            [
              0.237294539809227,
              0.5929757356643677
            ],
            [
              1.0,
              0.6940574049949646
            ],
            [
              0.0,
              0.41490358114242554
            ],
            [
              0.400438517332077,
              0.45701149106025696
            ],
            [
              0.3570370078086853,
              0.6632498502731323
            ],
            [
              0.1914440095424652,
              0.46032071113586426
            ],
            [
              0.6243687272071838,
              0.2462993711233139
            ],
            [
              0.5031838417053223,
              0.14024120569229126
            ],
            [
              0.45097923278808594,
              1.0
            ],
            [
              0.4837554395198822,
              0.25617149472236633
            ],
            [
              0.43614038825035095,
              0.9275184869766235
            ],
            [
              0.5727008581161499,
              0.0
            ],
            [
              0.4914887547492981,
              0.7290316224098206
            ],
            [
              0.6913575530052185,
              0.8742867112159729
            ],
            [
              0.3510230481624603,
              0.9562075734138489
            ],
            [
              0.5701496005058289,
              0.4916779696941376
            ],
            [
              0.8183228373527527,
              0.5477212071418762
            ],
            [
              0.9795895218849182,
              0.5510875582695007
            ],
            [
              0.03263214975595474,
              0.39924249053001404
            ],
            [
              0.5679764747619629,
              0.5937556028366089
            ],
            [
              0.5639698505401611,
              0.39043107628822327
            ],
            [
              0.4478875696659088,
              0.3281083405017853
            ],
            [
              0.7872679233551025,
              0.6059508323669434
            ],
            [
              0.4663570821285248,
              0.9970595836639404
            ],
            [
              0.3627051115036011,
              0.7038812041282654
            ],
            [
              0.24526043236255646,
              0.810494065284729
            ],
            [
              0.6263308525085449,
              0.5444095730781555
            ],
            [
              0.6122193336486816,
              0.7716710567474365
            ],
            [
              0.316880464553833,
              0.23545017838478088
            ],
            [
              0.46354109048843384,
              0.5066497921943665
            ],
            [
              0.7102682590484619,
              0.28457018733024597
            ],
            [
              0.556420624256134,
              0.00010659163672244176
            ],
            [
              0.2762407958507538,
              0.14656998217105865
            ],
            [
              0.49907732009887695,
              0.949857771396637
            ],
            [
              0.36299943923950195,
              0.2303055226802826
            ],
            [
              0.2988450825214386,
              0.8572078347206116
            ],
            [
              0.3597237467765808,
              1.0
            ],
            [
              0.757684051990509,
              0.4693974554538727
            ],
            [
              0.01606251671910286,
              0.5049266815185547
            ],
            [
              0.06818456947803497,
              0.40804147720336914
            ],
            [
              0.38716357946395874,
              0.671320915222168
            ],
            [
              0.46456918120384216,
              0.6204245686531067
            ],
            [
              0.3428294360637665,
              1.0
            ],
            [
              0.5373111367225647,
              0.5624666213989258
            ],
            [
              0.7412666082382202,
              0.6113684177398682
            ],
            [
              0.6591130495071411,
              0.8658844232559204
            ],
            [
              0.15652143955230713,
              0.23060184717178345
            ],
            [
              0.4613340497016907,
              0.07553545385599136
            ],
            [
              0.9370946884155273,
              0.7347821593284607
            ],
            [
              0.35163214802742004,
              0.6409016251564026
            ],
            [
              0.02249382995069027,
              0.34280335903167725
            ],
            [
              0.40034034848213196,
              0.4989154636859894
            ],
            [
              0.4676424562931061,
              0.16095004975795746
            ],
            [
              0.5420311093330383,
              0.23347705602645874
            ],
            [
              0.46866071224212646,
              0.6426825523376465
            ],
            [
              0.8865742683410645,
              0.7230844497680664
            ],
            [
              0.607708215713501,
              0.04621012136340141
            ],
            [
              0.6618691682815552,
              0.7730646133422852
            ],
            [
              0.4306003153324127,
              0.8940290212631226
            ],
            [
              0.7551674246788025,
              0.6694557070732117
            ],
            [
              0.6122952103614807,
              0.7446784973144531
            ],
            [
              0.7466537952423096,
              0.3470202088356018
            ],
            [
              0.3868573307991028,
              0.9407955408096313
            ],
            [
              0.8953242897987366,
              0.5943351984024048
            ],
            [
              0.90586918592453,
              0.4593884348869324
            ],
            [
              0.47947582602500916,
              0.32677578926086426
            ],
            [
              0.4275367259979248,
              0.5445947647094727
            ],
            [
              0.3893374800682068,
              0.49518701434135437
            ],
            [
              0.5519881248474121,
              0.47632408142089844
            ],
            [
              0.4566768407821655,
              0.9176381230354309
            ],
            [
              0.019615530967712402,
              0.34052011370658875
            ],
            [
              0.9073013663291931,
              0.30454689264297485
            ],
            [
              0.4419473111629486,
              0.3467853367328644
            ],
            [
              0.8781614303588867,
              0.7474930882453918
            ],
            [
              0.5340847969055176,
              0.8415852189064026
            ],
            [
              0.5110260844230652,
              0.6680418252944946
            ],
            [
              0.8262500166893005,
              0.3181026875972748
            ],
            [
              0.8327957391738892,
              0.25827059149742126
            ],
            [
              0.12828730046749115,
              0.3758956789970398
            ],
            [
              0.13322840631008148,
              0.4615049958229065
            ],
            [
              0.7016164064407349,
              0.6151465773582458
            ],
            [
              0.7314134836196899,
              0.21143952012062073
            ],
            [
              0.5657272934913635,
              0.6321858167648315
            ],
            [
              0.020129863172769547,
              0.517857551574707
            ],
            [
              0.03109799511730671,
              0.3789641559123993
            ],
            [
              0.4340530335903168,
              0.5299883484840393
            ],
            [
              0.6587640047073364,
              0.6876891255378723
            ],
            [
              0.21415142714977264,
              0.22878733277320862
            ],
            [
              0.4778388738632202,
              0.8144612908363342
            ],
            [
              0.8886545896530151,
              0.799806535243988
            ],
            [
              0.3368958830833435,
              0.8312715888023376
            ],
            [
              0.846142053604126,
              0.6204109787940979
            ],
            [
              0.6973505020141602,
              0.13095584511756897
            ],
            [
              0.29960477352142334,
              0.41699516773223877
            ],
            [
              0.6720914840698242,
              0.555472731590271
            ],
            [
              0.44300106167793274,
              0.12334653735160828
            ],
            [
              0.4147372543811798,
              0.7884610295295715
            ],
            [
              0.7871279120445251,
              0.8266004920005798
            ],
            [
              0.2574348449707031,
              0.9051321744918823
            ],
            [
              0.06554396450519562,
              0.2773134410381317
            ],
            [
              0.6349446177482605,
              0.48758143186569214
            ],
            [
              0.23005041480064392,
              0.6283226609230042
            ],
            [
              0.9785524606704712,
              0.6647318601608276
            ],
            [
              0.798449695110321,
              0.25955918431282043
            ],
            [
              0.6832579374313354,
              0.5787920355796814
            ],
            [
              0.5295331478118896,
              0.6038105487823486
            ],
            [
              0.7595725655555725,
              0.6804113984107971
            ],
            [
              0.43205687403678894,
              0.3745806813240051
            ],
            [
              0.30529913306236267,
              0.7204333543777466
            ],
            [
              0.06864006817340851,
              0.37040555477142334
            ],
            [
              0.2888830602169037,
              0.3980797827243805
            ],
            [
              0.6683379411697388,
              0.6610305309295654
            ],
            [
              0.6964398622512817,
              0.6658211946487427
            ],
            [
              0.16942629218101501,
              0.5785421133041382
            ],
            [
              0.6333633065223694,
              0.34259527921676636
            ],
            [
              0.37510406970977783,
              0.36336204409599304
            ],
            [
              0.606839120388031,
              0.8546732664108276
            ],
            [
              0.29045072197914124,
              0.4294082522392273
            ],
            [
              0.686258852481842,
              0.20868711173534393
            ],
            [
              0.6095058917999268,
              0.7099185585975647
            ],
            [
              0.450792133808136,
              0.31610772013664246
            ],
            [
              0.5331710577011108,
              0.43937674164772034
            ],
            [
              0.6933623552322388,
              0.7962768077850342
            ],
            [
              0.720432698726654,
              0.04524678736925125
            ],
            [
              0.43729570508003235,
              0.23774230480194092
            ],
            [
              0.21628287434577942,
              0.4032248258590698
            ],
            [
              0.3292819857597351,
              1.0
            ],
            [
              0.5454545021057129,
              0.0
            ],
            [
              0.7991076707839966,
              0.7019263505935669
            ],
            [
              0.7512550354003906,
              0.006678824778646231
            ],
            [
              0.6277130246162415,
              0.0
            ],
            [
              0.4121101200580597,
              0.6672142744064331
            ],
            [
              0.5532132983207703,
              0.061781175434589386
            ],
            [
              0.9751070737838745,
              0.5505772829055786
            ],
            [
              0.6162493824958801,
              0.19267724454402924
            ],
            [
              0.7426673173904419,
              0.6969515681266785
            ],
            [
              0.8800061345100403,
              0.47383302450180054
            ],
            [
              0.6890125870704651,
              0.49381881952285767
            ],
            [
              0.6309367418289185,
              0.33820444345474243
            ],
            [
              0.7615995407104492,
              0.5414692759513855
            ],
            [
              0.733837902545929,
              0.7357494235038757
            ],
            [
              0.23831172287464142,
              0.9650702476501465
            ],
            [
              0.9746798872947693,
              0.6643253564834595
            ],
            [
              0.7686655521392822,
              0.09666801989078522
            ],
            [
              0.0,
              0.364755779504776
            ],
            [
              0.5753362774848938,
              0.8054311871528625
            ],
            [
              0.9074958562850952,
              0.6238123774528503
            ],
            [
              0.46530455350875854,
              0.9003317356109619
            ],
            [
              0.47728344798088074,
              0.9942507743835449
            ],
            [
              0.6571548581123352,
              0.009845667518675327
            ],
            [
              0.6601912975311279,
              0.05877862125635147
            ],
            [
              0.21430504322052002,
              0.20027954876422882
            ],
            [
              0.7688309550285339,
              0.1429588347673416
            ],
            [
              0.8358101844787598,
              0.16047082841396332
            ],
            [
              0.6395704746246338,
              0.16343915462493896
            ],
            [
              0.7606217265129089,
              0.5473940968513489
            ],
            [
              0.38733723759651184,
              0.5018378496170044
            ],
            [
              0.39728838205337524,
              0.842205286026001
            ],
            [
              0.9238021969795227,
              0.6765626668930054
            ],
            [
              0.3135108947753906,
              0.23930765688419342
            ],
            [
              0.9227777123451233,
              0.5755503177642822
            ],
            [
              0.4035360813140869,
              0.23010380566120148
            ],
            [
              0.9569482803344727,
              0.4844663143157959
            ],
            [
              0.12084988504648209,
              0.4932553470134735
            ],
            [
              0.6036944389343262,
              0.0
            ],
            [
              0.7965876460075378,
              0.5357386469841003
            ],
            [
              0.5540072321891785,
              0.7610223889350891
            ],
            [
              0.34587758779525757,
              0.16004401445388794
            ],
            [
              0.5138605237007141,
              0.8501009345054626
            ],
            [
              0.4814034104347229,
              0.6515801548957825
            ],
            [
              0.8501320481300354,
              0.26170238852500916
            ],
            [
              0.2483963966369629,
              0.6072315573692322
            ],
            [
              0.6779422760009766,
              0.3781419098377228
            ],
            [
              0.04394454136490822,
              0.5058450698852539
            ],
            [
              0.24319298565387726,
              0.7281592488288879
            ],
            [
              0.7287508249282837,
              0.6033163666725159
            ],
            [
              0.7955679893493652,
              0.7127678990364075
            ],
            [
              0.3557484745979309,
              0.1554570496082306
            ],
            [
              0.4966961443424225,
              0.839764416217804
            ],
            [
              0.15722566843032837,
              0.5749768018722534
            ],
            [
              0.04610005393624306,
              0.5032364130020142
            ],
            [
              0.30773991346359253,
              1.0
            ],
            [
              0.8075284361839294,
              0.44061747193336487
            ],
            [
              1.0,
              0.7119836807250977
            ],
            [
              0.6961097717285156,
              0.6057072281837463
            ],
            [
              0.13469913601875305,
              0.6818962097167969
            ],
            [
              0.5430594682693481,
              0.06343778222799301
            ],
            [
              0.49742141366004944,
              0.012335021048784256
            ],
            [
              0.962617814540863,
              0.5942282676696777
            ],
            [
              0.6753334999084473,
              0.37823808193206787
            ],
            [
              0.5507522225379944,
              0.8755273222923279
            ],
            [
              0.5481171607971191,
              0.9617105722427368
            ],
            [
              0.14866666495800018,
              0.5824613571166992
            ],
            [
              0.6464691758155823,
              0.2587529718875885
            ],
            [
              0.21017548441886902,
              0.5833458304405212
            ],
            [
              0.5373236536979675,
              0.8701042532920837
            ],
            [
              0.8095534443855286,
              0.12496120482683182
            ],
            [
              0.34321504831314087,
              0.2904614210128784
            ],
            [
              0.04635373130440712,
              0.5921898484230042
            ],
            [
              0.8644883036613464,
              0.7482864260673523
            ],
            [
              0.8072969317436218,
              0.6359120607376099
            ],
            [
              0.4522942006587982,
              0.8830517530441284
            ],
            [
              0.8789041638374329,
              0.7267499566078186
            ],
            [
              0.8262290954589844,
              0.3755685091018677
            ],
            [
              0.5917522311210632,
              0.1388300508260727
            ],
            [
              0.3762284219264984,
              0.5513270497322083
            ],
            [
              0.5957194566726685,
              0.562949001789093
            ],
            [
              0.12601348757743835,
              0.439865380525589
            ],
            [
              0.2868126928806305,
              0.19168637692928314
            ],
            [
              0.46149906516075134,
              0.9418540596961975
            ],
            [
              0.6849375367164612,
              0.0
            ],
            [
              0.9686005115509033,
              0.729621171951294
            ],
            [
              0.6312180161476135,
              0.1761898398399353
            ],
            [
              0.11355945467948914,
              0.2667124569416046
            ],
            [
              0.5967236757278442,
              0.2863524258136749
            ],
            [
              0.6909739375114441,
              0.5541688203811646
            ],
            [
              0.803117573261261,
              0.4896294176578522
            ],
            [
              0.4132523834705353,
              0.6910902857780457
            ],
            [
              0.5883380174636841,
              0.32320845127105713
            ],
            [
              0.6334725618362427,
              0.6812952160835266
            ],
            [
              0.34747421741485596,
              0.2862606644630432
            ],
            [
              0.3484082818031311,
              0.4230247139930725
            ],
            [
              0.1461411714553833,
              0.5087952613830566
            ],
            [
              0.4234524965286255,
              0.8406473994255066
            ],
            [
              0.20208345353603363,
              0.19215387105941772
            ],
            [
              0.3137058615684509,
              0.6025705933570862
            ],
            [
              0.688256025314331,
              0.0
            ],
            [
              0.3344939053058624,
              0.9640233516693115
            ],
            [
              0.6533682942390442,
              0.8022412061691284
            ],
            [
              0.2957342267036438,
              0.7402070164680481
            ],
            [
              0.6462914347648621,
              0.6094958782196045
            ],
            [
              0.6935539841651917,
              0.6687206029891968
            ],
            [
              0.35946184396743774,
              0.6949281692504883
            ],
            [
              0.8004443049430847,
              0.2708340287208557
            ],
            [
              0.6563005447387695,
              0.7617238759994507
            ],
            [
              0.9605242013931274,
              0.4190443158149719
            ],
            [
              0.3110586106777191,
              1.0
            ],
            [
              0.04901431128382683,
              0.23422400653362274
            ],
            [
              0.4313790500164032,
              0.43843764066696167
            ],
            [
              0.45777079463005066,
              0.6333183646202087
            ],
            [
              0.3939683437347412,
              0.23681969940662384
            ],
            [
              0.47028350830078125,
              1.0
            ],
            [
              0.7681118249893188,
              0.5386140942573547
            ],
            [
              1.0,
              0.5576452016830444
            ],
            [
              0.47691860795021057,
              0.6291736364364624
            ],
            [
              0.5385427474975586,
              0.08783143013715744
            ],
            [
              0.5546998977661133,
              0.04805014282464981
            ],
            [
              0.301959753036499,
              0.7612108588218689
            ],
            [
              0.8440067172050476,
              0.34995561838150024
            ],
            [
              0.1962004452943802,
              0.8279395699501038
            ],
            [
              0.8097702264785767,
              0.13795213401317596
            ],
            [
              0.22848471999168396,
              0.7871672511100769
            ],
            [
              0.7920753955841064,
              0.8068627119064331
            ],
            [
              0.32021564245224,
              0.6369357705116272
            ],
            [
              0.6080605387687683,
              0.3378905653953552
            ],
            [
              0.6451596617698669,
              0.027868175879120827
            ],
            [
              0.17967619001865387,
              0.7488083243370056
            ],
            [
              1.0,
              0.6723639369010925
            ],
            [
              0.5816805362701416,
              0.2311808466911316
            ],
            [
              1.0,
              0.6581538319587708
            ],
            [
              0.666235625743866,
              0.0
            ],
            [
              0.5247336030006409,
              0.9095138311386108
            ],
            [
              1.0,
              0.5749084949493408
            ],
            [
              0.4112107753753662,
              0.7686778903007507
            ],
            [
              0.21362824738025665,
              0.375392347574234
            ],
            [
              0.5655238628387451,
              0.7177653312683105
            ],
            [
              0.21177512407302856,
              0.7036371827125549
            ],
            [
              0.15389885008335114,
              0.25306999683380127
            ],
            [
              0.7770516872406006,
              0.1790158897638321
            ],
            [
              0.45694664120674133,
              0.26806938648223877
            ],
            [
              0.382904052734375,
              0.1411595642566681
            ],
            [
              0.9653013348579407,
              0.47097623348236084
            ],
            [
              0.06981908529996872,
              0.6340495944023132
            ],
            [
              0.2907831370830536,
              0.7574310898780823
            ],
            [
              0.25468015670776367,
              0.18859001994132996
            ],
            [
              0.6635546684265137,
              0.8689894080162048
            ],
            [
              0.47745227813720703,
              0.19690440595149994
            ],
            [
              0.47555437684059143,
              0.3516756296157837
            ],
            [
              0.33341988921165466,
              0.3954154849052429
            ],
            [
              0.20512281358242035,
              0.8522911667823792
            ],
            [
              0.829469621181488,
              0.7173372507095337
            ],
            [
              0.6771659851074219,
              0.7109326720237732
            ],
            [
              0.46655112504959106,
              0.35496947169303894
            ],
            [
              1.0,
              0.554348886013031
            ],
            [
              0.9421775341033936,
              0.5636174082756042
            ],
            [
              0.5677516460418701,
              0.8634878993034363
            ],
            [
              0.23090770840644836,
              0.35704731941223145
            ],
            [
              0.05882641673088074,
              0.2992873787879944
            ],
            [
              0.496154248714447,
              0.9236170053482056
            ],
            [
              0.8358796834945679,
              0.23884370923042297
            ],
            [
              0.7385563850402832,
              0.62446129322052
            ],
            [
              0.46817055344581604,
              0.6481602191925049
            ],
            [
              0.04806114733219147,
              0.3603849411010742
            ],
            [
              0.8543869256973267,
              0.2540026009082794
            ],
            [
              0.8359520435333252,
              0.3878411650657654
            ],
            [
              0.880763828754425,
              0.44907519221305847
            ],
            [
              0.6427550911903381,
              0.9049844741821289
            ],
            [
              0.6622512340545654,
              0.505849301815033
            ],
            [
              0.7259877920150757,
              0.18392735719680786
            ],
            [
              0.5157409906387329,
              0.57024085521698
            ],
            [
              0.2555886209011078,
              0.27739888429641724
            ],
            [
              0.05949205532670021,
              0.28076913952827454
            ],
            [
              0.5024401545524597,
              0.5563687682151794
            ],
            [
              0.6797941327095032,
              0.17923593521118164
            ],
            [
              0.20344699919223785,
              0.7392049431800842
            ],
            [
              0.5184690952301025,
              0.2389693260192871
            ],
            [
              0.17817671597003937,
              0.45878836512565613
            ],
            [
              0.7512890100479126,
              0.05663122236728668
            ],
            [
              0.11410395801067352,
              0.6762414574623108
            ],
            [
              0.06759607791900635,
              0.36546969413757324
            ],
            [
              0.5123191475868225,
              0.37549513578414917
            ],
            [
              0.7327352166175842,
              0.6225038766860962
            ],
            [
              0.7799047827720642,
              0.8066689968109131
            ],
            [
              0.5862655639648438,
              0.7763681411743164
            ],
            [
              0.8142886757850647,
              0.26727408170700073
            ],
            [
              0.8509087562561035,
              0.5651846528053284
            ],
            [
              0.3426189720630646,
              0.6515941619873047
            ],
            [
              0.31291133165359497,
              1.0
            ],
            [
              0.19644837081432343,
              0.16892004013061523
            ],
            [
              0.5961732268333435,
              0.4226137697696686
            ],
            [
              0.7023809552192688,
              0.05803219601511955
            ],
            [
              0.045192159712314606,
              0.322176456451416
            ],
            [
              0.30223095417022705,
              0.6893728971481323
            ],
            [
              0.7103517055511475,
              0.684883177280426
            ],
            [
              0.0,
              0.2863512337207794
            ],
            [
              0.17396555840969086,
              0.35421597957611084
            ],
            [
              0.8541003465652466,
              0.40606600046157837
            ],
            [
              0.5812219381332397,
              0.5750969052314758
            ],
            [
              0.9766993522644043,
              0.6065067052841187
            ],
            [
              0.23812176287174225,
              0.70598965883255
            ],
            [
              0.16291183233261108,
              0.5298803448677063
            ],
            [
              0.6877965331077576,
              0.8023812174797058
            ],
            [
              0.22579072415828705,
              0.23946043848991394
            ],
            [
              0.7488720417022705,
              0.13701152801513672
            ],
            [
              0.1590062528848648,
              0.3328225910663605
            ],
            [
              0.40234044194221497,
              0.6111015677452087
            ],
            [
              0.6655423045158386,
              0.8180665373802185
            ],
            [
              0.6822054982185364,
              0.0322108268737793
            ],
            [
              0.5705176591873169,
              0.4140167832374573
            ],
            [
              0.8862118721008301,
              0.5174126029014587
            ],
            [
              0.31223559379577637,
              0.8117330074310303
            ],
            [
              0.7052939534187317,
              0.3114004135131836
            ],
            [
              1.0,
              0.6783270835876465
            ],
            [
              0.15365831553936005,
              0.4981566071510315
            ],
            [
              0.8871259093284607,
              0.39360782504081726
            ],
            [
              0.5419347286224365,
              0.8637538552284241
            ],
            [
              0.09122858196496964,
              0.5646928548812866
            ],
            [
              0.5932702422142029,
              0.1726093739271164
            ],
            [
              0.1244320198893547,
              0.3737083077430725
            ],
            [
              0.06143215671181679,
              0.22291189432144165
            ],
            [
              0.0,
              0.2988745868206024
            ],
            [
              0.9278602600097656,
              0.73406583070755
            ],
            [
              0.503495991230011,
              0.44472357630729675
            ],
            [
              0.45078128576278687,
              0.8093434572219849
            ],
            [
              0.16827748715877533,
              0.8232958316802979
            ],
            [
              0.5593194961547852,
              0.4415334165096283
            ],
            [
              0.6265619397163391,
              0.43268465995788574
            ],
            [
              0.41429373621940613,
              0.08007269352674484
            ],
            [
              0.4159627854824066,
              0.7343547940254211
            ],
            [
              0.3595965504646301,
              0.8979296684265137
            ],
            [
              0.46581581234931946,
              0.6035491228103638
            ],
            [
              0.24470846354961395,
              0.40080830454826355
            ],
            [
              0.06272432953119278,
              0.3186738193035126
            ],
            [
              0.8575080633163452,
              0.3022463917732239
            ],
            [
              0.06673315167427063,
              0.2209896445274353
            ],
            [
              0.5121023058891296,
              0.4020676016807556
            ],
            [
              0.4622083604335785,
              0.7611627578735352
            ],
            [
              0.17349117994308472,
              0.535014808177948
            ],
            [
              0.6363474726676941,
              0.34177863597869873
            ],
            [
              0.9077381491661072,
              0.47815096378326416
            ],
            [
              0.6914408802986145,
              0.4319319427013397
            ],
            [
              0.17100632190704346,
              0.17404332756996155
            ],
            [
              0.2805553674697876,
              0.3348824977874756
            ],
            [
              0.46570295095443726,
              0.5959022045135498
            ],
            [
              0.35688892006874084,
              0.5816388130187988
            ],
            [
              0.470571368932724,
              0.39580222964286804
            ],
            [
              0.2946052551269531,
              0.2845210134983063
            ],
            [
              0.33782172203063965,
              0.5358316898345947
            ],
            [
              0.8369686603546143,
              0.753711462020874
            ],
            [
              0.32093435525894165,
              0.530065655708313
            ],
            [
              0.6707419157028198,
              0.5865978598594666
            ],
            [
              0.7954971790313721,
              0.43606239557266235
            ],
            [
              0.6365274786949158,
              0.39742371439933777
            ],
            [
              0.3197013735771179,
              0.3702680766582489
            ],
            [
              0.7050899863243103,
              0.1739804595708847
            ],
            [
              0.5677517056465149,
              0.44004857540130615
            ],
            [
              0.7674235701560974,
              0.3391210436820984
            ],
            [
              0.37999075651168823,
              0.7811269760131836
            ],
            [
              0.0724896714091301,
              0.5171293020248413
            ],
            [
              0.3197758197784424,
              0.589608371257782
            ],
            [
              0.004816091153770685,
              0.4375874698162079
            ],
            [
              0.777676522731781,
              0.0637790709733963
            ],
            [
              0.4368726313114166,
              0.4300757348537445
            ],
            [
              0.1255585253238678,
              0.1972564458847046
            ],
            [
              0.3479090929031372,
              0.624707818031311
            ],
            [
              0.6127289533615112,
              0.5124150514602661
            ],
            [
              0.403127521276474,
              0.48360320925712585
            ],
            [
              0.7314595580101013,
              0.8766496777534485
            ],
            [
              0.565234363079071,
              0.48095589876174927
            ],
            [
              0.7362736463546753,
              0.006327179726213217
            ],
            [
              0.5958253741264343,
              0.7517170310020447
            ],
            [
              0.2113165706396103,
              0.8505667448043823
            ],
            [
              1.0,
              0.5953354835510254
            ],
            [
              0.5926926136016846,
              0.15582528710365295
            ],
            [
              0.07753829658031464,
              0.44007202982902527
            ],
            [
              0.8507204055786133,
              0.2568625211715698
            ],
            [
              0.9628413319587708,
              0.5337210893630981
            ],
            [
              0.7257746458053589,
              0.24697092175483704
            ],
            [
              0.7696765661239624,
              0.5840290188789368
            ],
            [
              0.6577327847480774,
              0.8602872490882874
            ],
            [
              0.5508550405502319,
              0.3020504415035248
            ],
            [
              0.7272727489471436,
              0.0
            ],
            [
              0.5784593224525452,
              0.006018365733325481
            ],
            [
              0.3090883791446686,
              0.24503357708454132
            ],
            [
              0.5135389566421509,
              0.8834248781204224
            ],
            [
              0.3133470118045807,
              0.6592544317245483
            ],
            [
              0.5351095199584961,
              0.2221028357744217
            ],
            [
              0.5625976920127869,
              0.38323500752449036
            ],
            [
              0.4671078622341156,
              0.08372693508863449
            ],
            [
              0.3964592516422272,
              0.9940293431282043
            ],
            [
              0.4675442576408386,
              0.29376041889190674
            ],
            [
              0.013475957326591015,
              0.5426024198532104
            ],
            [
              0.9341512322425842,
              0.7459896802902222
            ],
            [
              0.01877717301249504,
              0.4377675950527191
            ],
            [
              0.11823414266109467,
              0.5126746892929077
            ],
            [
              0.4722118079662323,
              0.13789257407188416
            ],
            [
              0.0,
              0.3084569573402405
            ],
            [
              0.9653148055076599,
              0.748728334903717
            ],
            [
              0.559897780418396,
              0.02633032388985157
            ],
            [
              0.03717682510614395,
              0.4075871706008911
            ],
            [
              0.0,
              0.41362693905830383
            ],
            [
              0.19905945658683777,
              0.5448037981987
            ],
            [
              0.6495509147644043,
              0.6274402737617493
            ],
            [
              0.5185312032699585,
              0.6930268406867981
            ],
            [
              0.3182348906993866,
              1.0
            ],
            [
              0.2586108148097992,
              0.42395615577697754
            ],
            [
              0.4713316857814789,
              0.8251926302909851
            ],
            [
              0.3530241847038269,
              0.9859108328819275
            ],
            [
              0.578240156173706,
              0.15595170855522156
            ],
            [
              0.2612752616405487,
              0.5585470199584961
            ],
            [
              0.4539842903614044,
              0.354810893535614
            ],
            [
              0.7331315279006958,
              0.7438347339630127
            ],
            [
              0.0,
              0.3381091058254242
            ],
            [
              0.7626745104789734,
              0.8598261475563049
            ],
            [
              0.10729029774665833,
              0.31556782126426697
            ],
            [
              0.7343040108680725,
              0.26389750838279724
            ],
            [
              0.5239477157592773,
              0.3293839693069458
            ],
            [
              0.5524135231971741,
              0.0
            ],
            [
              0.648118257522583,
              0.7105211615562439
            ],
            [
              0.7503274083137512,
              0.11772779375314713
            ],
            [
              0.9228286147117615,
              0.7850298285484314
            ],
            [
              0.16577763855457306,
              0.8237960934638977
            ],
            [
              0.2439373880624771,
              0.5199245810508728
            ],
            [
              0.21771696209907532,
              0.5776488184928894
            ],
            [
              0.6201682090759277,
              0.8161020278930664
            ],
            [
              0.7997057437896729,
              0.5183696150779724
            ],
            [
              0.7935032248497009,
              0.2998565137386322
            ],
            [
              0.34031417965888977,
              0.48821282386779785
            ],
            [
              0.3879479765892029,
              0.2198314070701599
            ],
            [
              0.34023189544677734,
              0.488102525472641
            ],
            [
              0.42745426297187805,
              0.5388757586479187
            ],
            [
              0.20922565460205078,
              0.6995347738265991
            ],
            [
              0.17341986298561096,
              0.6816548109054565
            ],
            [
              0.7727767825126648,
              0.4676779508590698
            ],
            [
              0.3791704773902893,
              0.9153491854667664
            ],
            [
              0.44487154483795166,
              0.6573424339294434
            ],
            [
              0.532069206237793,
              0.39572927355766296
            ],
            [
              0.12821343541145325,
              0.43211042881011963
            ],
            [
              0.7348979115486145,
              0.41133663058280945
            ],
            [
              0.29566359519958496,
              0.17601028084754944
            ],
            [
              0.7322407364845276,
              0.678144097328186
            ],
            [
              0.14009974896907806,
              0.3911731243133545
            ],
            [
              0.794831395149231,
              0.6491769552230835
            ],
            [
              0.1390712410211563,
              0.7362809777259827
            ],
            [
              0.7794933319091797,
              0.6548295617103577
            ],
            [
              0.8420579433441162,
              0.49379390478134155
            ],
            [
              0.40006595849990845,
              0.16048821806907654
            ],
            [
              0.39517635107040405,
              0.5991405248641968
            ],
            [
              0.5815842151641846,
              0.4830729365348816
            ],
            [
              0.5618616342544556,
              0.8515222072601318
            ],
            [
              0.9152812361717224,
              0.7120620012283325
            ],
            [
              0.9875375032424927,
              0.5619720816612244
            ],
            [
              0.32975661754608154,
              0.7245773673057556
            ],
            [
              0.46456190943717957,
              0.2757547199726105
            ],
            [
              0.5243075489997864,
              0.1395980417728424
            ],
            [
              0.9495710134506226,
              0.7571418881416321
            ],
            [
              0.36809656023979187,
              0.6695758104324341
            ],
            [
              0.6593712568283081,
              0.09763146936893463
            ],
            [
              0.645129919052124,
              0.8630221486091614
            ],
            [
              0.48736572265625,
              0.09912484884262085
            ],
            [
              0.1904505044221878,
              0.23214195668697357
            ],
            [
              0.9503326416015625,
              0.5398222804069519
            ],
            [
              0.8027675151824951,
              0.1381838470697403
            ],
            [
              0.33433797955513,
              0.8018167018890381
            ],
            [
              0.14902529120445251,
              0.7524442076683044
            ],
            [
              0.7133647203445435,
              0.18984006345272064
            ],
            [
              0.4169705808162689,
              0.42111268639564514
            ],
            [
              0.1516478955745697,
              0.4236017167568207
            ],
            [
              0.0,
              0.31439724564552307
            ],
            [
              0.6034678816795349,
              0.9208602905273438
            ],
            [
              0.37649789452552795,
              0.16005438566207886
            ],
            [
              0.1360517293214798,
              0.49657562375068665
            ],
            [
              0.3869587779045105,
              0.3730989098548889
            ],
            [
              0.6984876990318298,
              0.19247353076934814
            ],
            [
              0.3831707835197449,
              0.33999204635620117
            ],
            [
              0.2677137851715088,
              0.6567823886871338
            ],
            [
              0.8307276964187622,
              0.5138912200927734
            ],
            [
              0.8274574279785156,
              0.5376847386360168
            ],
            [
              0.49083319306373596,
              0.7096325159072876
            ],
            [
              0.132864311337471,
              0.6954833269119263
            ],
            [
              0.4653466045856476,
              0.5254644155502319
            ],
            [
              0.4429309666156769,
              0.5791423320770264
            ],
            [
              0.6307514905929565,
              0.037763409316539764
            ],
            [
              0.8250031471252441,
              0.6827170848846436
            ],
            [
              0.32337841391563416,
              0.9829075932502747
            ],
            [
              0.4477320909500122,
              0.371707946062088
            ],
            [
              0.20565366744995117,
              0.8836422562599182
            ],
            [
              0.7098273634910583,
              0.5922925472259521
            ],
            [
              0.2999681830406189,
              1.0
            ],
            [
              0.19192859530448914,
              0.6010666489601135
            ],
            [
              0.528231680393219,
              0.9229996204376221
            ],
            [
              0.17071467638015747,
              0.7597453594207764
            ],
            [
              0.6621753573417664,
              0.7548524737358093
            ],
            [
              0.6388363838195801,
              0.8957805037498474
            ],
            [
              0.3608313798904419,
              0.9001904129981995
            ],
            [
              0.11991442739963531,
              0.5034164190292358
            ],
            [
              0.8831601142883301,
              0.6925937533378601
            ],
            [
              0.8269317150115967,
              0.2320343554019928
            ],
            [
              0.36777785420417786,
              0.7098201513290405
            ],
            [
              0.5217726230621338,
              0.5376782417297363
            ],
            [
              0.0,
              0.4133598208427429
            ],
            [
              0.6880027055740356,
              0.4366035461425781
            ],
            [
              0.41559499502182007,
              0.8263669013977051
            ],
            [
              0.029654262587428093,
              0.52843177318573
            ],
            [
              0.14888395369052887,
              0.5707080364227295
            ],
            [
              0.06620173901319504,
              0.4844556152820587
            ],
            [
              0.008021418936550617,
              0.46353238821029663
            ],
            [
              0.6794426441192627,
              0.8283948302268982
            ],
            [
              0.0069073899649083614,
              0.3601280748844147
            ],
            [
              0.9362991452217102,
              0.4862075746059418
            ],
            [
              0.6964702606201172,
              0.48326772451400757
            ],
            [
              0.5732987523078918,
              0.9387407898902893
            ],
            [
              0.935154378414154,
              0.5252562165260315
            ],
            [
              0.13112396001815796,
              0.48211750388145447
            ],
            [
              0.4661175012588501,
              0.43570277094841003
            ],
            [
              0.3618182837963104,
              0.7847510576248169
            ],
            [
              0.8789631724357605,
              0.46389341354370117
            ],
            [
              0.3679739832878113,
              0.9310709834098816
            ],
            [
              0.5691554546356201,
              0.6235905885696411
            ],
            [
              0.46020767092704773,
              0.382078617811203
            ],
            [
              0.3126511573791504,
              0.7246719598770142
            ],
            [
              0.3818787634372711,
              0.6577932238578796
            ],
            [
              0.0,
              0.385524183511734
            ],
            [
              0.30825310945510864,
              0.9202516078948975
            ],
            [
              0.8460049033164978,
              0.40514346957206726
            ],
            [
              0.0,
              0.325883686542511
            ],
            [
              0.7405608296394348,
              0.39413946866989136
            ],
            [
              0.7377405762672424,
              0.15566937625408173
            ],
            [
              0.2424093335866928,
              0.6523804068565369
            ],
            [
              0.23138314485549927,
              0.2991247773170471
            ],
            [
              0.30196070671081543,
              0.33771541714668274
            ]
          ],
          "uv_support_mask": [
            [
              false,
              false,
              false,
              false,
              true,
              true,
              true,
              true,
              true,
              true,
              true,
              true,
              true,
              true,
              true,
              true,
              true,
              false,
              false,
              false,
              false,
              false,
              false,
              false
            ],
            [
              false,
              false,
              false,
              false,
              true,
              true,
              true,
              true,
              true,
              true,
              true,
              true,
              true,
              true,
              true,
              true,
              true,
              true,
              false,
              false,
              false,
              false,
              false,
              false
            ],
            [
              false,
              false,
              false,
              true,
              true,
              true,
