{
  "patches": [
    {
      "patch_id": 0,
      "fit_point_count": 30,
      "point_weights": [
        2.0,
        20.0,
        26.0,
        21.0,
        19.0,
        12.0,
        24.0,
        33.0,
        29.0,
        34.0,
        17.0,
        31.0,
        34.0,
        16.0,
        12.0,
        22.0,
        24.0,
        29.0,
        16.0,
        10.0,
        28.0,
        22.0,
        17.0,
        16.0,
        18.0,
        14.0,
        18.0,
        17.0,
        18.0,
        1.0
      ],
      "initial_uv": [
        [
          0.0,
          0.6110503077507019
        ],
        [
          0.0937991663813591,
          0.7202789783477783
        ],
        [
          0.21269650757312775,
          0.8448039889335632
        ],
        [
          0.3510534167289734,
          0.9290070533752441
        ],
        [
          0.5024170279502869,
          1.0
        ],
        [
          0.05584501102566719,
          0.5045774579048157
        ],
        [
          0.15747232735157013,
          0.6115632653236389
        ],
        [
          0.3045637905597687,
          0.6825228929519653
        ],
        [
          0.4576440751552582,
          0.787848174571991
        ],
        [
          0.5903159379959106,
          0.8643330931663513
        ],
        [
          0.7236707806587219,
          0.9478994011878967
        ],
        [
          0.09792480617761612,
          0.3376601040363312
        ],
        [
          0.22888225317001343,
          0.4410446882247925
        ],
        [
          0.344535231590271,
          0.5536473989486694
        ],
        [
          0.5194043517112732,
          0.658700704574585
        ],
        [
          0.682223379611969,
          0.728644073009491
        ],
        [
          0.8202784657478333,
          0.8244781494140625
        ],
        [
          0.19250373542308807,
          0.1851276010274887
        ],
        [
          0.2883775532245636,
          0.28737279772758484
        ],
        [
          0.7971705198287964,
          0.6029493808746338
        ],
        [
          0.9141902327537537,
          0.6858165860176086
        ],
        [
          0.2921822965145111,
          0.06991513818502426
        ],
        [
          0.3923664391040802,
          0.09470666944980621
        ],
        [
          0.8852730393409729,
          0.4279040992259979
        ],
        [
          0.9738094806671143,
          0.526626467704773
        ],
        [
          0.5026999711990356,
          0.0
        ],
        [
          0.6607222557067871,
          0.027859004214406013
        ],
        [
          0.8006205558776855,
          0.1526808887720108
        ],
        [
          0.9153896570205688,
          0.2679085433483124
        ],
        [
          1.0,
          0.38969844579696655
        ]
      ],
      "idw_seed_control_grid": [
        [
          [
            0.04963357001543045,
            -0.5044331550598145,
            0.0
          ],
          [
            -0.18740145862102509,
            -0.5356884002685547,
            0.0
          ],
          [
            -0.498009592294693,
            -0.42205584049224854,
            0.0
          ],
          [
            -0.5105694532394409,
            -0.1362665295600891,
            0.0
          ]
        ],
        [
          [
            0.15535753965377808,
            -0.5238926410675049,
            0.0
          ],
          [
            -0.11842606216669083,
            -0.5167702436447144,
            0.0
          ],
          [
            -0.45600590109825134,
            -0.3008131980895996,
            0.0
          ],
          [
            -0.5355026721954346,
            -0.009351052343845367,
            0.0
          ]
        ],
        [
          [
            0.35662007331848145,
            -0.4210731089115143,
            0.0
          ],
          [
            0.06734942644834518,
            -0.3768552541732788,
            0.0
          ],
          [
            -0.39754238724708557,
            -0.059147708117961884,
            0.0
          ],
          [
            -0.5298488140106201,
            0.16424082219600677,
            0.0
          ]
        ],
        [
          [
            0.542273223400116,
            -0.19479301571846008,
            0.0
          ],
          [
            0.3432907462120056,
            -0.002453833818435669,
            0.0
          ],
          [
            -0.23318859934806824,
            0.3286265730857849,
            0.0
          ],
          [
            -0.4175949692726135,
            0.3637363016605377,
            0.0
          ]
        ],
        [
          [
            0.516645610332489,
            0.010853379964828491,
            0.0
          ],
          [
            0.3988391160964966,
            0.32562920451164246,
            0.0
          ],
          [
            0.026116779074072838,
            0.5261337161064148,
            0.0
          ],
          [
            -0.2560768723487854,
            0.5041740536689758,
            0.0
          ]
        ],
        [
          [
            0.4702964127063751,
            0.17246302962303162,
            0.0
          ],
          [
            0.4486491084098816,
            0.4763002395629883,
            0.0
          ],
          [
            0.10300975292921066,
            0.5716614127159119,
            0.0
          ],
          [
            -0.11295780539512634,
            0.5082163214683533,
            0.0
          ]
        ]
      ],
      "rounds": [
        {
          "control_grid_after_lsq": [
            [
              [
                0.2702490985393524,
                -1.1471160650253296,
                0.0
              ],
              [
                -0.17225436866283417,
                -0.9799036383628845,
                0.0
              ],
              [
                -0.8051254153251648,
                -0.6047933101654053,
                0.0
              ],
              [
                -1.197305679321289,
                -0.26798558235168457,
                0.0
              ]
            ],
            [
              [
                0.39707258343696594,
                -1.0287684202194214,
                0.0
              ],
              [
                0.007541014347225428,
                -0.8275719285011292,
                -0.0
              ],
              [
                -0.7160595655441284,
                -0.380275696516037,
                -0.0
              ],
              [
                -1.1003919839859009,
                -0.1110091432929039,
                0.0
              ]
            ],
            [
              [
                0.6150919198989868,
                -0.6683045625686646,
                0.0
              ],
              [
                0.2169143557548523,
                -0.40971189737319946,
                0.0
              ],
              [
                -0.4710228741168976,
                0.01071234606206417,
                0.0
              ],
              [
                -0.8586053848266602,
                0.23769834637641907,
                0.0
              ]
            ],
            [
              [
                0.8540000915527344,
                -0.24550464749336243,
                0.0
              ],
              [
                0.4162425398826599,
                0.03980813920497894,
                0.0
              ],
              [
                -0.2295076847076416,
                0.4001462161540985,
                -0.0
              ],
              [
                -0.6049267053604126,
                0.6465975046157837,
                0.0
              ]
            ],
            [
              [
                1.125026822090149,
                0.06708237528800964,
                0.0
              ],
              [
                0.7104671597480774,
                0.3756183087825775,
                0.0
              ],
              [
                0.02460460178554058,
                0.7937820553779602,
                0.0
              ],
              [
                -0.403546005487442,
                1.0279202461242676,
                0.0
              ]
            ],
            [
              [
                1.2231714725494385,
                0.2519729733467102,
                0.0
              ],
              [
                0.8106113076210022,
                0.5849658846855164,
                0.0
              ],
              [
                0.15031062066555023,
                0.9813284873962402,
                0.0
              ],
              [
                -0.32975703477859497,
                1.1954845190048218,
                0.0
              ]
            ]
          ],
          "uv_after_footpoint": [
            [
              0.0008829105645418167,
              0.6189766526222229
            ],
            [
              0.09092944115400314,
              0.725800096988678
            ],
            [
              0.2094089388847351,
              0.8433526754379272
            ],
            [
              0.3520829379558563,
              0.9279316067695618
            ],
            [
              0.5023545622825623,
              0.998656690120697
            ],
            [
              0.057899266481399536,
              0.5043501853942871
            ],
            [
              0.15823717415332794,
              0.6158475875854492
            ],
            [
              0.30512386560440063,
              0.6849169135093689
            ],
            [
              0.45838913321495056,
              0.7902503609657288
            ],
            [
              0.589440107345581,
              0.8664315938949585
            ],
            [
              0.724677562713623,
              0.944805920124054
            ],
            [
              0.09638511389493942,
              0.3313436210155487
            ],
            [
              0.23015496134757996,
              0.44039252400398254
            ],
            [
              0.3449063003063202,
              0.5518428683280945
            ],
            [
              0.5184205174446106,
              0.6558631658554077
            ],
            [
              0.6811110377311707,
              0.729330837726593
            ],
            [
              0.8234285712242126,
              0.8255047798156738
            ],
            [
              0.18946059048175812,
              0.1852416843175888
            ],
            [
              0.2889569401741028,
              0.28237661719322205
            ],
            [
              0.7949503660202026,
              0.6034089922904968
            ],
            [
              0.916261613368988,
              0.6913505792617798
            ],
            [
              0.2919158935546875,
              0.07226922363042831
            ],
            [
              0.3936336040496826,
              0.09104207903146744
            ],
            [
              0.8828681111335754,
              0.4212620258331299
            ],
            [
              0.9724978804588318,
              0.5273837447166443
            ],
            [
              0.502788782119751,
              0.0016746731707826257
            ],
            [
              0.6598443388938904,
              0.02805406041443348
            ],
            [
              0.804347813129425,
              0.15203307569026947
            ],
            [
              0.918780505657196,
              0.2633354067802429
            ],
            [
              1.0,
              0.3799167573451996
            ]
          ]
        },
        {
          "control_grid_after_lsq": [
            [
              [
                0.3248366415500641,
                -1.3039648532867432,
                0.0
              ],
              [
                -0.192027285695076,
                -0.9788565635681152,
                0.0
              ],
              [
                -0.7892230749130249,
                -0.6099456548690796,
                0.0
              ],
              [
                -1.3213828802108765,
                -0.2838926315307617,
                0.0
              ]
            ],
            [
              [
                0.4312456548213959,
                -1.0430501699447632,
                0.0
              ],
              [
                -0.01145191490650177,
                -0.8027156591415405,
                -0.0
              ],
              [
                -0.6846972107887268,
                -0.39307230710983276,
                -0.0
              ],
              [
                -1.1281781196594238,
                -0.08524517714977264,
                0.0
              ]
            ],
            [
              [
                0.6163837909698486,
                -0.6693370938301086,
                0.0
              ],
              [
                0.19769835472106934,
                -0.40838879346847534,
                0.0
              ],
              [
                -0.46581536531448364,
                0.0012117743026465178,
                0.0
              ],
              [
                -0.8614012598991394,
                0.23911741375923157,
                0.0
              ]
            ],
            [
              [
                0.8545635938644409,
                -0.24452796578407288,
                0.0
              ],
              [
                0.38932421803474426,
                0.06268998980522156,
                0.0
              ],
              [
                -0.21952641010284424,
                0.40494734048843384,
                -0.0
              ],
              [
                -0.6050531268119812,
                0.6452760696411133,
                0.0
              ]
            ],
            [
              [
                1.1517648696899414,
                0.04405907541513443,
                0.0
              ],
              [
                0.6731606721878052,
                0.389812171459198,
                0.0
              ],
              [
                0.048762477934360504,
                0.7624132633209229,
                0.0
              ],
              [
                -0.42849260568618774,
                1.038314700126648,
                0.0
              ]
            ],
            [
              [
                1.3555680513381958,
                0.24372342228889465,
                0.0
              ],
              [
                0.7948662042617798,
                0.5932715535163879,
                0.0
              ],
              [
                0.16745005548000336,
                0.9776508212089539,
                0.0
              ],
              [
                -0.3781963884830475,
                1.3320095539093018,
                0.0
              ]
            ]
          ],
          "uv_after_footpoint": [
            [
              0.0032212843652814627,
              0.6191092729568481
            ],
            [
              0.09238730370998383,
              0.7260442972183228
            ],
            [
              0.20824679732322693,
              0.8422080874443054
            ],
            [
              0.35202348232269287,
              0.9261884093284607
            ],
            [
              0.5027273893356323,
              0.99801105260849
            ],
            [
              0.057148005813360214,
              0.5048090219497681
            ],
            [
              0.15655852854251862,
              0.6203933954238892
            ],
            [
              0.3058507740497589,
              0.6878417134284973
            ],
            [
              0.45868733525276184,
              0.7914713025093079
            ],
            [
              0.5886532664299011,
              0.8673303127288818
            ],
            [
              0.725763738155365,
              0.9422559142112732
            ],
            [
              0.09741135686635971,
              0.32993751764297485
            ],
            [
              0.22907783091068268,
              0.43732935190200806
            ],
            [
              0.3464771509170532,
              0.5515400171279907
            ],
            [
              0.5175185203552246,
              0.6549242734909058
            ],
            [
              0.6803038120269775,
              0.7308640480041504
            ],
            [
              0.8242849111557007,
              0.8256538510322571
            ],
            [
              0.1886807084083557,
              0.18582454323768616
            ],
            [
              0.2894035875797272,
              0.27746543288230896
            ],
            [
              0.7975094318389893,
              0.606243371963501
            ],
            [
              0.9151167273521423,
              0.692790687084198
            ],
            [
              0.2914315462112427,
              0.07473409920930862
            ],
            [
              0.39426442980766296,
              0.08922047168016434
            ],
            [
              0.8852627873420715,
              0.41578519344329834
            ],
            [
              0.9724171161651611,
              0.5281287431716919
            ],
            [
              0.5025442838668823,
              0.001972886733710766
            ],
            [
              0.6598415374755859,
              0.029293013736605644
            ],
            [
              0.805513858795166,
              0.15099777281284332
            ],
            [
              0.9173175096511841,
              0.2636210024356842
            ],
            [
              0.9976825714111328,
              0.3798810839653015
            ]
          ]
        }
      ],
      "final_control_grid": [
        [
          [
            0.3248366415500641,
            -1.3039648532867432,
            0.0
          ],
          [
            -0.192027285695076,
            -0.9788565635681152,
            0.0
          ],
          [
            -0.7892230749130249,
            -0.6099456548690796,
            0.0
          ],
          [
            -1.3213828802108765,
            -0.2838926315307617,
            0.0
          ]
        ],
        [
          [
            0.4312456548213959,
            -1.0430501699447632,
            0.0
          ],
          [
            -0.01145191490650177,
            -0.8027156591415405,
            -0.0
          ],
          [
            -0.6846972107887268,
            -0.39307230710983276,
            -0.0
          ],
          [
            -1.1281781196594238,
            -0.08524517714977264,
            0.0
          ]
        ],
        [
          [
            0.6163837909698486,
            -0.6693370938301086,
            0.0
          ],
          [
            0.19769835472106934,
            -0.40838879346847534,
            0.0
          ],
          [
            -0.46581536531448364,
            0.0012117743026465178,
            0.0
          ],
          [
            -0.8614012598991394,
            0.23911741375923157,
            0.0
          ]
        ],
        [
          [
            0.8545635938644409,
            -0.24452796578407288,
            0.0
          ],
          [
            0.38932421803474426,
            0.06268998980522156,
            0.0
          ],
          [
            -0.21952641010284424,
            0.40494734048843384,
            -0.0
          ],
          [
            -0.6050531268119812,
            0.6452760696411133,
            0.0
          ]
        ],
        [
          [
            1.1517648696899414,
            0.04405907541513443,
            0.0
          ],
          [
            0.6731606721878052,
            0.389812171459198,
            0.0
          ],
          [
            0.048762477934360504,
            0.7624132633209229,
            0.0
          ],
          [
            -0.42849260568618774,
            1.038314700126648,
            0.0
          ]
        ],
        [
          [
            1.3555680513381958,
            0.24372342228889465,
            0.0
          ],
          [
            0.7948662042617798,
            0.5932715535163879,
            0.0
          ],
          [
            0.16745005548000336,
            0.9776508212089539,
            0.0
          ],
          [
            -0.3781963884830475,
            1.3320095539093018,
            0.0
          ]
        ]
      ],
      "final_weights": [
        [
          1.0,
          1.0,
          1.0,
          1.0
        ],
        [
          1.0,
          1.0,
          1.0,
          1.0
        ],
        [
          1.0,
          1.0,
          1.0,
          1.0
        ],
        [
          1.0,
          1.0,
          1.0,
          1.0
        ],
        [
          1.0,
          1.0,
          1.0,
          1.0
        ],
        [
          1.0,
          1.0,
          1.0,
          1.0
        ]
      ],
      "final_gaussian_indices": [
        0,
        1,
        2,
        3,
        4,
        5,
        6,
        7,
        8,
        9,
        10,
        11,
        12,
        13,
        14,
        15,
        16,
        17,
        18,
        19,
        20,
        21,
        22,
        23,
        24,
        25,
        26,
        27,
        28,
        29,
        30,
        31,
        32,
        33,
        34,
        35,
        36,
        37,
        38,
        39,
        40,
        41,
        42,
        43,
        44,
        45,
        46,
        47,
        48,
        49,
        50,
        51,
        52,
        53,
        54,
        55,
        56,
        57,
        58,
        59,
        60,
        61,
        62,
        63,
        64,
        65,
        66,
        67,
        68,
        69,
        70,
        71,
        72,
        73,
        74,
        75,
        76,
        77,
        78,
        79,
        80,
        81,
        82,
        83,
        84,
        85,
        86,
        87,
        88,
        89,
        90,
        91,
        92,
        93,
        94,
        95,
        96,
        97,
        98,
        99,
        100,
        101,
        102,
        103,
        104,
        105,
        106,
        107,
        108,
        109,
        110,
        111,
        112,
        113,
        114,
        115,
        116,
        117,
        118,
        119,
        120,
        121,
        122,
        123,
        124,
        125,
        126,
        127,
        128,
        129,
        130,
        131,
        132,
        133,
        134,
        135,
        136,
        137,
        138,
        139,
        140,
        141,
        142,
        143,
        144,
        145,
        146,
        147,
        148,
        149,
        150,
        151,
        152,
        153,
        154,
        155,
        156,
        157,
        158,
        159,
        160,
        161,
        162,
        163,
        164,
        165,
        166,
        167,
        168,
        169,
        170,
        171,
        172,
        173,
        174,
        175,
        176,
        177,
        178,
        179,
        180,
        181,
        182,
        183,
        184,
        185,
        186,
        187,
        188,
        189,
        190,
        191,
        192,
        193,
        194,
        195,
        196,
        197,
        198,
        199,
        200,
        201,
        202,
        203,
        204,
        205,
        206,
        207,
        208,
        209,
        210,
        211,
        212,
        213,
        214,
        215,
        216,
        217,
        218,
        219,
        220,
        221,
        222,
        223,
        224,
        225,
        226,
        227,
        228,
        229,
        230,
        231,
        232,
        233,
        234,
        235,
        236,
        237,
        238,
        239,
        240,
        241,
        242,
        243,
        244,
        245,
        246,
        247,
        248,
        249,
        250,
        251,
        252,
        253,
        254,
        255,
        256,
        257,
        258,
        259,
        260,
        261,
        262,
        263,
        264,
        265,
        266,
        267,
        268,
        269,
        270,
        271,
        272,
        273,
        274,
        275,
        276,
        277,
        278,
        279,
        280,
        281,
        282,
        283,
        284,
        285,
        286,
        287,
        288,
        289,
        290,
        291,
        292,
        293,
        294,
        295,
        296,
        297,
        298,
        299,
        300,
        301,
        302,
        303,
        304,
        305,
        306,
        307,
        308,
        309,
        310,
        311,
        312,
        313,
        314,
        315,
        316,
        317,
        318,
        319,
        320,
        321,
        322,
        323,
        324,
        325,
        326,
        327,
        328,
        329,
        330,
        331,
        332,
        333,
        334,
        335,
        336,
        337,
        338,
        339,
        340,
        341,
        342,
        343,
        344,
        345,
        346,
        347,
        348,
        349,
        350,
        351,
        352,
        353,
        354,
        355,
        356,
        357,
        358,
        359,
        360,
        361,
        362,
        363,
        364,
        365,
        366,
        367,
        368,
        369,
        370,
        371,
        372,
        373,
        374,
        375,
        376,
        377,
        378,
        379,
        380,
        381,
        382,
        383,
        384,
        385,
        386,
        387,
        388,
        389,
        390,
        391,
        392,
        393,
        394,
        395,
        396,
        397,
        398,
        399,
        400,
        401,
        402,
        403,
        404,
        405,
        406,
        407,
        408,
        409,
        410,
        411,
        412,
        413,
        414,
        415,
        416,
        417,
        418,
        419,
        420,
        421,
        422,
        423,
        424,
        425,
        426,
        427,
        428,
        429,
        430,
        431,
        432,
        433,
        434,
        435,
        436,
        437,
        438,
        439,
        440,
        441,
        442,
        443,
        444,
        445,
        446,
        447,
        448,
        449,
        450,
        451,
        452,
        453,
        454,
        455,
        456,
        457,
        458,
        459,
        460,
        461,
        462,
        463,
        464,
        465,
        466,
        467,
        468,
        469,
        470,
        471,
        472,
        473,
        474,
        475,
        476,
        477,
        478,
        479,
        480,
        481,
        482,
        483,
        484,
        485,
        486,
        487,
        488,
        489,
        490,
        491,
        492,
        493,
        494,
        495,
        496,
        497,
        498,
        499,
        500,
        501,
        502,
        503,
        504,
        505,
        506,
        507,
        508,
        509,
        510,
        511,
        512,
        513,
        514,
        515,
        516,
        517,
        518,
        519,
        520,
        521,
        522,
        523,
        524,
        525,
        526,
        527,
        528,
        529,
        530,
        531,
        532,
        533,
        534,
        535,
        536,
        537,
        538,
        539,
        540,
        541,
        542,
        543,
        544,
        545,
        546,
        547,
        548,
        549,
        550,
        551,
        552,
        553,
        554,
        555,
        556,
        557,
        558,
        559,
        560,
        561,
        562,
        563,
        564,
        565,
        566,
        567,
        568,
        569,
        570,
        571,
        572,
        573,
        574,
        575,
        576,
        577,
        578,
        579,
        580,
        581,
        582,
        583,
        584,
        585,
        586,
        587,
        588,
        589,
        590,
        591,
        592,
        593,
        594,
        595,
        596,
        597,
        598,
        599
      ],
      "final_gaussian_uv": [
        [
          0.7484919428825378,
          0.6735408306121826
        ],
        [
          0.5168797373771667,
          0.7786471843719482
        ],
        [
          0.8667693734169006,
          0.759097158908844
        ],
        [
          0.3281528949737549,
          0.5947059392929077
        ],
        [
          0.40481603145599365,
          0.7223674058914185
        ],
        [
          0.8925300240516663,
          0.4834892153739929
        ],
        [
          0.10764805227518082,
          0.713941216468811
        ],
        [
          0.9877749681472778,
          0.580024242401123
        ],
        [
          0.7944826483726501,
          0.8350528478622437
        ],
        [
          0.2049989104270935,
          0.7440466284751892
        ],
        [
          0.7976416945457458,
          0.9464569091796875
        ],
        [
          0.10496068000793457,
          0.6927466988563538
        ],
        [
          0.8532214760780334,
          0.4139845073223114
        ],
        [
          0.28163838386535645,
          0.31036409735679626
        ],
        [
          0.11499972641468048,
          0.1416199803352356
        ],
        [
          0.05954737216234207,
          0.7113572955131531
        ],
        [
          0.9524945020675659,
          0.3575908839702606
        ],
        [
          0.3622523546218872,
          0.7164642810821533
        ],
        [
          0.42310529947280884,
          0.0
        ],
        [
          0.19305519759655,
          0.1750122308731079
        ],
        [
          0.06726803630590439,
          0.6974124312400818
        ],
        [
          0.47572821378707886,
          0.8920606970787048
        ],
        [
          0.11204048246145248,
          0.7755792737007141
        ],
        [
          0.9950616955757141,
          0.5635202527046204
        ],
        [
          0.15216587483882904,
          0.14471343159675598
        ],
        [
          0.23848670721054077,
          0.2602962553501129
        ],
        [
          0.24508526921272278,
          0.4406462013721466
        ],
        [
          0.33930152654647827,
          0.1258952021598816
        ],
        [
          0.8401957154273987,
          0.4634464383125305
        ],
        [
          0.8813406825065613,
          0.25364983081817627
        ],
        [
          0.26343056559562683,
          0.6490556597709656
        ],
        [
          0.6604166626930237,
          0.8886207342147827
        ],
        [
          0.453555703163147,
          0.6381332874298096
        ],
        [
          0.5819005370140076,
          0.892163097858429
        ],
        [
          0.20647962391376495,
          0.4783729016780853
        ],
        [
          0.027125027030706406,
          0.414653480052948
        ],
        [
          0.5390307903289795,
          0.6703981757164001
        ],
        [
          0.2944033443927765,
          0.8135150074958801
        ],
        [
          0.8555065393447876,
          0.6021014451980591
        ],
        [
          0.010619772598147392,
          0.5151311755180359
        ],
        [
          0.6981843113899231,
          0.7744367122650146
        ],
        [
          0.2563835680484772,
          0.48199018836021423
        ],
        [
          0.35930773615837097,
          0.5342932343482971
        ],
        [
          0.5470908880233765,
          0.8467847108840942
        ],
        [
          0.20992955565452576,
          0.9174490571022034
        ],
        [
          0.2647525370121002,
          0.41731518507003784
        ],
        [
          0.8374325633049011,
          0.2237473726272583
        ],
        [
          0.3393680453300476,
          0.5568511486053467
        ],
        [
          0.3240186870098114,
          0.8672087788581848
        ],
        [
          0.0490177720785141,
          0.6930098533630371
        ],
        [
          0.4961755871772766,
          0.8993043303489685
        ],
        [
          0.3248635530471802,
          0.7960343956947327
        ],
        [
          0.8148748874664307,
          0.6861742734909058
        ],
        [
          0.6616447567939758,
          0.9978435635566711
        ],
        [
          0.7964460253715515,
          0.9283857941627502
        ],
        [
          0.039381664246320724,
          0.7357819080352783
        ],
        [
          0.1662546694278717,
          0.7733306884765625
        ],
        [
          0.3411281704902649,
          0.6269484162330627
        ],
        [
          0.8896076679229736,
          0.7526469826698303
        ],
        [
          0.9517577290534973,
          0.7161003351211548
        ],
        [
          0.3861384689807892,
          0.012172809801995754
        ],
        [
          0.30279040336608887,
          0.06868729740381241
        ],
        [
          0.5180547833442688,
          0.8063415884971619
        ],
        [
          0.9431765079498291,
          0.5727918148040771
        ],
        [
          0.4137611389160156,
          0.6644171476364136
        ],
        [
          0.416456013917923,
          0.8086898326873779
        ],
        [
          0.5999780297279358,
          0.004661452025175095
        ],
        [
          0.16165076196193695,
          0.6931306719779968
        ],
        [
          0.0592009462416172,
          0.5428218841552734
        ],
        [
          0.6040719747543335,
          0.963447093963623
        ],
        [
          1.0,
          0.4663121998310089
        ],
        [
          0.5580762624740601,
          0.7321761250495911
        ],
        [
          0.8668115735054016,
          0.17979979515075684
        ],
        [
          0.1505524069070816,
          0.6032968759536743
        ],
        [
          0.5992671251296997,
          0.640292227268219
        ],
        [
          0.1986686885356903,
          0.27695995569229126
        ],
        [
          0.9329796433448792,
          0.6811614036560059
        ],
        [
          0.542422890663147,
          0.7610421180725098
        ],
        [
          0.4185655415058136,
          0.599936306476593
        ],
        [
          0.4874046742916107,
          0.9109030961990356
        ],
        [
          0.15332671999931335,
          0.42317014932632446
        ],
        [
          0.4504631459712982,
          0.801121711730957
        ],
        [
          0.46332046389579773,
          0.8348851799964905
        ],
        [
          0.21163438260555267,
          0.17880521714687347
        ],
        [
          0.19390065968036652,
          0.8581749200820923
        ],
        [
          0.9185431599617004,
          0.5169122815132141
        ],
        [
          0.36111199855804443,
          0.7696290612220764
        ],
        [
          0.31611043214797974,
          0.913814902305603
        ],
        [
          0.41174015402793884,
          0.11216557025909424
        ],
        [
          0.4887259602546692,
          0.9655380249023438
        ],
        [
          0.27700287103652954,
          0.5084807276725769
        ],
        [
          0.891975998878479,
          0.4167490601539612
        ],
        [
          0.45936107635498047,
          0.9039583206176758
        ],
        [
          0.7690639495849609,
          0.9104205965995789
        ],
        [
          0.6290074586868286,
          0.7105451226234436
        ],
        [
          0.6302865147590637,
          0.8234120011329651
        ],
        [
          0.41127386689186096,
          0.9191533327102661
        ],
        [
          0.2321712076663971,
          0.7952895760536194
        ],
        [
          0.06244504824280739,
          0.7344669103622437
        ],
        [
          0.6363636255264282,
          0.0
        ],
        [
          0.936971127986908,
          0.4245268702507019
        ],
        [
          0.6237860918045044,
          0.8261070251464844
        ],
        [
          0.08358455449342728,
          0.6212705373764038
        ],
        [
          0.2651827037334442,
          0.0747322142124176
        ],
        [
          0.6584917306900024,
          0.8578471541404724
        ],
        [
          0.2691602408885956,
          0.7428078651428223
        ],
        [
          0.7677758932113647,
          0.0958898589015007
        ],
        [
          0.14481158554553986,
          0.7565354704856873
        ],
        [
          0.33860865235328674,
          0.5790629386901855
        ],
        [
          0.9565717577934265,
          0.7365577220916748
        ],
        [
          0.23137731850147247,
          0.2816762626171112
        ],
        [
          0.737442135810852,
          0.6223797798156738
        ],
        [
          0.10782813280820847,
          0.3579801023006439
        ],
        [
          0.5472313165664673,
          0.8280054330825806
        ],
        [
          0.4747791886329651,
          0.9685445427894592
        ],
        [
          0.7794545888900757,
          0.1039498969912529
        ],
        [
          0.14574261009693146,
          0.7309175729751587
        ],
        [
          0.2082543671131134,
          0.16330671310424805
        ],
        [
          0.7586436867713928,
          0.8127396106719971
        ],
        [
          0.5239824652671814,
          0.7938576340675354
        ],
        [
          0.09671101719141006,
          0.2048577070236206
        ],
        [
          0.735572338104248,
          0.6190555691719055
        ],
        [
          0.13831602036952972,
          0.8116716146469116
        ],
        [
          0.1965247392654419,
          0.1586924046278
        ],
        [
          0.8413940072059631,
          0.5021726489067078
        ],
        [
          0.23097553849220276,
          0.22545225918293
        ],
        [
          0.13662615418434143,
          0.7942098379135132
        ],
        [
          0.5635570287704468,
          0.9324923753738403
        ],
        [
          0.07310494035482407,
          0.7095651030540466
        ],
        [
          0.8334999680519104,
          0.791826069355011
        ],
        [
          0.9343244433403015,
          0.35296952724456787
        ],
        [
          0.5013876557350159,
          0.6476243734359741
        ],
        [
          0.31973347067832947,
          0.048448752611875534
        ],
        [
          0.6905534267425537,
          0.05162063613533974
        ],
        [
          0.9185428023338318,
          0.42360255122184753
        ],
        [
          0.5716450214385986,
          0.7530317902565002
        ],
        [
          0.70749431848526,
          0.8371047377586365
        ],
        [
          0.2526587247848511,
          0.5287190079689026
        ],
        [
          0.40701088309288025,
          0.7765587568283081
        ],
        [
          0.2652958333492279,
          0.11027444154024124
        ],
        [
          0.1007799506187439,
          0.6497169137001038
        ],
        [
          0.2791324853897095,
          0.3467288017272949
        ],
        [
          0.2844759225845337,
          0.8759779930114746
        ],
        [
          0.1274043172597885,
          0.42596179246902466
        ],
        [
          0.4884967803955078,
          0.7406664490699768
        ],
        [
          0.4584824740886688,
          0.8337090611457825
        ],
        [
          0.21370413899421692,
          0.4677075743675232
        ],
        [
          0.9227932095527649,
          0.6915695667266846
        ],
        [
          0.33355867862701416,
          0.8542789816856384
        ],
        [
          0.3417917788028717,
          0.5363521575927734
        ],
        [
          0.6373385190963745,
          0.8287040591239929
        ],
        [
          0.358550488948822,
          0.5561748147010803
        ],
        [
          0.957963228225708,
          0.2650478482246399
        ],
        [
          0.10989440977573395,
          0.44809532165527344
        ],
        [
          0.8676978349685669,
          0.7933668494224548
        ],
        [
          0.04105925187468529,
          0.3795278072357178
        ],
        [
          0.362531453371048,
          1.0
        ],
        [
          0.24823567271232605,
          0.37939453125
        ],
        [
          0.05365575850009918,
          0.2980625629425049
        ],
        [
          0.08658508211374283,
          0.8037936687469482
        ],
        [
          0.16925737261772156,
          0.5849115252494812
        ],
        [
          0.4384613633155823,
          0.09139447659254074
        ],
        [
          0.3241862654685974,
          0.7259340286254883
        ],
        [
          0.11407747119665146,
          0.30663052201271057
        ],
        [
          0.5347031354904175,
          0.0
        ],
        [
          1.0,
          0.5959548354148865
        ],
        [
          0.8127604722976685,
          0.12557213008403778
        ],
        [
          0.10699278116226196,
          0.4321720004081726
        ],
        [
          0.6754512786865234,
          0.021820683032274246
        ],
        [
          0.20856580138206482,
          0.923497200012207
        ],
        [
          0.4906093180179596,
          1.0
        ],
        [
          0.4032336175441742,
          0.843962550163269
        ],
        [
          0.16145607829093933,
          0.8225421905517578
        ],
        [
          0.4679253399372101,
          0.09478527307510376
        ],
        [
          0.9725354313850403,
          0.7046080231666565
        ],
        [
          0.5320736169815063,
          0.8525131344795227
        ],
        [
          0.33342888951301575,
          0.5605510473251343
        ],
        [
          0.9661088585853577,
          0.7351436018943787
        ],
        [
          0.8268600106239319,
          0.8102469444274902
        ],
        [
          0.7926410436630249,
          0.8962731957435608
        ],
        [
          0.5997490882873535,
          0.6864639520645142
        ],
        [
          0.9680258631706238,
          0.5447437763214111
        ],
        [
          0.567715048789978,
          0.06606823951005936
        ],
        [
          0.9449501633644104,
          0.48509278893470764
        ],
        [
          0.07490392029285431,
          0.31977248191833496
        ],
        [
          0.3325992822647095,
          0.11190006881952286
        ],
        [
          0.09318774938583374,
          0.17773061990737915
        ],
        [
          0.5303768515586853,
          0.8450058698654175
        ],
        [
          0.35533350706100464,
          1.0
        ],
        [
          0.2725479006767273,
          0.7884743213653564
        ],
        [
          0.933587908744812,
          0.7035103440284729
        ],
        [
          0.6634315848350525,
          0.9338923096656799
        ],
        [
          0.24776503443717957,
          0.4153447151184082
        ],
        [
          0.18297092616558075,
          0.3976095914840698
        ],
        [
          0.4520895481109619,
          0.8623266816139221
        ],
        [
          0.43633341789245605,
          0.04167701676487923
        ],
        [
          0.8190533518791199,
          0.8412796854972839
        ],
        [
          0.4803426265716553,
          0.6396356225013733
        ],
        [
          0.12678217887878418,
          0.33770552277565
        ],
        [
          0.2549704611301422,
          0.14080935716629028
        ],
        [
          0.30537688732147217,
          0.9116396307945251
        ],
        [
          0.5939794778823853,
          0.02000107802450657
        ],
        [
          0.45002591609954834,
          0.014835846610367298
        ],
        [
          0.3281790316104889,
          0.4521898329257965
        ],
        [
          0.2728140354156494,
          0.897803544998169
        ],
        [
          0.7317444682121277,
          0.9420357942581177
        ],
        [
          0.06465639919042587,
          0.4975002110004425
        ],
        [
          0.8248104453086853,
          0.6144170165061951
        ],
        [
          0.2798020839691162,
          0.11163106560707092
        ],
        [
          0.847504734992981,
          0.8674558997154236
        ],
        [
          0.1463029384613037,
          0.7953424453735352
        ],
        [
          0.1841162145137787,
          0.08450881391763687
        ],
        [
          0.8993049263954163,
          0.37601417303085327
        ],
        [
          0.3861086666584015,
          0.007175332400947809
        ],
        [
          0.1505207121372223,
          0.6591057777404785
        ],
        [
          0.20856046676635742,
          0.565095841884613
        ],
        [
          0.004023128654807806,
          0.6176223158836365
        ],
        [
          0.9203712344169617,
          0.7738896012306213
        ],
        [
          0.2094544619321823,
          0.6383999586105347
        ],
        [
          0.2563020884990692,
          0.15512962639331818
        ],
        [
          0.7804470658302307,
          0.9415262341499329
        ],
        [
          0.6916071176528931,
          0.6733308434486389
        ],
        [
          0.4545017182826996,
          1.0
        ],
        [
          0.5266721248626709,
          0.7522412538528442
        ],
        [
          0.7557503581047058,
          0.7966663241386414
        ],
        [
          0.9656819105148315,
          0.5119989514350891
        ],
        [
          0.8357733488082886,
          0.7039389610290527
        ],
        [
          0.13690416514873505,
          0.5574279427528381
        ],
        [
          0.2961708903312683,
          0.34362009167671204
        ],
        [
          0.27895665168762207,
          0.40076297521591187
        ],
        [
          0.30647993087768555,
          0.7827101349830627
        ],
        [
          0.9168469309806824,
          0.36473411321640015
        ],
        [
          0.9616135358810425,
          0.733534574508667
        ],
        [
          0.9035371541976929,
          0.5932937264442444
        ],
        [
          0.59297776222229,
          0.8593205809593201
        ],
        [
          0.2160252183675766,
          0.9131201505661011
        ],
        [
          0.10837549716234207,
          0.776596188545227
        ],
        [
          0.22080504894256592,
          0.38832905888557434
        ],
        [
          0.2455034852027893,
          0.08325603604316711
        ],
        [
          0.8663813471794128,
          0.2178690880537033
        ],
        [
          0.26232048869132996,
          0.18804602324962616
        ],
        [
          0.47269147634506226,
          0.7570398449897766
        ],
        [
          0.3198724687099457,
          0.6543240547180176
        ],
        [
          0.14608214795589447,
          0.6929823756217957
        ],
        [
          0.9081006050109863,
          0.3481306731700897
        ],
        [
          0.28882989287376404,
          0.26044532656669617
        ],
        [
          0.4017088711261749,
          0.9233844876289368
        ],
        [
          0.89151531457901,
          0.6152849197387695
        ],
        [
          0.38521987199783325,
          0.8123717308044434
        ],
        [
          0.31523022055625916,
          0.2165450155735016
        ],
        [
          0.24133965373039246,
          0.2294757068157196
        ],
        [
          0.24741452932357788,
          0.8495392203330994
        ],
        [
          0.6775115132331848,
          0.8506004810333252
        ],
        [
          0.8901248574256897,
          0.7050979733467102
        ],
        [
          0.11668059229850769,
          0.30110639333724976
        ],
        [
          0.11516960710287094,
          0.2490704506635666
        ],
        [
          0.7096942067146301,
          0.7902933955192566
        ],
        [
          0.3086903393268585,
          0.5398582816123962
        ],
        [
          0.32874777913093567,
          0.045983001589775085
        ],
        [
          0.7414883375167847,
          0.7128869295120239
        ],
        [
          0.7164715528488159,
          0.05359858274459839
        ],
        [
          0.47288450598716736,
          0.8810259699821472
        ],
        [
          0.3774034082889557,
          0.03273814544081688
        ],
        [
          0.5419051647186279,
          0.9278279542922974
        ],
        [
          0.047378890216350555,
          0.2429259717464447
        ],
        [
          0.5264496803283691,
          0.9153284430503845
        ],
        [
          0.7275649905204773,
          0.8818178176879883
        ],
        [
          0.7987706661224365,
          0.15079285204410553
        ],
        [
          0.17153944075107574,
          0.8092418909072876
        ],
        [
          0.1642989218235016,
          0.45478254556655884
        ],
        [
          0.8941861987113953,
          0.2772519290447235
        ],
        [
          0.24571891129016876,
          0.4583003520965576
        ],
        [
          0.20563703775405884,
          0.9018820524215698
        ],
        [
          0.9179363250732422,
          0.21564733982086182
        ],
        [
          0.5815829634666443,
          0.0
        ],
        [
          0.08790256083011627,
          0.5177342891693115
        ],
        [
          0.03619886189699173,
          0.26429057121276855
        ],
        [
          0.9544093012809753,
          0.5349229574203491
        ],
        [
          0.35135790705680847,
          0.0638541728258133
        ],
        [
          0.7856357097625732,
          0.12644131481647491
        ],
        [
          0.270900160074234,
          0.09249197691679001
        ],
        [
          0.9427075386047363,
          0.5191830396652222
        ],
        [
          0.19405211508274078,
          0.33658915758132935
        ],
        [
          0.7013326287269592,
          0.8814420700073242
        ],
        [
          0.676080584526062,
          0.8922436833381653
        ],
        [
          0.2839072644710541,
          0.6340888142585754
        ],
        [
          0.08320251107215881,
          0.21104027330875397
        ],
        [
          0.5251491665840149,
          0.980645477771759
        ],
        [
          0.5461437702178955,
          0.7999483942985535
        ],
        [
          0.20268134772777557,
          0.21778889000415802
        ],
        [
          0.03884753957390785,
          0.2942255139350891
        ],
        [
          0.3450622856616974,
          0.8561822772026062
        ],
        [
          0.002419925993308425,
          0.6205937266349792
        ],
        [
          0.2551437318325043,
          0.07963669300079346
        ],
        [
          0.5506433248519897,
          1.0
        ],
        [
          0.9750183820724487,
          0.6901409029960632
        ],
        [
          0.20354388654232025,
          0.4889739751815796
        ],
        [
          0.684628427028656,
          0.6720831394195557
        ],
        [
          0.11110819876194,
          0.6310202479362488
        ],
        [
          0.20775377750396729,
          0.15154334902763367
        ],
        [
          0.26845115423202515,
          0.9178167581558228
        ],
        [
          0.6441775560379028,
          0.7125403881072998
        ],
        [
          0.28170472383499146,
          0.07883784174919128
        ],
        [
          0.12204732745885849,
          0.5384559035301208
        ],
        [
          0.77779620885849,
          0.90340656042099
        ],
        [
          0.42466121912002563,
          0.6620232462882996
        ],
        [
          0.15356777608394623,
          0.43474289774894714
        ],
        [
          0.2670426070690155,
          0.4651229679584503
        ],
        [
          0.8155977129936218,
          0.8321422934532166
        ],
        [
          0.762916624546051,
          0.7090821266174316
        ],
        [
          1.0,
          0.5342608690261841
        ],
        [
          0.182456836104393,
          0.3065001368522644
        ],
        [
          0.52896648645401,
          0.05798676609992981
        ],
        [
          0.1222316324710846,
          0.7126365303993225
        ],
        [
          0.16958849132061005,
          0.33900904655456543
        ],
        [
          0.12095922231674194,
          0.562782347202301
        ],
        [
          0.8532705307006836,
          0.4255671501159668
        ],
        [
          0.44319984316825867,
          0.8894896507263184
        ],
        [
          0.7819004654884338,
          0.17002540826797485
        ],
        [
          0.47657081484794617,
          0.626316487789154
        ],
        [
          0.7038398385047913,
          0.7119121551513672
        ],
        [
          0.5439902544021606,
          0.9933668971061707
        ],
        [
          0.38451987504959106,
          0.03979097306728363
        ],
        [
          0.2623177468776703,
          0.6190335154533386
        ],
        [
          0.2795550227165222,
          0.02802349627017975
        ],
        [
          0.47646060585975647,
          1.0
        ],
        [
          0.08972717821598053,
          0.7271140217781067
        ],
        [
          0.6436274647712708,
          0.02971511520445347
        ],
        [
          0.2844180166721344,
          0.9831313490867615
        ],
        [
          0.8590584993362427,
          0.8193121552467346
        ],
        [
          0.3066835403442383,
          0.5160797238349915
        ],
        [
          0.9976825714111328,
          0.3798810839653015
        ],
        [
          0.23421770334243774,
          0.8378921151161194
        ],
        [
          0.809503436088562,
          0.9003844857215881
        ],
        [
          0.10535695403814316,
          0.4190886318683624
        ],
        [
          0.32334476709365845,
          0.5998342633247375
        ],
        [
          0.9000207185745239,
          0.2909773290157318
        ],
        [
          0.04414809122681618,
          0.5140422582626343
        ],
        [
          0.2685735821723938,
          0.9512299299240112
        ],
        [
          0.15286196768283844,
          0.297088623046875
        ],
        [
          0.8837305307388306,
          0.5457237362861633
        ],
        [
          0.8259445428848267,
          0.19944383203983307
        ],
        [
          0.1354256421327591,
          0.3593170940876007
        ],
        [
          0.2991286516189575,
          0.4409126937389374
        ],
        [
          0.17697347700595856,
          0.46393096446990967
        ],
        [
          0.024587245658040047,
          0.3738888204097748
        ],
        [
          0.9063190817832947,
          0.2511274814605713
        ],
        [
          0.20098751783370972,
          0.6575436592102051
        ],
        [
          0.44201046228408813,
          0.8942575454711914
        ],
        [
          0.9248300194740295,
          0.7408052682876587
        ],
        [
          0.28267374634742737,
          0.6087203621864319
        ],
        [
          0.896533727645874,
          0.8203133344650269
        ],
        [
          0.22068016231060028,
          0.6223540902137756
        ],
        [
          0.569561243057251,
          0.9749813079833984
        ],
        [
          0.8414595723152161,
          0.48958414793014526
        ],
        [
          0.635890543460846,
          0.977744996547699
        ],
        [
          0.31265905499458313,
          0.4028613865375519
        ],
        [
          0.6582367420196533,
          1.0
        ],
        [
          0.9199476838111877,
          0.8158076405525208
        ],
        [
          0.2051258534193039,
          0.2450595498085022
        ],
        [
          0.5014036893844604,
          0.032876331359148026
        ],
        [
          0.35034501552581787,
          0.15002676844596863
        ],
        [
          0.7759999632835388,
          0.09045439213514328
        ],
        [
          0.4210629463195801,
          0.8519847989082336
        ],
        [
          0.1388985961675644,
          0.2569902241230011
        ],
        [
          0.16070032119750977,
          0.5884266495704651
        ],
        [
          0.8857799172401428,
          0.27812227606773376
        ],
        [
          0.28080734610557556,
          0.9044768214225769
        ],
        [
          0.5092795491218567,
          0.03209804743528366
        ],
        [
          0.10152804106473923,
          0.6199772953987122
        ],
        [
          0.2850693166255951,
          0.6907455325126648
        ],
        [
          0.023510850965976715,
          0.3530798554420471
        ],
        [
          0.5912439823150635,
          0.6808224320411682
        ],
        [
          0.36986926198005676,
          0.695310652256012
        ],
        [
          0.5410968661308289,
          0.05295055732131004
        ],
        [
          0.34060579538345337,
          0.5627349019050598
        ],
        [
          0.5950347781181335,
          0.8093122839927673
        ],
        [
          0.3215734362602234,
          0.6989537477493286
        ],
        [
          0.06466521322727203,
          0.3165067136287689
        ],
        [
          0.915639340877533,
          0.3638402223587036
        ],
        [
          0.9008780121803284,
          0.19253383576869965
        ],
        [
          0.2190983146429062,
          0.3005658686161041
        ],
        [
          0.3747134208679199,
          0.11400815844535828
        ],
        [
          0.771754801273346,
          0.13377530872821808
        ],
        [
          0.8850088715553284,
          0.2905752658843994
        ],
        [
          0.6218258738517761,
          0.9598528146743774
        ],
        [
          0.04313870519399643,
          0.3287312090396881
        ],
        [
          0.7570429444313049,
          0.055134836584329605
        ],
        [
          0.2882508337497711,
          0.6538413763046265
        ],
        [
          0.6501452326774597,
          0.8564478754997253
        ],
        [
          0.8036404848098755,
          0.8302181363105774
        ],
        [
          0.25811123847961426,
          0.3773263394832611
        ],
        [
          0.9597947001457214,
          0.3215012550354004
        ],
        [
          0.25113168358802795,
          0.5046921968460083
        ],
        [
          0.13723012804985046,
          0.8794940710067749
        ],
        [
          0.31094789505004883,
          0.42925211787223816
        ],
        [
          0.6764028668403625,
          0.03499026596546173
        ],
        [
          0.7493603825569153,
          0.08434806019067764
        ],
        [
          0.2015492022037506,
          0.37354323267936707
        ],
        [
          0.5557795166969299,
          0.7682856321334839
        ],
        [
          0.8249104022979736,
          0.8315982222557068
        ],
        [
          0.15865473449230194,
          0.26249179244041443
        ],
        [
          0.5191232562065125,
          0.8918861150741577
        ],
        [
          0.4915720224380493,
          0.7945409417152405
        ],
        [
          0.3960222899913788,
          0.058718062937259674
        ],
        [
          0.0681752935051918,
          0.3203522264957428
        ],
        [
          0.5351213216781616,
          0.9127618074417114
        ],
        [
          0.47960618138313293,
          0.0
        ],
        [
          0.25552576780319214,
          0.6302775144577026
        ],
        [
          0.3213616609573364,
          0.09050022810697556
        ],
        [
          0.4963451027870178,
          1.0
        ],
        [
          0.4545454680919647,
          1.0
        ],
        [
          0.3592027723789215,
          0.6841709613800049
        ],
        [
          0.23962092399597168,
          0.8721874952316284
        ],
        [
          0.4188709855079651,
          0.8628785610198975
        ],
        [
          0.5126129984855652,
          0.7728886604309082
        ],
        [
          0.41390523314476013,
          0.9914824366569519
        ],
        [
          0.2792845070362091,
          0.8846478462219238
        ],
        [
          0.1017690971493721,
          0.2354862093925476
        ],
        [
          0.970702052116394,
          0.2952273190021515
        ],
        [
          0.8795393109321594,
          0.26676610112190247
        ],
        [
          0.967534601688385,
          0.41495436429977417
        ],
        [
          0.3795470893383026,
          0.5778781175613403
        ],
        [
          0.8042434453964233,
          0.1627892255783081
        ],
        [
          0.728266179561615,
          0.0943758636713028
        ],
        [
          0.5280120372772217,
          0.8382528424263
        ],
        [
          0.10027539730072021,
          0.49408259987831116
        ],
        [
          0.9855527877807617,
          0.4986751675605774
        ],
        [
          0.2948647141456604,
          0.29831987619400024
        ],
        [
          0.8521105051040649,
          0.5875039100646973
        ],
        [
          0.6336329579353333,
          0.8129284381866455
        ],
        [
          0.3327394723892212,
          0.7971571683883667
        ],
        [
          0.05163738876581192,
          0.5124292373657227
        ],
        [
          0.15921257436275482,
          0.34558120369911194
        ],
        [
          0.5891101956367493,
          0.9194931387901306
        ],
        [
          0.5082823634147644,
          1.0
        ],
        [
          0.37143921852111816,
          0.10549762099981308
        ],
        [
          0.9889358282089233,
          0.6658192873001099
        ],
        [
          0.15226270258426666,
          0.14496076107025146
        ],
        [
          0.03548625484108925,
          0.4306763708591461
        ],
        [
          0.2808855175971985,
          0.0822148248553276
        ],
        [
          0.6458385586738586,
          0.7454037070274353
        ],
        [
          0.8249108195304871,
          0.19111156463623047
        ],
        [
          0.1956014782190323,
          0.5616567134857178
        ],
        [
          0.9191147685050964,
          0.2044798582792282
        ],
        [
          0.5179547071456909,
          0.0
        ],
        [
          0.43072280287742615,
          0.6365442276000977
        ],
        [
          0.5385925769805908,
          0.6515017747879028
        ],
        [
          0.2137523591518402,
          0.11060014367103577
        ],
        [
          0.9288161993026733,
          0.6824445128440857
        ],
        [
          0.3050191402435303,
          0.5592002868652344
        ],
        [
          0.2925466299057007,
          0.3182453513145447
        ],
        [
          0.7996536493301392,
          0.8336357474327087
        ],
        [
          0.4370826184749603,
          0.0
        ],
        [
          0.26999786496162415,
          0.7209883332252502
        ],
        [
          0.6619798541069031,
          0.8483691811561584
        ],
        [
          0.4349735677242279,
          0.8000276684761047
        ],
        [
          0.19690974056720734,
          0.6957074999809265
        ],
        [
          0.4996788501739502,
          0.0
        ],
        [
          0.3661426603794098,
          0.16626328229904175
        ],
        [
          0.16848339140415192,
          0.7019320130348206
        ],
        [
          0.613369882106781,
          0.7939004302024841
        ],
        [
          0.8345109224319458,
          0.8654330968856812
        ],
        [
          0.2012471854686737,
          0.6878941655158997
        ],
        [
          0.9740215539932251,
          0.5699149370193481
        ],
        [
          0.3092132806777954,
          0.3331441581249237
        ],
        [
          0.39706161618232727,
          0.04531048983335495
        ],
        [
          0.04352597892284393,
          0.3662523329257965
        ],
        [
          0.8926544785499573,
          0.7184011936187744
        ],
        [
          0.8761157989501953,
          0.370819091796875
        ],
        [
          0.40644755959510803,
          0.9336237907409668
        ],
        [
          0.5186344981193542,
          1.0
        ],
        [
          0.1808909922838211,
          0.7067062854766846
        ],
        [
          0.7365347146987915,
          0.9691770076751709
        ],
        [
          0.538576602935791,
          1.0
        ],
        [
          0.9706881046295166,
          0.46211010217666626
        ],
        [
          0.8261591792106628,
          0.5432351231575012
        ],
        [
          0.8229146003723145,
          0.1676357537508011
        ],
        [
          0.23337715864181519,
          0.10141102969646454
        ],
        [
          0.4688192307949066,
          0.6625304222106934
        ],
        [
          1.0,
          0.5787335634231567
        ],
        [
          0.2634240388870239,
          0.7777954936027527
        ],
        [
          0.2264532893896103,
          0.13506197929382324
        ],
        [
          0.8984822034835815,
          0.7258839011192322
        ],
        [
          0.19082634150981903,
          0.6152956485748291
        ],
        [
          0.9695097208023071,
          0.29843786358833313
        ],
        [
          0.9133267402648926,
          0.74913090467453
        ],
        [
          0.12494969367980957,
          0.5815951228141785
        ],
        [
          0.6269069314002991,
          0.006786785088479519
        ],
        [
          0.5629289746284485,
          0.7700661420822144
        ],
        [
          0.3130509853363037,
          0.17900601029396057
        ],
        [
          0.17585211992263794,
          0.2215249389410019
        ],
        [
          0.2386782020330429,
          0.5315478444099426
        ],
        [
          0.21424169838428497,
          0.14551560580730438
        ],
        [
          0.2721409797668457,
          0.13019460439682007
        ],
        [
          0.08449242264032364,
          0.6742572784423828
        ],
        [
          0.9686093926429749,
          0.7096521258354187
        ],
        [
          0.7394030094146729,
          0.028882447630167007
        ],
        [
          0.29789087176322937,
          0.6319573521614075
        ],
        [
          0.8434635400772095,
          0.4541938900947571
        ],
        [
          0.38498568534851074,
          0.704246997833252
        ],
        [
          0.30398812890052795,
          0.27266615629196167
        ],
        [
          0.07428332418203354,
          0.2817158102989197
        ],
        [
          0.96402508020401,
          0.5380197167396545
        ],
        [
          0.15518712997436523,
          0.48454904556274414
        ],
        [
          0.8457809090614319,
          0.7839009761810303
        ],
        [
          0.8506860733032227,
          0.6802847385406494
        ],
        [
          0.7542118430137634,
          0.612012505531311
        ],
        [
          0.2898026704788208,
          0.8903242945671082
        ],
        [
          0.17321565747261047,
          0.7259953618049622
        ],
        [
          0.6378507614135742,
          0.6949406862258911
        ],
        [
          0.60589200258255,
          0.0
        ],
        [
          0.09866609424352646,
          0.5072358846664429
        ],
        [
          0.5771885514259338,
          0.041761789470911026
        ],
        [
          0.7104718685150146,
          0.8947382569313049
        ],
        [
          0.7504761219024658,
          0.044968076050281525
        ],
        [
          0.19248785078525543,
          0.5369722843170166
        ],
        [
          0.08029066026210785,
          0.7123892307281494
        ],
        [
          0.14508245885372162,
          0.8818651437759399
        ],
        [
          0.2631566822528839,
          0.07792243361473083
        ],
        [
          0.23262430727481842,
          0.4099968671798706
        ],
        [
          0.6328107714653015,
          0.9523965120315552
        ],
        [
          0.7690039277076721,
          0.8819472193717957
        ],
        [
          0.7849266529083252,
          0.5845853090286255
        ],
        [
          0.48907405138015747,
          0.058969054371118546
        ],
        [
          0.6722280979156494,
          0.6908226609230042
        ],
        [
          0.5217745900154114,
          0.9831519722938538
        ],
        [
          0.4495287239551544,
          0.9571666717529297
        ],
        [
          0.7704119086265564,
          0.752753734588623
        ],
        [
          0.3020459711551666,
          0.3401671350002289
        ],
        [
          0.5376357436180115,
          0.0
        ],
        [
          0.7326070666313171,
          0.8428727984428406
        ],
        [
          0.38698145747184753,
          0.7001881003379822
        ],
        [
          0.6494243144989014,
          0.765216588973999
        ],
        [
          0.3668838143348694,
          0.1409035176038742
        ],
        [
          0.42292991280555725,
          0.6205728650093079
        ],
        [
          0.4938080310821533,
          0.04418346285820007
        ],
        [
          0.22015297412872314,
          0.6819990873336792
        ],
        [
          0.5180332660675049,
          0.9562379121780396
        ],
        [
          0.45590946078300476,
          0.9944261312484741
        ],
        [
          0.5763005018234253,
          0.6403923630714417
        ],
        [
          0.08694097399711609,
          0.697127103805542
        ],
        [
          0.8416356444358826,
          0.5961658954620361
        ],
        [
          0.3163009583950043,
          0.24809668958187103
        ],
        [
          0.08334456384181976,
          0.4922237992286682
        ],
        [
          0.6844937205314636,
          0.9581167697906494
        ],
        [
          0.15200002491474152,
          0.6726645231246948
        ],
        [
          0.33179664611816406,
          0.4754887521266937
        ],
        [
          0.9275857210159302,
          0.7539019584655762
        ],
        [
          0.6606143116950989,
          0.6507744193077087
        ],
        [
          0.2847132086753845,
          0.8116990923881531
        ],
        [
          0.6637408137321472,
          0.8052845597267151
        ],
        [
          0.4577111005783081,
          0.7172629237174988
        ],
        [
          0.38926413655281067,
          1.0
        ],
        [
          0.5151170492172241,
          0.9597135782241821
        ],
        [
          0.33999571204185486,
          0.7393200993537903
        ],
        [
          0.21259240806102753,
          0.14696171879768372
        ],
        [
          0.2649780213832855,
          0.633883535861969
        ],
        [
          0.45564985275268555,
          0.7860744595527649
        ],
        [
          0.1404554694890976,
          0.8301369547843933
        ],
        [
          0.756973385810852,
          0.7471347451210022
        ],
        [
          0.053970325738191605,
          0.7312136292457581
        ],
        [
          0.6952332258224487,
          0.7442440986633301
        ],
        [
          0.3106655478477478,
          0.664898157119751
        ],
        [
          0.7183678150177002,
          0.9705710411071777
        ],
        [
          0.5213063955307007,
          0.7919569611549377
        ],
        [
          0.2371595948934555,
          0.5096057057380676
        ],
        [
          0.16299442946910858,
          0.33599913120269775
        ],
        [
          0.1972641497850418,
          0.4006910026073456
        ],
        [
          0.34698402881622314,
          0.04337732866406441
        ],
        [
          0.9159582853317261,
          0.22833991050720215
        ],
        [
          0.30816152691841125,
          0.2938436269760132
        ],
        [
          0.6147100329399109,
          0.0
        ],
        [
          0.024024683982133865,
          0.6133989691734314
        ],
        [
          0.1676941215991974,
          0.16979578137397766
        ],
        [
          0.3141660690307617,
          0.6878951787948608
        ],
        [
          0.11092642694711685,
          0.2927579879760742
        ],
        [
          0.6999213099479675,
          0.8099257349967957
        ],
        [
          0.36976587772369385,
          0.6998066306114197
        ],
        [
          0.19486846029758453,
          0.30511438846588135
        ],
        [
          0.7892498970031738,
          0.9518380165100098
        ],
        [
          0.20465891063213348,
          0.26395732164382935
        ],
        [
          0.8248159885406494,
          0.13864879310131073
        ],
        [
          0.8394578695297241,
          0.6024025082588196
        ],
        [
          0.19843962788581848,
          0.3965679109096527
        ],
        [
          0.9461421966552734,
          0.24727144837379456
        ],
        [
          0.7750749588012695,
          0.6720978617668152
        ],
        [
          0.16798976063728333,
          0.42895135283470154
        ],
        [
          0.2186363786458969,
          0.14070509374141693
        ],
        [
          0.30969271063804626,
          0.7541055083274841
        ],
        [
          0.6712619066238403,
          0.8879501819610596
        ],
        [
          0.39605793356895447,
          0.03647371008992195
        ],
        [
          0.8574432134628296,
          0.2276313751935959
        ],
        [
          0.9413135051727295,
          0.6275242567062378
        ],
        [
          0.2844046950340271,
          0.13577978312969208
        ],
        [
          0.3407595455646515,
          0.6733579039573669
        ],
        [
          0.6985443830490112,
          0.04473654925823212
        ],
        [
          0.2170380800962448,
          0.9139424562454224
        ],
        [
          0.8328185677528381,
          0.6819075345993042
        ],
        [
          0.31678804755210876,
          0.18945246934890747
        ]
      ],
      "uv_support_mask": [
        [
          false,
          false,
          false,
          false,
          true,
          true,
          true,
          true,
          true,
          true,
          true,
          true,
          true,
          true,
          true,
          true,
          true,
          true,
          true,
          false,
          false,
          false,
          false,
          false
        ],
        [
          false,
          false,
          true,
          true,
          true,
          true,
          true,
          true,
          true,
          true,
          true,
          true,
          true,
          true,
          true,
          true,
          true,
          true,
          true,
          true,
          true,
          false,
          false,
          false
        ],
        [
          false,
          false,
          true,
          true,
          true,
          true,
          true,
          true,
          true,
          true,
          true,
          true,
          true,
          true,
          true,
          true,
          true,
          true,
          true,
          true,
          true,
          true,
          true,
          false
        ],
        [
          false,
          true,
          true,
          true,
          true,
          true,
          true,
          true,
          true,
          true,
          true,
          true,
          true,
          true,
          true,
          true,
          true,
          true,
          true,
          true,
          true,
          true,
          true,
          false
        ],
        [
          true,
          true,
          true,
          true,
          true,
          true,
          true,
          true,
          true,
          true,
          true,
          true,
          true,
          true,
          true,
          true,
          true,
          true,
          true,
          true,
          true,
          true,
          true,
          true
        ],
        [
          true,
          true,
          true,
          true,
          true,
          true,
          true,
          true,
          true,
          true,
          true,
          true,
          true,
          true,
          true,
          true,
          true,
          true,
          true,
          true,
          true,
          true,
          true,
          true
        ],
        [
          true,
          true,
          true,
          true,
          true,
          true,
          true,
          true,
          true,
          true,
          true,
          true,
          true,
          true,
          true,
          true,
          true,
          true,
          true,
          true,
          true,
          true,
          true,
          true
        ],
        [
          true,
          true,
          true,
          true,
          true,
          true,
          true,
          true,
          true,
          true,
          true,
          true,
          true,
          true,
          true,
          true,
          true,
          true,
          true,
          true,
          true,
          true,
          true,
          true
        ],
        [
          true,
          true,
          true,
          true,
          true,
          true,
          true,
          true,
          true,
          true,
          true,
          true,
          true,
          true,
          true,
          true,
          true,
          true,
          true,
          true,
          true,
          true,
          true,
          true
        ],
        [
          true,
          true,
          true,
          true,
          true,
          false,
          false,
          false,
          false,
          false,
          false,
          true,
          true,
          true,
          true,
          true,
          true,
          true,
          true,
          true,
          true,
          true,
          true,
          true
        ],
        [
          true,
          true,
          true,
          true,
          false,
          false,
          false,
          false,
          false,
          false,
          false,
          false,
          true,
          true,
          true,
          true,
          true,
          true,
          true,
          true,
          true,
          true,
          true,
          true
        ],
        [
          true,
          true,
          true,
          true,
          false,
          false,
          false,
          false,
          false,
          false,
          false,
          false,
          false,
          true,
          true,
          true,
          true,
          true,
          true,
          true,
          true,
          true,
          true,
          true
        ],
        [
          true,
          true,
          true,
          true,
          false,
          false,
          false,
          false,
          false,
          false,
          false,
          false,
          false,
          false,
          true,
          true,
          true,
          true,
          true,
          true,
          true,
          true,
          true,
          true
        ],
        [
          true,
          true,
          true,
          false,
          false,
          false,
          false,
          false,
          false,
          false,
          false,
          false,
          false,
          false,
          true,
          true,
          true,
          true,
          true,
          true,
          true,
          true,
          true,
          true
        ],
        [
          true,
          true,
          true,
          false,
          false,
          false,
          false,
          false,
          false,
          false,
          false,
          false,
          false,
          false,
          true,
          true,
          true,
          true,
          true,
          true,
          true,
          true,
          true,
          true
        ],
        [
          true,
          true,
          true,
          false,
          false,
          false,
          false,
          false,
          false,
          false,
          false,
          false,
          false,
          false,
          true,
          true,
          true,
          true,
          true,
          true,
          true,
          true,
          true,
          true
        ],
        [
          true,
          true,
          true,
          true,
          false,
          false,
          false,
          false,
          false,
          false,
          false,
          false,
          false,
          true,
          true,
          true,
          true,
          true,
          true,
          true,
          true,
          true,
          true,
          true
        ],
        [
          true,
          true,
          true,
          true,
          true,
          true,
          false,
          false,
          false,
          false,
          false,
          false,
          false,
          true,
          true,
          true,
          true,
          true,
          true,
          true,
          true,
          true,
          true,
          true
        ],
        [
          true,
          true,
          true,
          true,
          true,
          true,
          false,
          false,
          false,
          false,
          false,
          false,
          true,
          true,
          true,
          true,
          true,
          true,
          true,
          true,
          true,
          true,
          true,
          true
        ],
        [
          true,
          true,
          true,
          true,
          true,
          true,
          true,
          false,
          true,
          true,
          true,
          true,
          true,
          true,
          true,
          true,
          true,
          true,
          true,
          true,
          true,
          true,
          true,
          true
        ],
        [
          false,
          false,
          true,
          true,
          true,
          true,
          true,
          true,
          true,
          true,
          true,
          true,
          true,
          true,
          true,
          true,
          true,
          true,
          true,
          true,
          true,
          true,
          true,
          true
        ],
        [
          false,
          false,
          false,
          true,
          true,
          true,
          true,
          true,
          true,
          true,
          true,
          true,
          true,
          true,
          true,
          true,
          true,
          true,
          true,
          true,
          true,
          true,
          false,
          false
        ],
        [
          false,
          false,
          false,
          true,
          true,
          true,
          true,
          true,
          true,
          true,
          true,
          true,
          true,
          true,
          true,
          true,
          true,
          true,
          true,
          true,
          true,
          false,
          false,
          false
        ],
        [
          false,
          false,
          false,
          true,
          true,
          true,
          true,
          true,
          true,
          true,
          true,
          true,
          true,
          true,
          true,
          true,
          true,
          true,
          true,
          true,
          true,
          false,
          false,
          false
        ]
      ],
      "stages": [
        {
          "stage": "idw_seed",
          "grid": {
            "extent": 1.5452587604522705,
            "edge_median": 0.25962939858436584,
            "edge_min": 0.07152273505926132
          },
          "uv_support": {
            "point_count": 30,
            "occupied_cells": 30,
            "coverage_ratio": 0.029296875
          },
          "mapping": {
            "jacobian_median": 0.8015008568763733,
            "jacobian_min": 0.008642807602882385,
            "degenerate_fraction": 0.0,
            "fold_fraction": 0.02777777798473835
          }
        },
        {
          "stage": "round_1",
          "grid": {
            "extent": 3.368454694747925,
            "edge_median": 0.4673801362514496,
            "edge_min": 0.17346574366092682
          },
          "uv_support": {
            "point_count": 30,
            "occupied_cells": 30,
            "coverage_ratio": 0.029296875
          },
          "fit_rms": 6.484735422418453e-06,
          "mapping": {
            "jacobian_median": 3.1315314769744873,
            "jacobian_min": 2.3544225692749023,
            "degenerate_fraction": 0.0,
            "fold_fraction": 0.0
          }
        },
        {
          "stage": "round_2",
          "grid": {
            "extent": 3.7569172382354736,
            "edge_median": 0.4729277491569519,
            "edge_min": 0.23708216845989227
          },
          "uv_support": {
            "point_count": 30,
            "occupied_cells": 30,
            "coverage_ratio": 0.029296875
          },
          "fit_rms": 4.269210762686271e-08,
          "mapping": {
            "jacobian_median": 3.2933452129364014,
            "jacobian_min": 2.534442663192749,
            "degenerate_fraction": 0.0,
            "fold_fraction": 0.0
          }
        }
      ],
      "final_mapping": {
        "jacobian_median": 3.2933452129364014,
        "jacobian_min": 2.534442663192749,
        "degenerate_fraction": 0.0,
        "fold_fraction": 0.0
      }
    }
  ]
}