{
  "patches": [
    {
      "patch_id": 0,
      "fit_point_count": 12,
      "point_weights": [
        11.0,
        8.0,
        11.0,
        11.0,
        11.0,
        9.0,
        7.0,
        6.0,
        8.0,
        9.0,
        6.0,
        7.0
      ],
      "initial_uv": [
        [
          0.9440013766288757,
          0.8368306159973145
        ],
        [
          1.0,
          0.04847365617752075
        ],
        [
          0.7529181241989136,
          0.9346983432769775
        ],
        [
          0.7794922590255737,
          0.049638763070106506
        ],
        [
          0.5898532271385193,
          0.7799345254898071
        ],
        [
          0.5550336837768555,
          0.007318573538213968
        ],
        [
          0.4215909242630005,
          1.0
        ],
        [
          0.397032231092453,
          0.0
        ],
        [
          0.20098483562469482,
          0.8161641955375671
        ],
        [
          0.17193138599395752,
          0.07791315764188766
        ],
        [
          0.0030473077204078436,
          0.8607746362686157
        ],
        [
          0.0,
          0.049108970910310745
        ]
      ],
      "idw_seed_control_grid": [
        [
          [
            -0.8934565782546997,
            0.4957597851753235,
            0.4020554721355438
          ],
          [
            -0.8295844793319702,
            0.19272807240486145,
            0.3733130097389221
          ],
          [
            -0.7900345325469971,
            0.29478520154953003,
            0.35551556944847107
          ]
        ],
        [
          [
            -0.8882085680961609,
            0.3176300525665283,
            0.3996938467025757
          ],
          [
            -0.8287657499313354,
            0.15814261138439178,
            0.37294459342956543
          ],
          [
            -0.7879599332809448,
            0.21884621679782867,
            0.3545819818973541
          ]
        ],
        [
          [
            -0.8893253803253174,
            0.16727247834205627,
            0.4001964032649994
          ],
          [
            -0.8283942937850952,
            0.09825842082500458,
            0.37277746200561523
          ],
          [
            -0.7805784344673157,
            0.12204446643590927,
            0.3512602746486664
          ]
        ],
        [
          [
            -0.9069114327430725,
            0.08192531019449234,
            0.4081100821495056
          ],
          [
            -0.8278325200080872,
            0.023434355854988098,
            0.372524619102478
          ],
          [
            -0.7304562926292419,
            0.0924038216471672,
            0.3287053108215332
          ]
        ],
        [
          [
            -0.9127249121665955,
            -0.10185138881206512,
            0.4107261896133423
          ],
          [
            -0.8270263671875,
            -0.050676409155130386,
            0.3721618354320526
          ],
          [
            -0.7790910005569458,
            -0.07047203928232193,
            0.35059094429016113
          ]
        ],
        [
          [
            -0.8907357454299927,
            -0.22742995619773865,
            0.40083110332489014
          ],
          [
            -0.8272433876991272,
            -0.11557785421609879,
            0.37225955724716187
          ],
          [
            -0.773714005947113,
            -0.22976888716220856,
            0.34817129373550415
          ]
        ],
        [
          [
            -0.8881740570068359,
            -0.32562455534935,
            0.3996782898902893
          ],
          [
            -0.8281171917915344,
            -0.1683892011642456,
            0.37265273928642273
          ],
          [
            -0.7817972898483276,
            -0.2642069160938263,
            0.3518087863922119
          ]
        ],
        [
          [
            -0.8939218521118164,
            -0.5374400019645691,
            0.40226486325263977
          ],
          [
            -0.8293572664260864,
            -0.1993294358253479,
            0.37321075797080994
          ],
          [
            -0.7919549942016602,
            -0.2695104479789734,
            0.3563797175884247
          ]
        ]
      ],
      "rounds": [
        {
          "control_grid_after_lsq": [
            [
              [
                -0.9301274418830872,
                0.8430776596069336,
                0.418557345867157
              ],
              [
                -0.8229812383651733,
                0.779268205165863,
                0.37034156918525696
              ],
              [
                -0.7207169532775879,
                0.8570820689201355,
                0.3243226110935211
              ]
            ],
            [
              [
                -0.9297043681144714,
                0.6691914200782776,
                0.41836822032928467
              ],
              [
                -0.8241733908653259,
                0.60969477891922,
                0.37087762355804443
              ],
              [
                -0.7244002819061279,
                0.6398342251777649,
                0.32598015666007996
              ]
            ],
            [
              [
                -0.9307240843772888,
                0.4328884482383728,
                0.4188249707221985
              ],
              [
                -0.8228062987327576,
                0.41116654872894287,
                0.3702620267868042
              ],
              [
                -0.7198283076286316,
                0.4376193881034851,
                0.3239232897758484
              ]
            ],
            [
              [
                -0.9301052689552307,
                0.10694687813520432,
                0.4185474216938019
              ],
              [
                -0.8236896395683289,
                0.11546362191438675,
                0.3706585764884949
              ],
              [
                -0.7200257182121277,
                0.11070774495601654,
                0.3240116834640503
              ]
            ],
            [
              [
                -0.9304072260856628,
                -0.17202728986740112,
                0.4186832010746002
              ],
              [
                -0.8232908248901367,
                -0.16556045413017273,
                0.37048161029815674
              ],
              [
                -0.7220503687858582,
                -0.18314343690872192,
                0.3249223232269287
              ]
            ],
            [
              [
                -0.9318495392799377,
                -0.4935219883918762,
                0.4193325638771057
              ],
              [
                -0.8237806558609009,
                -0.43326979875564575,
                0.37070053815841675
              ],
              [
                -0.7208312153816223,
                -0.4694661796092987,
                0.3243740499019623
              ]
            ],
            [
              [
                -0.9271384477615356,
                -0.6810885071754456,
                0.4172115623950958
              ],
              [
                -0.8219260573387146,
                -0.6670442819595337,
                0.36986640095710754
              ],
              [
                -0.7200242280960083,
                -0.7612784504890442,
                0.3240114450454712
              ]
            ],
            [
              [
                -0.9308109879493713,
                -0.9031021595001221,
                0.4188650846481323
              ],
              [
                -0.8240146040916443,
                -0.8543115258216858,
                0.3708053231239319
              ],
              [
                -0.7244763970375061,
                -0.94565349817276,
                0.3260144591331482
              ]
            ]
          ],
          "uv_after_footpoint": [
            [
              0.9449991583824158,
              0.8377963900566101
            ],
            [
              1.0,
              0.04810294881463051
            ],
            [
              0.7529962658882141,
              0.934924304485321
            ],
            [
              0.78021639585495,
              0.049122098833322525
            ],
            [
              0.5899361968040466,
              0.7803081274032593
            ],
            [
              0.554792582988739,
              0.007222010754048824
            ],
            [
              0.42179369926452637,
              1.0
            ],
            [
              0.39740854501724243,
              0.0
            ],
            [
              0.19952143728733063,
              0.8173027634620667
            ],
            [
              0.17101113498210907,
              0.07729023694992065
            ],
            [
              0.002367613138630986,
              0.8615167140960693
            ],
            [
              0.0,
              0.04871930181980133
            ]
          ]
        },
        {
          "control_grid_after_lsq": [
            [
              [
                -0.9299390912055969,
                0.8384813666343689,
                0.41847267746925354
              ],
              [
                -0.8247082829475403,
                0.8325769901275635,
                0.3711185157299042
              ],
              [
                -0.7202619314193726,
                0.8394850492477417,
                0.3241179287433624
              ]
            ],
            [
              [
                -0.9298522472381592,
                0.6706157326698303,
                0.4184334874153137
              ],
              [
                -0.8249910473823547,
                0.6515152454376221,
                0.3712465465068817
              ],
              [
                -0.720943033695221,
                0.6523154377937317,
                0.3244231939315796
              ]
            ],
            [
              [
                -0.9301290512084961,
                0.4232885241508484,
                0.4185577630996704
              ],
              [
                -0.8249210119247437,
                0.4190865457057953,
                0.37121644616127014
              ],
              [
                -0.7203975915908813,
                0.4182951748371124,
                0.3241785764694214
              ]
            ],
            [
              [
                -0.9303209185600281,
                0.11034666001796722,
                0.41864463686943054
              ],
              [
                -0.825019359588623,
                0.12500923871994019,
                0.3712603747844696
              ],
              [
                -0.7201864123344421,
                0.1130405142903328,
                0.32408407330513
              ]
            ],
            [
              [
                -0.9303981065750122,
                -0.1744040697813034,
                0.418678879737854
              ],
              [
                -0.8252230882644653,
                -0.17057892680168152,
                0.37135183811187744
              ],
              [
                -0.7207311987876892,
                -0.17844827473163605,
                0.3243279457092285
              ]
            ],
            [
              [
                -0.930625319480896,
                -0.48007839918136597,
                0.41878166794776917
              ],
              [
                -0.8251826763153076,
                -0.46049514412879944,
                0.37133219838142395
              ],
              [
                -0.7206135392189026,
                -0.47188547253608704,
                0.32427626848220825
              ]
            ],
            [
              [
                -0.930098295211792,
                -0.7084748148918152,
                0.4185437262058258
              ],
              [
                -0.8249953985214233,
                -0.7033408880233765,
                0.37124717235565186
              ],
              [
                -0.7206448912620544,
                -0.7238767743110657,
                0.3242897689342499
              ]
            ],
            [
              [
                -0.9306544065475464,
                -0.8979334235191345,
                0.41879454255104065
              ],
              [
                -0.8255945444107056,
                -0.9135656356811523,
                0.3715171217918396
              ],
              [
                -0.7217175960540771,
                -0.9462020993232727,
                0.324773907661438
              ]
            ]
          ],
          "uv_after_footpoint": [
            [
              0.9449829459190369,
              0.837803840637207
            ],
            [
              0.9999834895133972,
              0.048087142407894135
            ],
            [
              0.7530922889709473,
              0.9349206686019897
            ],
            [
              0.7803762555122375,
              0.0491027869284153
            ],
            [
              0.5898234248161316,
              0.7802894115447998
            ],
            [
              0.5546444654464722,
              0.007228886242955923
            ],
            [
              0.42195096611976624,
              1.0
            ],
            [
              0.39769047498703003,
              0.0
            ],
            [
              0.19929543137550354,
              0.817300021648407
            ],
            [
              0.17079490423202515,
              0.07728657126426697
            ],
            [
              0.0024235688615590334,
              0.8615291714668274
            ],
            [
              5.6488061090931296e-05,
              0.04871075972914696
            ]
          ]
        }
      ],
      "final_control_grid": [
        [
          [
            -0.9299390912055969,
            0.8384813666343689,
            0.41847267746925354
          ],
          [
            -0.8247082829475403,
            0.8325769901275635,
            0.3711185157299042
          ],
          [
            -0.7202619314193726,
            0.8394850492477417,
            0.3241179287433624
          ]
        ],
        [
          [
            -0.9298522472381592,
            0.6706157326698303,
            0.4184334874153137
          ],
          [
            -0.8249910473823547,
            0.6515152454376221,
            0.3712465465068817
          ],
          [
            -0.720943033695221,
            0.6523154377937317,
            0.3244231939315796
          ]
        ],
        [
          [
            -0.9301290512084961,
            0.4232885241508484,
            0.4185577630996704
          ],
          [
            -0.8249210119247437,
            0.4190865457057953,
            0.37121644616127014
          ],
          [
            -0.7203975915908813,
            0.4182951748371124,
            0.3241785764694214
          ]
        ],
        [
          [
            -0.9303209185600281,
            0.11034666001796722,
            0.41864463686943054
          ],
          [
            -0.825019359588623,
            0.12500923871994019,
            0.3712603747844696
          ],
          [
            -0.7201864123344421,
            0.1130405142903328,
            0.32408407330513
          ]
        ],
        [
          [
            -0.9303981065750122,
            -0.1744040697813034,
            0.418678879737854
          ],
          [
            -0.8252230882644653,
            -0.17057892680168152,
            0.37135183811187744
          ],
          [
            -0.7207311987876892,
            -0.17844827473163605,
            0.3243279457092285
          ]
        ],
        [
          [
            -0.930625319480896,
            -0.48007839918136597,
            0.41878166794776917
          ],
          [
            -0.8251826763153076,
            -0.46049514412879944,
            0.37133219838142395
          ],
          [
            -0.7206135392189026,
            -0.47188547253608704,
            0.32427626848220825
          ]
        ],
        [
          [
            -0.930098295211792,
            -0.7084748148918152,
            0.4185437262058258
          ],
          [
            -0.8249953985214233,
            -0.7033408880233765,
            0.37124717235565186
          ],
          [
            -0.7206448912620544,
            -0.7238767743110657,
            0.3242897689342499
          ]
        ],
        [
          [
            -0.9306544065475464,
            -0.8979334235191345,
            0.41879454255104065
          ],
          [
            -0.8255945444107056,
            -0.9135656356811523,
            0.3715171217918396
          ],
          [
            -0.7217175960540771,
            -0.9462020993232727,
            0.324773907661438
          ]
        ]
      ],
      "final_weights": [
        [
          1.0,
          1.0,
          1.0
        ],
        [
          1.0,
          1.0,
          1.0
        ],
        [
          1.0,
          1.0,
          1.0
        ],
        [
          1.0,
          1.0,
          1.0
        ],
        [
          1.0,
          1.0,
          1.0
        ],
        [
          1.0,
          1.0,
          1.0
        ],
        [
          1.0,
          1.0,
          1.0
        ],
        [
          1.0,
          1.0,
          1.0
        ]
      ],
      "final_gaussian_indices": [
        1,
        6,
        9,
        17,
        22,
        29,
        35,
        40,
        47,
        49,
        52,
        53,
        62,
        72,
        75,
        81,
        84,
        87,
        94,
        96,
        97,
        101,
        108,
        112,
        113,
        128,
        136,
        141,
        155,
        161,
        165,
        167,
        179,
        180,
        181,
        184,
        186,
        187,
        197,
        207,
        215,
        220,
        222,
        229,
        230,
        234,
        238,
        240,
        241,
        248,
        250,
        266,
        267,
        273,
        275,
        280,
        291,
        296,
        298,
        300,
        301,
        314,
        319,
        324,
        327,
        335,
        351,
        356,
        367,
        370,
        375,
        381,
        384,
        390,
        417,
        436,
        441,
        448,
        453,
        458,
        461,
        466,
        473,
        476,
        480,
        482,
        489,
        493,
        503,
        518,
        519,
        524,
        527,
        538,
        552,
        553,
        557,
        559,
        561,
        562,
        565,
        576,
        580,
        586
      ],
      "final_gaussian_uv": [
        [
          0.9187453985214233,
          0.5112227201461792
        ],
        [
          0.8777487874031067,
          0.0
        ],
        [
          0.7333333492279053,
          1.0
        ],
        [
          0.9937027096748352,
          1.0
        ],
        [
          0.7804104685783386,
          0.9907220602035522
        ],
        [
          0.7787250280380249,
          1.0
        ],
        [
          0.6924064755439758,
          0.7612289786338806
        ],
        [
          0.0,
          0.0
        ],
        [
          0.8671290874481201,
          0.0
        ],
        [
          0.8230594992637634,
          0.7157619595527649
        ],
        [
          0.4905867576599121,
          0.0
        ],
        [
          0.9307821393013,
          0.8463233113288879
        ],
        [
          0.8296657204627991,
          0.0
        ],
        [
          0.7549128532409668,
          0.1529172658920288
        ],
        [
          0.9758045077323914,
          0.0
        ],
        [
          0.9826691746711731,
          0.15810905396938324
        ],
        [
          0.5217952728271484,
          0.14409661293029785
        ],
        [
          0.10998236387968063,
          0.1308593600988388
        ],
        [
          0.1640777438879013,
          0.5050808787345886
        ],
        [
          0.45522835850715637,
          1.0
        ],
        [
          0.8010827302932739,
          1.0
        ],
        [
          0.8888250589370728,
          0.831619143486023
        ],
        [
          0.789210855960846,
          0.7057299613952637
        ],
        [
          0.19758391380310059,
          0.3020937144756317
        ],
        [
          0.6427760124206543,
          1.0
        ],
        [
          0.23002836108207703,
          0.0
        ],
        [
          0.3599696159362793,
          0.0
        ],
        [
          0.01826099492609501,
          0.5794524550437927
        ],
        [
          0.5720962285995483,
          0.5265339612960815
        ],
        [
          0.4394015073776245,
          0.6859713196754456
        ],
        [
          0.9763291478157043,
          0.4857364892959595
        ],
        [
          0.26070937514305115,
          1.0
        ],
        [
          0.3543455898761749,
          1.0
        ],
        [
          1.0,
          1.0
        ],
        [
          0.02191208116710186,
          0.6046686768531799
        ],
        [
          0.5717570185661316,
          1.0
        ],
        [
          0.7651862502098083,
          0.830876886844635
        ],
        [
          0.8110131621360779,
          0.0
        ],
        [
          0.08245303481817245,
          0.7661628127098083
        ],
        [
          0.6711135506629944,
          1.0
        ],
        [
          0.2727377712726593,
          1.0
        ],
        [
          1.0,
          0.0
        ],
        [
          0.004081869963556528,
          0.0
        ],
        [
          0.6477705240249634,
          0.6123685240745544
        ],
        [
          0.697609543800354,
          0.0
        ],
        [
          0.6592264175415039,
          0.7388716340065002
        ],
        [
          0.21597175300121307,
          0.3617573380470276
        ],
        [
          0.7665134072303772,
          1.0
        ],
        [
          0.17804458737373352,
          0.5069150924682617
        ],
        [
          0.8008626699447632,
          0.4398912787437439
        ],
        [
          0.06973080337047577,
          0.017266379669308662
        ],
        [
          0.9486415982246399,
          0.8415246605873108
        ],
        [
          0.48580875992774963,
          0.8206127285957336
        ],
        [
          0.45254087448120117,
          1.0
        ],
        [
          1.0,
          0.0
        ],
        [
          0.8266513347625732,
          0.0
        ],
        [
          0.3426405191421509,
          0.11012233048677444
        ],
        [
          0.0,
          0.1250455677509308
        ],
        [
          0.0,
          0.307508647441864
        ],
        [
          0.698861837387085,
          0.41336265206336975
        ],
        [
          0.0,
          1.0
        ],
        [
          0.5187461972236633,
          0.08956477046012878
        ],
        [
          0.2353288233280182,
          0.8427940607070923
        ],
        [
          0.620940089225769,
          0.6424983143806458
        ],
        [
          0.7431495785713196,
          0.431441992521286
        ],
        [
          0.5633606910705566,
          0.0
        ],
        [
          0.35538557171821594,
          0.17020262777805328
        ],
        [
          1.0,
          0.2857142984867096
        ],
        [
          0.0,
          1.0
        ],
        [
          0.4494985044002533,
          0.6509600281715393
        ],
        [
          0.4839193522930145,
          0.6006200909614563
        ],
        [
          0.0,
          0.13472428917884827
        ],
        [
          0.6497841477394104,
          0.7774872183799744
        ],
        [
          0.12044119089841843,
          0.18569238483905792
        ],
        [
          0.254608154296875,
          0.4411461055278778
        ],
        [
          0.4478057026863098,
          0.0
        ],
        [
          0.0,
          1.0
        ],
        [
          0.5198699235916138,
          0.20863889157772064
        ],
        [
          0.6953116059303284,
          0.7353342771530151
        ],
        [
          0.9155715107917786,
          0.2540428638458252
        ],
        [
          0.12338567525148392,
          0.03365153819322586
        ],
        [
          0.0884535014629364,
          0.0
        ],
        [
          1.0,
          0.0
        ],
        [
          0.9487999677658081,
          0.5380713939666748
        ],
        [
          0.3607621192932129,
          1.0
        ],
        [
          0.40521520376205444,
          0.0
        ],
        [
          0.17438869178295135,
          0.0
        ],
        [
          0.5311928987503052,
          0.8472102284431458
        ],
        [
          0.8767204284667969,
          1.0
        ],
        [
          0.6193565726280212,
          0.7936335206031799
        ],
        [
          0.11749473959207535,
          0.4681791663169861
        ],
        [
          0.11452209204435349,
          0.0
        ],
        [
          0.5354735851287842,
          0.24465824663639069
        ],
        [
          0.6155222654342651,
          0.0
        ],
        [
          0.21499906480312347,
          1.0
        ],
        [
          0.9689309000968933,
          0.697555661201477
        ],
        [
          1.0,
          0.02506684511899948
        ],
        [
          0.7024368643760681,
          0.2587377727031708
        ],
        [
          0.4413089454174042,
          1.0
        ],
        [
          0.5623177886009216,
          0.0
        ],
        [
          0.1429884433746338,
          0.8221188187599182
        ],
        [
          0.47582563757896423,
          0.4269692301750183
        ],
        [
          0.6579150557518005,
          0.0
        ],
        [
          0.8987189531326294,
          1.0
        ]
      ],
      "uv_support_mask": [
        [
          true,
          true,
          true,
          true,
          true,
          false,
          true,
          true,
          true,
          false,
          false,
          false,
          true,
          true,
          true,
          true,
          false,
          true,
          true,
          true,
          false,
          false,
          true,
          true
        ],
        [
          true,
          true,
          true,
          true,
          true,
          true,
          true,
          true,
          true,
          false,
          true,
          true,
          true,
          true,
          true,
          true,
          false,
          true,
          true,
          true,
          false,
          false,
          true,
          true
        ],
        [
          true,
          true,
          true,
          true,
          true,
          true,
          false,
          false,
          false,
          false,
          true,
          true,
          true,
          true,
          false,
          false,
          false,
          true,
          true,
          true,
          true,
          false,
          false,
          false
        ],
        [
          true,
          true,
          true,
          true,
          true,
          true,
          true,
          true,
          true,
          false,
          true,
          true,
          true,
          true,
          false,
          false,
          false,
          false,
          true,
          true,
          true,
          false,
          false,
          false
        ],
        [
          true,
          true,
          false,
          false,
          false,
          false,
          true,
          true,
          true,
          true,
          false,
          true,
          true,
          true,
          false,
          false,
          false,
          false,
          true,
          true,
          true,
          true,
          true,
          true
        ],
        [
          true,
          true,
          false,
          false,
          false,
          false,
          true,
          true,
          true,
          true,
          true,
          true,
          true,
          true,
          false,
          false,
          false,
          false,
          false,
          true,
          true,
          true,
          true,
          true
        ],
        [
          true,
          true,
          false,
          false,
          false,
          false,
          false,
          true,
          true,
          true,
          true,
          true,
          false,
          false,
          false,
          false,
          false,
          false,
          false,
          true,
          true,
          true,
          true,
          true
        ],
        [
          true,
          true,
          true,
          true,
          true,
          true,
          false,
          false,
          false,
          true,
          true,
          true,
          false,
          false,
          false,
          false,
          false,
          false,
          false,
          false,
          false,
          false,
          true,
          true
        ],
        [
          true,
          true,
          true,
          true,
          true,
          true,
          false,
          false,
          false,
          false,
          false,
          false,
          false,
          false,
          false,
          false,
          false,
          false,
          false,
          false,
          false,
          false,
          true,
          true
        ],
        [
          true,
          true,
          true,
          true,
          true,
          true,
          false,
          false,
          false,
          false,
          false,
          false,
          false,
          false,
          true,
          true,
          true,
          true,
          false,
          false,
          false,
          false,
          true,
          true
        ],
        [
          true,
          true,
          false,
          false,
          false,
          false,
          false,
          false,
          false,
          true,
          true,
          true,
          false,
          true,
          true,
          true,
          true,
          true,
          true,
          true,
          true,
          false,
          true,
          true
        ],
        [
          true,
          true,
          true,
          true,
          true,
          true,
          true,
          false,
          false,
          true,
          true,
          true,
          false,
          true,
          true,
          true,
          true,
          true,
          true,
          true,
          true,
          true,
          true,
          true
        ],
        [
          true,
          true,
          true,
          true,
          true,
          true,
          true,
          false,
          false,
          true,
          true,
          true,
          true,
          true,
          true,
          true,
          false,
          false,
          true,
          true,
          true,
          true,
          true,
          true
        ],
        [
          true,
          true,
          true,
          true,
          true,
          true,
          true,
          false,
          false,
          false,
          false,
          true,
          true,
          true,
          true,
          true,
          true,
          false,
          true,
          true,
          true,
          true,
          true,
          true
        ],
        [
          true,
          true,
          false,
          false,
          false,
          false,
          false,
          false,
          false,
          false,
          false,
          true,
          true,
          true,
          true,
          true,
          true,
          true,
          true,
          true,
          true,
          false,
          true,
          true
        ],
        [
          true,
          true,
          false,
          false,
          false,
          true,
          true,
          true,
          true,
          true,
          true,
          false,
          false,
          true,
          true,
          true,
          true,
          true,
          true,
          true,
          true,
          false,
          true,
          true
        ],
        [
          true,
          true,
          false,
          false,
          false,
          true,
          true,
          true,
          true,
          true,
          true,
          true,
          false,
          true,
          true,
          true,
          true,
          true,
          true,
          true,
          false,
          false,
          true,
          true
        ],
        [
          true,
          true,
          true,
          true,
          true,
          true,
          true,
          true,
          true,
          true,
          true,
          true,
          false,
          false,
          false,
          true,
          true,
          true,
          true,
          true,
          true,
          false,
          true,
          true
        ],
        [
          true,
          true,
          true,
          true,
          true,
          false,
          false,
          false,
          false,
          true,
          true,
          true,
          false,
          false,
          false,
          true,
          true,
          true,
          true,
          true,
          true,
          false,
          true,
          true
        ],
        [
          true,
          true,
          true,
          true,
          true,
          false,
          false,
          false,
          false,
          true,
          true,
          true,
          false,
          false,
          false,
          true,
          true,
          true,
          true,
          true,
          true,
          false,
          true,
          true
        ],
        [
          true,
          true,
          false,
          false,
          false,
          true,
          true,
          true,
          false,
          true,
          true,
          true,
          false,
          false,
          false,
          false,
          true,
          true,
          true,
          true,
          true,
          false,
          true,
          true
        ],
        [
          true,
          true,
          false,
          false,
          false,
          true,
          true,
          true,
          false,
          false,
          false,
          true,
          true,
          true,
          false,
          false,
          false,
          false,
          true,
          true,
          true,
          true,
          true,
          true
        ],
        [
          true,
          true,
          true,
          true,
          true,
          true,
          true,
          true,
          false,
          false,
          true,
          true,
          true,
          true,
          false,
          true,
          true,
          true,
          true,
          true,
          true,
          true,
          true,
          true
        ],
        [
          true,
          true,
          true,
          true,
          true,
          true,
          true,
          true,
          false,
          false,
          true,
          true,
          true,
          true,
          false,
          true,
          true,
          true,
          false,
          true,
          true,
          true,
          true,
          true
        ]
      ],
      "stages": [
        {
          "stage": "idw_seed",
          "grid": {
            "extent": 1.0523550510406494,
            "edge_median": 0.09823477268218994,
            "edge_min": 0.012336929328739643
          },
          "uv_support": {
            "point_count": 12,
            "occupied_cells": 12,
            "coverage_ratio": 0.01171875
          },
          "mapping": {
            "jacobian_median": 0.0874631255865097,
            "jacobian_min": 0.019358152523636818,
            "degenerate_fraction": 0.0,
            "fold_fraction": 0.0
          }
        },
        {
          "stage": "round_1",
          "grid": {
            "extent": 1.8176665306091309,
            "edge_median": 0.18443967401981354,
            "edge_min": 0.1124030202627182
          },
          "uv_support": {
            "point_count": 12,
            "occupied_cells": 12,
            "coverage_ratio": 0.01171875
          },
          "fit_rms": 0.0002727487008087337,
          "mapping": {
            "jacobian_median": 0.39642763137817383,
            "jacobian_min": 0.27397260069847107,
            "degenerate_fraction": 0.0,
            "fold_fraction": 0.0
          }
        },
        {
          "stage": "round_2",
          "grid": {
            "extent": 1.8005403280258179,
            "edge_median": 0.1871711015701294,
            "edge_min": 0.11410107463598251
          },
          "uv_support": {
            "point_count": 12,
            "occupied_cells": 12,
            "coverage_ratio": 0.01171875
          },
          "fit_rms": 1.3651599601871567e-06,
          "mapping": {
            "jacobian_median": 0.40365609526634216,
            "jacobian_min": 0.32117706537246704,
            "degenerate_fraction": 0.0,
            "fold_fraction": 0.0
          }
        }
      ],
      "final_mapping": {
        "jacobian_median": 0.40365609526634216,
        "jacobian_min": 0.32117706537246704,
        "degenerate_fraction": 0.0,
        "fold_fraction": 0.0
      }
    },
    {
      "patch_id": 1,
      "fit_point_count": 12,
      "point_weights": [
        8.0,
        4.0,
        7.0,
        8.0,
        6.0,
        6.0,
        10.0,
        10.0,
        16.0,
        6.0,
        10.0,
        14.0
      ],
      "initial_uv": [
        [
          1.0,
          0.9942905902862549
        ],
        [
          0.9640089869499207,
          0.005833116825670004
        ],
        [
          0.7941551208496094,
          0.9273585081100464
        ],
        [
          0.7707367539405823,
          0.10250911861658096
        ],
        [
          0.5939777493476868,
          0.9563668370246887
        ],
        [
          0.5701440572738647,
          0.004725683480501175
        ],
        [
          0.3799612820148468,
          1.0
        ],
        [
          0.3901369869709015,
          0.22935304045677185
        ],
        [
          0.21314753592014313,
          0.9578902721405029
        ],
        [
          0.24989162385463715,
          0.1143711730837822
        ],
        [
          0.0,
          0.9593273401260376
        ],
        [
          0.001523014740087092,
          0.0
        ]
      ],
      "idw_seed_control_grid": [
        [
          [
            -0.5979118347167969,
            0.8315964341163635,
            0.26906028389930725
          ],
          [
            -0.5030605792999268,
            0.177019864320755,
            0.22637724876403809
          ],
          [
            -0.4301571547985077,
            0.5424301028251648,
            0.19357071816921234
          ]
        ],
        [
          [
            -0.5541089177131653,
            0.2872295379638672,
            0.249348983168602
          ],
          [
            -0.5048560500144958,
            0.1502637267112732,
            0.2271852344274521
          ],
          [
            -0.43967217206954956,
            0.3223457634449005,
            0.1978524923324585
          ]
        ],
        [
          [
            -0.5535262227058411,
            0.18138618767261505,
            0.24908678233623505
          ],
          [
            -0.5069999694824219,
            0.10940781235694885,
            0.22814998030662537
          ],
          [
            -0.43684542179107666,
            0.22574570775032043,
            0.1965804249048233
          ]
        ],
        [
          [
            -0.5571074485778809,
            0.052628450095653534,
            0.25069835782051086
          ],
          [
            -0.508105993270874,
            0.05664100497961044,
            0.22864769399166107
          ],
          [
            -0.4337312579154968,
            0.11522993445396423,
            0.1951790601015091
          ]
        ],
        [
          [
            -0.6053838729858398,
            -0.10121715068817139,
            0.27242276072502136
          ],
          [
            -0.5078750252723694,
            -0.00513492152094841,
            0.22854377329349518
          ],
          [
            -0.44016900658607483,
            -0.072201669216156,
            0.198076069355011
          ]
        ],
        [
          [
            -0.5654427409172058,
            -0.1670445203781128,
            0.2544492483139038
          ],
          [
            -0.5076349973678589,
            -0.0649479478597641,
            0.22843573987483978
          ],
          [
            -0.44975242018699646,
            -0.17790716886520386,
            0.20238858461380005
          ]
        ],
        [
          [
            -0.5692211389541626,
            -0.2977673411369324,
            0.2561495006084442
          ],
          [
            -0.5075129270553589,
            -0.1111525297164917,
            0.22838081419467926
          ],
          [
            -0.45113953948020935,
            -0.29683491587638855,
            0.20301279425621033
          ]
        ],
        [
          [
            -0.5884045958518982,
            -0.5079761743545532,
            0.2647820711135864
          ],
          [
            -0.5072284936904907,
            -0.13876225054264069,
            0.2282528132200241
          ],
          [
            -0.4230552911758423,
            -0.770167350769043,
            0.19037488102912903
          ]
        ]
      ],
      "rounds": [
        {
          "control_grid_after_lsq": [
            [
              [
                -0.5996280312538147,
                0.8538011312484741,
                0.2698325514793396
              ],
              [
                -0.4967440962791443,
                0.7306461930274963,
                0.22353537380695343
              ],
              [
                -0.3931896388530731,
                0.8582157492637634,
                0.17693524062633514
              ]
            ],
            [
              [
                -0.5971347689628601,
                0.6132606267929077,
                0.2687111496925354
              ],
              [
                -0.5002132058143616,
                0.5652857422828674,
                0.22509531676769257
              ],
              [
                -0.3987671732902527,
                0.6486436128616333,
                0.17944560945034027
              ]
            ],
            [
              [
                -0.6053335666656494,
                0.45656314492225647,
                0.2724004089832306
              ],
              [
                -0.5048835277557373,
                0.3972596228122711,
                0.22719697654247284
              ],
              [
                -0.3975031077861786,
                0.45638003945350647,
                0.17887642979621887
              ]
            ],
            [
              [
                -0.6076095700263977,
                0.15743616223335266,
                0.27342331409454346
              ],
              [
                -0.5082499384880066,
                0.13342776894569397,
                0.22871413826942444
              ],
              [
                -0.403628408908844,
                0.13591933250427246,
                0.18163274228572845
              ]
            ],
            [
              [
                -0.6136583685874939,
                -0.13076552748680115,
                0.27614644169807434
              ],
              [
                -0.5104632377624512,
                -0.12414083629846573,
                0.2297096848487854
              ],
              [
                -0.40701770782470703,
                -0.12799319624900818,
                0.183157816529274
              ]
            ],
            [
              [
                -0.6178335547447205,
                -0.4344405233860016,
                0.27802491188049316
              ],
              [
                -0.513671875,
                -0.385922908782959,
                0.2311525195837021
              ],
              [
                -0.4105820059776306,
                -0.4511171877384186,
                0.1847621351480484
              ]
            ],
            [
              [
                -0.6189880967140198,
                -0.6554999947547913,
                0.2785447835922241
              ],
              [
                -0.5159732103347778,
                -0.5629897713661194,
                0.23218809068202972
              ],
              [
                -0.41645628213882446,
                -0.6374097466468811,
                0.18740464746952057
              ]
            ],
            [
              [
                -0.6242049932479858,
                -0.8530218005180359,
                0.2808922231197357
              ],
              [
                -0.5180089473724365,
                -0.7119503021240234,
                0.23310574889183044
              ],
              [
                -0.4168349504470825,
                -0.8379864692687988,
                0.18757568299770355
              ]
            ]
          ],
          "uv_after_footpoint": [
            [
              1.0,
              0.9943388104438782
            ],
            [
              0.9651220440864563,
              0.005176547449082136
            ],
            [
              0.7956607937812805,
              0.9281048774719238
            ],
            [
              0.7715057730674744,
              0.10192473232746124
            ],
            [
              0.5935404300689697,
              0.9567166566848755
            ],
            [
              0.5699381828308105,
              0.004630993586033583
            ],
            [
              0.3802242875099182,
              1.0
            ],
            [
              0.3904598653316498,
              0.22917261719703674
            ],
            [
              0.21257777512073517,
              0.9581922888755798
            ],
            [
              0.24812035262584686,
              0.11313110589981079
            ],
            [
              0.0,
              0.9594931602478027
            ],
            [
              0.00142694974783808,
              0.0
            ]
          ]
        },
        {
          "control_grid_after_lsq": [
            [
              [
                -0.5995599031448364,
                0.8530911803245544,
                0.26980191469192505
              ],
              [
                -0.49632832407951355,
                0.8335410952568054,
                0.22334712743759155
              ],
              [
                -0.3932071030139923,
                0.8502348065376282,
                0.17694318294525146
              ]
            ],
            [
              [
                -0.6013426184654236,
                0.6531264185905457,
                0.27060434222221375
              ],
              [
                -0.4991265535354614,
                0.6444791555404663,
                0.22460612654685974
              ],
              [
                -0.3960692584514618,
                0.670405924320221,
                0.17823131382465363
              ]
            ],
            [
              [
                -0.6050544381141663,
                0.43887320160865784,
                0.27227482199668884
              ],
              [
                -0.5025622248649597,
                0.42335671186447144,
                0.22615128755569458
              ],
              [
                -0.39879441261291504,
                0.44266897439956665,
                0.1794576346874237
              ]
            ],
            [
              [
                -0.609163224697113,
                0.1537179797887802,
                0.27412471175193787
              ],
              [
                -0.5065262317657471,
                0.1429842859506607,
                0.22793535888195038
              ],
              [
                -0.40310433506965637,
                0.14153508841991425,
                0.18139682710170746
              ]
            ],
            [
              [
                -0.6133747100830078,
                -0.131473571062088,
                0.27601832151412964
              ],
              [
                -0.5103508830070496,
                -0.1379023641347885,
                0.2296573370695114
              ],
              [
                -0.4069850444793701,
                -0.13182546198368073,
                0.18314333260059357
              ]
            ],
            [
              [
                -0.6173266768455505,
                -0.42306697368621826,
                0.27779650688171387
              ],
              [
                -0.5141125917434692,
                -0.4150610864162445,
                0.23135057091712952
              ],
              [
                -0.4112057685852051,
                -0.4315880537033081,
                0.18504266440868378
              ]
            ],
            [
              [
                -0.6202943325042725,
                -0.653803825378418,
                0.2791343331336975
              ],
              [
                -0.5171911120414734,
                -0.6377972960472107,
                0.2327359914779663
              ],
              [
                -0.41469281911849976,
                -0.6576231122016907,
                0.186611607670784
              ]
            ],
            [
              [
                -0.6234588623046875,
                -0.8526989221572876,
                0.28055548667907715
              ],
              [
                -0.5198097825050354,
                -0.8253714442253113,
                0.2339126616716385
              ],
              [
                -0.4168162941932678,
                -0.8371626138687134,
                0.187567338347435
              ]
            ]
          ],
          "uv_after_footpoint": [
            [
              0.9999948143959045,
              0.9943428039550781
            ],
            [
              0.9651355743408203,
              0.005176844075322151
            ],
            [
              0.7959609031677246,
              0.9281131625175476
            ],
            [
              0.7716835737228394,
              0.10192175954580307
            ],
            [
              0.5932734608650208,
              0.9567155241966248
            ],
            [
              0.5697916746139526,
              0.004628245253115892
            ],
            [
              0.38036394119262695,
              1.0
            ],
            [
              0.39063823223114014,
              0.22918042540550232
            ],
            [
              0.21243426203727722,
              0.958200991153717
            ],
            [
              0.24776096642017365,
              0.11309963464736938
            ],
            [
              1.0364366971771233e-05,
              0.9594952464103699
            ],
            [
              0.0014202542370185256,
              0.0
            ]
          ]
        }
      ],
      "final_control_grid": [
        [
          [
            -0.5995599031448364,
            0.8530911803245544,
            0.26980191469192505
          ],
          [
            -0.49632832407951355,
            0.8335410952568054,
            0.22334712743759155
          ],
          [
            -0.3932071030139923,
            0.8502348065376282,
            0.17694318294525146
          ]
        ],
        [
          [
            -0.6013426184654236,
            0.6531264185905457,
            0.27060434222221375
          ],
          [
            -0.4991265535354614,
            0.6444791555404663,
            0.22460612654685974
          ],
          [
            -0.3960692584514618,
            0.670405924320221,
            0.17823131382465363
          ]
        ],
        [
          [
            -0.6050544381141663,
            0.43887320160865784,
            0.27227482199668884
          ],
          [
            -0.5025622248649597,
            0.42335671186447144,
            0.22615128755569458
          ],
          [
            -0.39879441261291504,
            0.44266897439956665,
            0.1794576346874237
          ]
        ],
        [
          [
            -0.609163224697113,
            0.1537179797887802,
            0.27412471175193787
          ],
          [
            -0.5065262317657471,
            0.1429842859506607,
            0.22793535888195038
          ],
          [
            -0.40310433506965637,
            0.14153508841991425,
            0.18139682710170746
          ]
        ],
        [
          [
            -0.6133747100830078,
            -0.131473571062088,
            0.27601832151412964
          ],
          [
            -0.5103508830070496,
            -0.1379023641347885,
            0.2296573370695114
          ],
          [
            -0.4069850444793701,
            -0.13182546198368073,
            0.18314333260059357
          ]
        ],
        [
          [
            -0.6173266768455505,
            -0.42306697368621826,
            0.27779650688171387
          ],
          [
            -0.5141125917434692,
            -0.4150610864162445,
            0.23135057091712952
          ],
          [
            -0.4112057685852051,
            -0.4315880537033081,
            0.18504266440868378
          ]
        ],
        [
          [
            -0.6202943325042725,
            -0.653803825378418,
            0.2791343331336975
          ],
          [
            -0.5171911120414734,
            -0.6377972960472107,
            0.2327359914779663
          ],
          [
            -0.41469281911849976,
            -0.6576231122016907,
            0.186611607670784
          ]
        ],
        [
          [
            -0.6234588623046875,
            -0.8526989221572876,
            0.28055548667907715
          ],
          [
            -0.5198097825050354,
            -0.8253714442253113,
            0.2339126616716385
          ],
          [
            -0.4168162941932678,
            -0.8371626138687134,
            0.187567338347435
          ]
        ]
      ],
      "final_weights": [
        [
          1.0,
          1.0,
          1.0
        ],
        [
          1.0,
          1.0,
          1.0
        ],
        [
          1.0,
          1.0,
          1.0
        ],
        [
          1.0,
          1.0,
          1.0
        ],
        [
          1.0,
          1.0,
          1.0
        ],
        [
          1.0,
          1.0,
          1.0
        ],
        [
          1.0,
          1.0,
          1.0
        ],
        [
          1.0,
          1.0,
          1.0
        ]
      ],
      "final_gaussian_indices": [
        2,
        7,
        14,
        15,
        16,
        18,
        24,
        31,
        51,
        55,
        56,
        61,
        64,
        66,
        74,
        83,
        98,
        99,
        102,
        103,
        114,
        119,
        125,
        127,
        129,
        130,
        135,
        137,
        143,
        145,
        150,
        151,
        158,
        172,
        174,
        175,
        178,
        185,
        194,
        196,
        199,
        201,
        204,
        205,
        214,
        217,
        223,
        227,
        239,
        258,
        262,
        269,
        270,
        274,
        281,
        282,
        288,
        302,
        304,
        310,
        318,
        320,
        322,
        323,
        329,
        350,
        352,
        354,
        362,
        378,
        379,
        392,
        397,
        398,
        405,
        408,
        419,
        426,
        439,
        440,
        445,
        447,
        471,
        472,
        475,
        487,
        494,
        509,
        511,
        513,
        514,
        520,
        530,
        532,
        545,
        546,
        547,
        555,
        556,
        563,
        571,
        578,
        581,
        584,
        592
      ],
      "final_gaussian_uv": [
        [
          0.3472684323787689,
          1.0
        ],
        [
          0.4804271459579468,
          0.9630666971206665
        ],
        [
          0.6529061198234558,
          0.0
        ],
        [
          0.0,
          1.0
        ],
        [
          0.777485191822052,
          0.0
        ],
        [
          0.0,
          0.076186403632164
        ],
        [
          0.5243209004402161,
          0.8167116045951843
        ],
        [
          0.3288841247558594,
          0.0713803842663765
        ],
        [
          0.6503439545631409,
          0.8674983382225037
        ],
        [
          0.139041006565094,
          0.9390409588813782
        ],
        [
          0.0,
          0.0
        ],
        [
          0.21715079247951508,
          0.5664447546005249
        ],
        [
          0.9883151054382324,
          1.0
        ],
        [
          0.538027822971344,
          0.0
        ],
        [
          0.9685892462730408,
          0.6065456867218018
        ],
        [
          0.2813461422920227,
          0.7362688779830933
        ],
        [
          0.3044920265674591,
          0.11548764258623123
        ],
        [
          0.5185422301292419,
          0.07689056545495987
        ],
        [
          0.06965780258178711,
          0.09941016882658005
        ],
        [
          0.005671907681971788,
          1.0
        ],
        [
          0.5914417505264282,
          1.0
        ],
        [
          0.3312370181083679,
          0.8892719149589539
        ],
        [
          0.4254608154296875,
          0.4022078216075897
        ],
        [
          0.7220408916473389,
          0.11107125878334045
        ],
        [
          0.9170019626617432,
          0.6814705729484558
        ],
        [
          0.1436680257320404,
          0.12981343269348145
        ],
        [
          0.7860946655273438,
          0.7024800181388855
        ],
        [
          1.0,
          0.2857142984867096
        ],
        [
          0.3333333432674408,
          1.0
        ],
        [
          0.30858221650123596,
          0.0
        ],
        [
          0.39655160903930664,
          0.6132670640945435
        ],
        [
          0.36761578917503357,
          0.4304438531398773
        ],
        [
          0.497552752494812,
          0.43252629041671753
        ],
        [
          0.0,
          0.0
        ],
        [
          0.3402610123157501,
          0.0
        ],
        [
          0.036775603890419006,
          1.0
        ],
        [
          0.2222490757703781,
          1.0
        ],
        [
          0.07677068561315536,
          0.0
        ],
        [
          0.2260107547044754,
          1.0
        ],
        [
          0.8523454666137695,
          0.2689990699291229
        ],
        [
          0.03379583731293678,
          0.10497588664293289
        ],
        [
          0.0,
          0.6121968030929565
        ],
        [
          0.16616268455982208,
          1.0
        ],
        [
          0.5964956879615784,
          0.22064076364040375
        ],
        [
          0.2926989793777466,
          0.870915412902832
        ],
        [
          0.7130714058876038,
          0.0
        ],
        [
          0.33294421434402466,
          1.0
        ],
        [
          0.012307222932577133,
          0.0
        ],
        [
          0.21211948990821838,
          0.18438661098480225
        ],
        [
          0.4503026604652405,
          0.5899351239204407
        ],
        [
          0.8132647275924683,
          0.14745786786079407
        ],
        [
          0.3920477032661438,
          1.0
        ],
        [
          0.372861385345459,
          0.4163345694541931
        ],
        [
          0.0,
          1.0
        ],
        [
          0.20000001788139343,
          1.0
        ],
        [
          0.0,
          0.0
        ],
        [
          1.0,
          1.0
        ],
        [
          0.7737777829170227,
          0.9123932719230652
        ],
        [
          0.5548495054244995,
          0.5827298164367676
        ],
        [
          0.0,
          0.6560789942741394
        ],
        [
          1.0,
          1.0
        ],
        [
          0.42166444659233093,
          0.08367278426885605
        ],
        [
          0.0,
          0.0
        ],
        [
          0.011719152331352234,
          0.0888085886836052
        ],
        [
          0.29233518242836,
          0.6255521774291992
        ],
        [
          0.29827114939689636,
          0.6715732216835022
        ],
        [
          0.5699208974838257,
          0.0
        ],
        [
          0.10275323688983917,
          0.6072008013725281
        ],
        [
          0.3656556308269501,
          0.1780077964067459
        ],
        [
          0.04327788203954697,
          0.8140894174575806
        ],
        [
          0.928204357624054,
          0.9948821067810059
        ],
        [
          0.7541891932487488,
          0.308003306388855
        ],
        [
          0.7396831512451172,
          1.0
        ],
        [
          0.9246320128440857,
          0.0
        ],
        [
          0.7058011293411255,
          0.7147659659385681
        ],
        [
          0.009127560071647167,
          0.9973135590553284
        ],
        [
          0.3526122272014618,
          1.0
        ],
        [
          0.824960470199585,
          0.954142689704895
        ],
        [
          0.5420975089073181,
          0.09248874336481094
        ],
        [
          1.0,
          1.0
        ],
        [
          0.0,
          0.1986210197210312
        ],
        [
          0.2292506992816925,
          0.8559679985046387
        ],
        [
          0.3982486128807068,
          1.0
        ],
        [
          0.5968315005302429,
          1.0
        ],
        [
          0.7371053099632263,
          0.04140496253967285
        ],
        [
          0.4536796510219574,
          0.2318572700023651
        ],
        [
          0.15548808872699738,
          1.0
        ],
        [
          0.3366200923919678,
          0.139176607131958
        ],
        [
          0.23998712003231049,
          0.11984711140394211
        ],
        [
          0.26392656564712524,
          0.1406160593032837
        ],
        [
          0.08774976432323456,
          1.0
        ],
        [
          0.0,
          0.0
        ],
        [
          0.0,
          0.2313157320022583
        ],
        [
          0.8981922268867493,
          0.9837669730186462
        ],
        [
          0.10890007019042969,
          1.0
        ],
        [
          0.12217974662780762,
          0.978696346282959
        ],
        [
          0.6392083764076233,
          1.0
        ],
        [
          1.0,
          0.767231822013855
        ],
        [
          0.3105873763561249,
          1.0
        ],
        [
          0.9240809082984924,
          0.0
        ],
        [
          0.8147382140159607,
          0.32875990867614746
        ],
        [
          0.0,
          0.7413032650947571
        ],
        [
          0.0,
          0.44437456130981445
        ],
        [
          0.8522576689720154,
          1.0
        ],
        [
          0.9819478988647461,
          0.0
        ]
      ],
      "uv_support_mask": [
        [
          true,
          true,
          true,
          true,
          true,
          true,
          true,
          false,
          false,
          true,
          true,
          true,
          false,
          true,
          true,
          true,
          true,
          true,
          true,
          true,
          true,
          false,
          true,
          true
        ],
        [
          true,
          true,
          true,
          true,
          true,
          true,
          true,
          false,
          false,
          true,
          true,
          true,
          false,
          true,
          true,
          true,
          true,
          true,
          true,
          true,
          true,
          false,
          true,
          true
        ],
        [
          true,
          true,
          true,
          true,
          true,
          false,
          false,
          false,
          false,
          false,
          false,
          false,
          false,
          true,
          true,
          true,
          false,
          false,
          true,
          true,
          true,
          true,
          true,
          true
        ],
        [
          false,
          false,
          true,
          true,
          true,
          false,
          false,
          false,
          false,
          false,
          false,
          false,
          false,
          true,
          true,
          true,
          false,
          false,
          false,
          false,
          false,
          true,
          true,
          true
        ],
        [
          false,
          true,
          true,
          true,
          true,
          true,
          false,
          false,
          false,
          false,
          false,
          false,
          true,
          true,
          true,
          false,
          false,
          false,
          false,
          true,
          true,
          true,
          true,
          true
        ],
        [
          false,
          true,
          true,
          true,
          true,
          true,
          false,
          false,
          false,
          false,
          false,
          false,
          true,
          true,
          true,
          false,
          true,
          true,
          true,
          true,
          true,
          true,
          true,
          true
        ],
        [
          true,
          true,
          true,
          true,
          true,
          true,
          false,
          false,
          false,
          false,
          false,
          false,
          true,
          true,
          true,
          true,
          true,
          true,
          true,
          true,
          true,
          true,
          true,
          true
        ],
        [
          true,
          true,
          true,
          true,
          true,
          true,
          false,
          false,
          true,
          true,
          true,
          true,
          false,
          false,
          true,
          true,
          true,
          true,
          true,
          true,
          true,
          true,
          true,
          true
        ],
        [
          true,
          true,
          true,
          true,
          true,
          true,
          false,
          false,
          true,
          true,
          true,
          true,
          false,
          true,
          true,
          true,
          true,
          true,
          false,
          true,
          true,
          true,
          true,
          true
        ],
        [
          true,
          true,
          true,
          true,
          true,
          true,
          true,
          false,
          true,
          true,
          true,
          true,
          false,
          true,
          true,
          true,
          false,
          false,
          false,
          false,
          false,
          false,
          true,
          true
        ],
        [
          false,
          true,
          true,
          true,
          true,
          true,
          true,
          false,
          true,
          true,
          true,
          true,
          false,
          true,
          true,
          true,
          false,
          false,
          false,
          false,
          false,
          false,
          true,
          true
        ],
        [
          true,
          true,
          true,
          true,
          true,
          true,
          true,
          false,
          true,
          true,
          true,
          true,
          false,
          true,
          true,
          true,
          false,
          false,
          true,
          true,
          true,
          false,
          true,
          true
        ],
        [
          true,
          true,
          true,
          true,
          false,
          false,
          false,
          false,
          false,
          true,
          true,
          true,
          true,
          true,
          true,
          false,
          false,
          false,
          true,
          true,
          true,
          false,
          true,
          true
        ],
        [
          true,
          true,
          true,
          true,
          true,
          true,
          true,
          false,
          false,
          false,
          false,
          false,
          true,
          true,
          true,
          false,
          false,
          false,
          true,
          true,
          true,
          false,
          true,
          true
        ],
        [
          true,
          true,
          true,
          true,
          true,
          true,
          true,
          false,
          false,
          false,
          false,
          false,
          true,
          true,
          true,
          false,
          false,
          false,
          false,
          true,
          true,
          true,
          true,
          true
        ],
        [
          true,
          true,
          false,
          false,
          true,
          true,
          true,
          false,
          false,
          false,
          false,
          false,
          false,
          false,
          false,
          false,
          true,
          true,
          true,
          true,
          true,
          true,
          true,
          true
        ],
        [
          true,
          true,
          true,
          true,
          false,
          false,
          false,
          false,
          false,
          false,
          false,
          false,
          false,
          false,
          false,
          false,
          true,
          true,
          true,
          true,
          true,
          true,
          true,
          true
        ],
        [
          true,
          true,
          true,
          true,
          false,
          false,
          true,
          true,
          true,
          false,
          false,
          false,
          false,
          false,
          false,
          true,
          true,
          true,
          true,
          false,
          true,
          true,
          true,
          true
        ],
        [
          true,
          true,
          true,
          true,
          true,
          false,
          true,
          true,
          true,
          false,
          false,
          false,
          false,
          false,
          false,
          true,
          true,
          true,
          false,
          false,
          true,
          true,
          true,
          true
        ],
        [
          true,
          true,
          true,
          true,
          true,
          true,
          true,
          true,
          true,
          false,
          false,
          false,
          false,
          false,
          false,
          true,
          true,
          true,
          false,
          false,
          true,
          true,
          true,
          true
        ],
        [
          false,
          false,
          true,
          true,
          true,
          true,
          true,
          true,
          true,
          false,
          false,
          false,
          false,
          false,
          false,
          false,
          false,
          false,
          false,
          false,
          false,
          true,
          true,
          true
        ],
        [
          true,
          true,
          false,
          false,
          false,
          true,
          true,
          true,
          false,
          false,
          false,
          false,
          false,
          false,
          false,
          true,
          true,
          true,
          false,
          false,
          false,
          false,
          true,
          true
        ],
        [
          true,
          true,
          false,
          false,
          false,
          true,
          true,
          true,
          false,
          false,
          false,
          false,
          false,
          true,
          true,
          true,
          true,
          true,
          true,
          true,
          false,
          false,
          true,
          true
        ],
        [
          true,
          true,
          false,
          false,
          false,
          true,
          true,
          true,
          false,
          false,
          false,
          false,
          false,
          true,
          true,
          true,
          true,
          true,
          true,
          true,
          false,
          false,
          true,
          true
        ]
      ],
      "stages": [
        {
          "stage": "idw_seed",
          "grid": {
            "extent": 1.6141940355300903,
            "edge_median": 0.128817617893219,
            "edge_min": 0.026828482747077942
          },
          "uv_support": {
            "point_count": 12,
            "occupied_cells": 12,
            "coverage_ratio": 0.01171875
          },
          "mapping": {
            "jacobian_median": 0.10002213716506958,
            "jacobian_min": 0.054154958575963974,
            "degenerate_fraction": 0.0,
            "fold_fraction": 0.0
          }
        },
        {
          "stage": "round_1",
          "grid": {
            "extent": 1.7298870086669922,
            "edge_median": 0.17078961431980133,
            "edge_min": 0.11156903207302094
          },
          "uv_support": {
            "point_count": 12,
            "occupied_cells": 12,
            "coverage_ratio": 0.01171875
          },
          "fit_rms": 0.00022343640739563853,
          "mapping": {
            "jacobian_median": 0.3730030655860901,
            "jacobian_min": 0.2175028920173645,
            "degenerate_fraction": 0.0,
            "fold_fraction": 0.0
          }
        },
        {
          "stage": "round_2",
          "grid": {
            "extent": 1.724375605583191,
            "edge_median": 0.18759611248970032,
            "edge_min": 0.11242212355136871
          },
          "uv_support": {
            "point_count": 12,
            "occupied_cells": 12,
            "coverage_ratio": 0.01171875
          },
          "fit_rms": 5.407748062680184e-07,
          "mapping": {
            "jacobian_median": 0.38406693935394287,
            "jacobian_min": 0.29336827993392944,
            "degenerate_fraction": 0.0,
            "fold_fraction": 0.0
          }
        }
      ],
      "final_mapping": {
        "jacobian_median": 0.38406693935394287,
        "jacobian_min": 0.29336827993392944,
        "degenerate_fraction": 0.0,
        "fold_fraction": 0.0
      }
    },
    {
      "patch_id": 2,
      "fit_point_count": 37,
      "point_weights": [
        10.0,
        5.0,
        10.0,
        13.0,
        9.0,
        9.0,
        11.0,
        8.0,
        5.0,
        7.0,
        5.0,
        7.0,
        6.0,
        11.0,
        8.0,
        2.0,
        9.0,
        8.0,
        9.0,
        9.0,
        7.0,
        6.0,
        12.0,
        5.0,
        16.0,
        9.0,
        9.0,
        8.0,
        5.0,
        6.0,
        2.0,
        9.0,
        5.0,
        8.0,
        8.0,
        14.0,
        8.0
      ],
      "initial_uv": [
        [
          0.9860033988952637,
          0.8284866809844971
        ],
        [
          0.9943745732307434,
          0.9936506748199463
        ],
        [
          0.7964301109313965,
          0.8268890976905823
        ],
        [
          0.8031697273254395,
          0.9750421047210693
        ],
        [
          0.6157681941986084,
          0.8393574357032776
        ],
        [
          0.6277559399604797,
          0.9831439852714539
        ],
        [
          0.423289954662323,
          0.8330664038658142
        ],
        [
          0.4397871494293213,
          0.999333381652832
        ],
        [
          0.2253248542547226,
          0.8117952346801758
        ],
        [
          0.23308983445167542,
          0.9776898622512817
        ],
        [
          0.04747617617249489,
          0.8484428524971008
        ],
        [
          0.07859084755182266,
          1.0
        ],
        [
          0.9686396718025208,
          0.637091875076294
        ],
        [
          0.9704523086547852,
          0.4448312222957611
        ],
        [
          0.8104609847068787,
          0.625994086265564
        ],
        [
          0.8522361516952515,
          0.46097174286842346
        ],
        [
          0.6177481412887573,
          0.6458725333213806
        ],
        [
          0.60695481300354,
          0.46570754051208496
        ],
        [
          0.4043504595756531,
          0.6472243666648865
        ],
        [
          0.45699769258499146,
          0.43246617913246155
        ],
        [
          0.23776307702064514,
          0.6389347314834595
        ],
        [
          0.2549988627433777,
          0.4586566090583801
        ],
        [
          0.029422447085380554,
          0.649908721446991
        ],
        [
          0.05335938557982445,
          0.4406786561012268
        ],
        [
          0.9731277823448181,
          0.20130090415477753
        ],
        [
          1.0,
          0.002406112849712372
        ],
        [
          0.7758183479309082,
          0.23270735144615173
        ],
        [
          0.8020733594894409,
          0.0
        ],
        [
          0.6029995679855347,
          0.252733439207077
        ],
        [
          0.6103445887565613,
          0.04903409257531166
        ],
        [
          0.41469600796699524,
          0.34353843331336975
        ],
        [
          0.4342588186264038,
          0.22767671942710876
        ],
        [
          0.4346121549606323,
          0.016342226415872574
        ],
        [
          0.22896640002727509,
          0.23141181468963623
        ],
        [
          0.20777340233325958,
          0.06894919276237488
        ],
        [
          0.04096708074212074,
          0.26009196043014526
        ],
        [
          0.0,
          0.04442194476723671
        ]
      ],
      "idw_seed_control_grid": [
        [
          [
            0.4637197256088257,
            0.5983378887176514,
            0.208673894405365
          ],
          [
            0.32159653306007385,
            0.5866674780845642,
            0.14880765974521637
          ],
          [
            0.09137840569019318,
            0.6544314622879028,
            0.0723695233464241
          ],
          [
            -0.06761536002159119,
            0.5380312204360962,
            0.07773500680923462
          ]
        ],
        [
          [
            0.44753172993659973,
            0.42647242546081543,
            0.20138928294181824
          ],
          [
            0.3299604654312134,
            0.48517417907714844,
            0.15001696348190308
          ],
          [
            0.07702789455652237,
            0.5194294452667236,
            0.07458572834730148
          ],
          [
            -0.10545919090509415,
            0.48044657707214355,
            0.07832319289445877
          ]
        ],
        [
          [
            0.4552425444126129,
            0.28825148940086365,
            0.20485912263393402
          ],
          [
            0.34694230556488037,
            0.35527241230010986,
            0.1561240255832672
          ],
          [
            0.05751257389783859,
            0.3799002766609192,
            0.06402532011270523
          ],
          [
            -0.11281425505876541,
            0.3302472233772278,
            0.07545677572488785
          ]
        ],
        [
          [
            0.5316113829612732,
            0.13155031204223633,
            0.2392251193523407
          ],
          [
            0.33630239963531494,
            0.17139331996440887,
            0.15133607387542725
          ],
          [
            0.054667744785547256,
            0.15047459304332733,
            0.05842316895723343
          ],
          [
            -0.1891905516386032,
            0.1434480994939804,
            0.09460750967264175
          ]
        ],
        [
          [
            0.48260053992271423,
            -0.08891565352678299,
            0.21717023849487305
          ],
          [
            0.33193808794021606,
            -0.09445402026176453,
            0.1493721455335617
          ],
          [
            0.048761166632175446,
            -0.07677819579839706,
            0.0632987916469574
          ],
          [
            -0.13674381375312805,
            -0.09575670957565308,
            0.0787280723452568
          ]
        ],
        [
          [
            0.4659692049026489,
            -0.2859111428260803,
            0.20968616008758545
          ],
          [
            0.3411034047603607,
            -0.3391783833503723,
            0.15349653363227844
          ],
          [
            0.041668444871902466,
            -0.36197298765182495,
            0.06649000942707062
          ],
          [
            -0.1207236498594284,
            -0.28920429944992065,
            0.07735379040241241
          ]
        ],
        [
          [
            0.47023236751556396,
            -0.4339507222175598,
            0.21160456538200378
          ],
          [
            0.30994167923927307,
            -0.46459540724754333,
            0.14215229451656342
          ],
          [
            0.044142842292785645,
            -0.48163774609565735,
            0.06514023244380951
          ],
          [
            -0.11843867599964142,
            -0.4375109374523163,
            0.08166319131851196
          ]
        ],
        [
          [
            0.5749530792236328,
            -0.8328365683555603,
            0.25872886180877686
          ],
          [
            0.2912699580192566,
            -0.5591191053390503,
            0.1373308300971985
          ],
          [
            0.0661192461848259,
            -0.6150922775268555,
            0.0705883726477623
          ],
          [
            -0.21417225897312164,
            -0.733819305896759,
            0.10709520429372787
          ]
        ]
      ],
      "rounds": [
        {
          "control_grid_after_lsq": [
            [
              [
                0.6321800947189331,
                0.8935704827308655,
                0.2852000296115875
              ],
              [
                0.40469256043434143,
                0.9350528717041016,
                0.18159696459770203
              ],
              [
                0.027440091595053673,
                0.9220906496047974,
                -0.011270382441580296
              ],
              [
                -0.23890942335128784,
                0.9293166995048523,
                0.03079005517065525
              ]
            ],
            [
              [
                0.6419327855110168,
                0.7022467851638794,
                0.2919897139072418
              ],
              [
                0.41158294677734375,
                0.7317690253257751,
                0.1905004382133484
              ],
              [
                0.04295068234205246,
                0.7335680723190308,
                0.00728257279843092
              ],
              [
                -0.2319217026233673,
                0.7606772184371948,
                0.12954282760620117
              ]
            ],
            [
              [
                0.6218883395195007,
                0.4750570058822632,
                0.2754174768924713
              ],
              [
                0.3991125822067261,
                0.4682158827781677,
                0.1893617957830429
              ],
              [
                0.022732771933078766,
                0.47594019770622253,
                -0.02394278347492218
              ],
              [
                -0.24417144060134888,
                0.4795963764190674,
                0.09559521079063416
              ]
            ],
            [
              [
                0.6165542006492615,
                0.16202375292778015,
                0.2761306166648865
              ],
              [
                0.3999820053577423,
                0.16596417129039764,
                0.18988867104053497
              ],
              [
                0.01658943109214306,
                0.17460694909095764,
                -0.025226326659321785
              ],
              [
                -0.24961192905902863,
                0.1791064441204071,
                0.10491790622472763
              ]
            ],
            [
              [
                0.6128137707710266,
                -0.129250630736351,
                0.2730400860309601
              ],
              [
                0.3903656601905823,
                -0.12497060000896454,
                0.18837708234786987
              ],
              [
                0.011632653884589672,
                -0.11498482525348663,
                -0.020333455875515938
              ],
              [
                -0.2568780481815338,
                -0.10681157559156418,
                0.1082097589969635
              ]
            ],
            [
              [
                0.6000432968139648,
                -0.44288790225982666,
                0.27126234769821167
              ],
              [
                0.38921797275543213,
                -0.4287619888782501,
                0.17451636493206024
              ],
              [
                0.0031352590303868055,
                -0.4292556941509247,
                -0.03159670531749725
              ],
              [
                -0.26530206203460693,
                -0.4269773066043854,
                0.12395375967025757
              ]
            ],
            [
              [
                0.6062400937080383,
                -0.6834051609039307,
                0.2723846435546875
              ],
              [
                0.37361088395118713,
                -0.6923152804374695,
                0.1728895604610443
              ],
              [
                0.0036964609753340483,
                -0.6845190525054932,
                -0.004628464113920927
              ],
              [
                -0.2705204486846924,
                -0.6620116233825684,
                0.10212044417858124
              ]
            ],
            [
              [
                0.5953286290168762,
                -0.8698931336402893,
                0.2678804397583008
              ],
              [
                0.3821798861026764,
                -0.8800131678581238,
                0.17434924840927124
              ],
              [
                -0.003951303195208311,
                -0.8642578721046448,
                -0.02278389036655426
              ],
              [
                -0.275918573141098,
                -0.8532330393791199,
                0.117416150867939
              ]
            ]
          ],
          "uv_after_footpoint": [
            [
              0.9860531091690063,
              0.8297625184059143
            ],
            [
              0.9947475790977478,
              0.9943370223045349
            ],
            [
              0.7957141995429993,
              0.8265214562416077
            ],
            [
              0.8042206168174744,
              0.9763355851173401
            ],
            [
              0.615667462348938,
              0.8391806483268738
            ],
            [
              0.6274036169052124,
              0.9842225313186646
            ],
            [
              0.42330262064933777,
              0.8321650624275208
            ],
            [
              0.43995827436447144,
              1.0
            ],
            [
              0.22528941929340363,
              0.8091057538986206
            ],
            [
              0.23316322267055511,
              0.9797046780586243
            ],
            [
              0.044880058616399765,
              0.8486367464065552
            ],
            [
              0.07828027009963989,
              1.0
            ],
            [
              0.9697844386100769,
              0.6422342658042908
            ],
            [
              0.9700117111206055,
              0.441929429769516
            ],
            [
              0.8114203214645386,
              0.6296209096908569
            ],
            [
              0.8587092161178589,
              0.45596951246261597
            ],
            [
              0.6174933910369873,
              0.6494053602218628
            ],
            [
              0.6069455742835999,
              0.4617120027542114
            ],
            [
              0.4045120179653168,
              0.6508487462997437
            ],
            [
              0.45706304907798767,
              0.42877134680747986
            ],
            [
              0.237270787358284,
              0.6440209746360779
            ],
            [
              0.25549066066741943,
              0.45299509167671204
            ],
            [
              0.0298618134111166,
              0.6544336080551147
            ],
            [
              0.05173946171998978,
              0.43755385279655457
            ],
            [
              0.9739199876785278,
              0.19758060574531555
            ],
            [
              0.9995658993721008,
              0.004841708578169346
            ],
            [
              0.7751433849334717,
              0.22592003643512726
            ],
            [
              0.803570568561554,
              0.003048308426514268
            ],
            [
              0.603013277053833,
              0.24804970622062683
            ],
            [
              0.6096738576889038,
              0.050323616713285446
            ],
            [
              0.41481539607048035,
              0.33914273977279663
            ],
            [
              0.4344061315059662,
              0.2244531661272049
            ],
            [
              0.4352147877216339,
              0.019468970596790314
            ],
            [
              0.22899824380874634,
              0.22636768221855164
            ],
            [
              0.20601485669612885,
              0.071920245885849
            ],
            [
              0.03999650850892067,
              0.25431713461875916
            ],
            [
              0.0,
              0.045994047075510025
            ]
          ]
        },
        {
          "control_grid_after_lsq": [
            [
              [
                0.6356585621833801,
                0.8946256637573242,
                0.28680822253227234
              ],
              [
                0.39743009209632874,
                0.9342831969261169,
                0.17840319871902466
              ],
              [
                0.037531960755586624,
                0.9253522157669067,
                -0.00922477152198553
              ],
              [
                -0.25173717737197876,
                0.9458422064781189,
                0.025844043120741844
              ]
            ],
            [
              [
                0.6527248620986938,
                0.7122030854225159,
                0.29700860381126404
              ],
              [
                0.4007093608379364,
                0.7282887101173401,
                0.18610051274299622
              ],
              [
                0.04592471197247505,
                0.725243330001831,
                0.008827468380331993
              ],
              [
                -0.22763846814632416,
                0.7529143691062927,
                0.13299912214279175
              ]
            ],
            [
              [
                0.6279246807098389,
                0.46964672207832336,
                0.27774205803871155
              ],
              [
                0.39026692509651184,
                0.46988511085510254,
                0.18553943932056427
              ],
              [
                0.027096489444375038,
                0.4770529568195343,
                -0.02331238053739071
              ],
              [
                -0.24439316987991333,
                0.482031911611557,
                0.09434808790683746
              ]
            ],
            [
              [
                0.6198352575302124,
                0.16406869888305664,
                0.27740606665611267
              ],
              [
                0.39472696185112,
                0.16621051728725433,
                0.1876014620065689
              ],
              [
                0.01924799755215645,
                0.17455141246318817,
                -0.024693688377738
              ],
              [
                -0.2499515265226364,
                0.17991718649864197,
                0.10481862723827362
              ]
            ],
            [
              [
                0.6166743040084839,
                -0.13170860707759857,
                0.27450796961784363
              ],
              [
                0.38432013988494873,
                -0.12458153814077377,
                0.18634353578090668
              ],
              [
                0.015227141790091991,
                -0.11544018238782883,
                -0.019868530333042145
              ],
              [
                -0.2576516568660736,
                -0.10909628123044968,
                0.10831531882286072
              ]
            ],
            [
              [
                0.6019695401191711,
                -0.44045379757881165,
                0.27247822284698486
              ],
              [
                0.37910187244415283,
                -0.43099603056907654,
                0.169454887509346
              ],
              [
                0.006142667960375547,
                -0.4297855496406555,
                -0.03176962211728096
              ],
              [
                -0.26317688822746277,
                -0.4229671359062195,
                0.12271337956190109
              ]
            ],
            [
              [
                0.611038327217102,
                -0.6859065294265747,
                0.27394312620162964
              ],
              [
                0.368745893239975,
                -0.686924159526825,
                0.17160546779632568
              ],
              [
                0.009845367632806301,
                -0.6820170283317566,
                -0.0021324767731130123
              ],
              [
                -0.27479711174964905,
                -0.6692402362823486,
                0.10339834541082382
              ]
            ],
            [
              [
                0.5971710085868835,
                -0.8700942397117615,
                0.26862064003944397
              ],
              [
                0.3753185570240021,
                -0.8815963864326477,
                0.17189206182956696
              ],
              [
                0.0002610139490570873,
                -0.8657272458076477,
                -0.023807929828763008
              ],
              [
                -0.2755470871925354,
                -0.8521667718887329,
                0.11713621020317078
              ]
            ]
          ],
          "uv_after_footpoint": [
            [
              0.9858577251434326,
              0.8315311074256897
            ],
            [
              0.9950106143951416,
              0.994507372379303
            ],
            [
              0.7959631681442261,
              0.8280543684959412
            ],
            [
              0.8043064475059509,
              0.9766028523445129
            ],
            [
              0.6154049038887024,
              0.840437650680542
            ],
            [
              0.6272119879722595,
              0.9845209121704102
            ],
            [
              0.4234571158885956,
              0.8331287503242493
            ],
            [
              0.440122127532959,
              1.0
            ],
            [
              0.22517798840999603,
              0.8108415007591248
            ],
            [
              0.23336315155029297,
              0.9804105758666992
            ],
            [
              0.04567183554172516,
              0.8490185141563416
            ],
            [
              0.07836397737264633,
              1.0
            ],
            [
              0.969782292842865,
              0.6438236236572266
            ],
            [
              0.9700953364372253,
              0.43932175636291504
            ],
            [
              0.811800479888916,
              0.6301342248916626
            ],
            [
              0.8599040508270264,
              0.4535154402256012
            ],
            [
              0.6172686815261841,
              0.649944007396698
            ],
            [
              0.6067557334899902,
              0.45848187804222107
            ],
            [
