{
  "patches": [
    {
      "patch_id": 0,
      "fit_point_count": 28,
      "point_weights": [
        22.0,
        40.0,
        28.0,
        24.0,
        27.0,
        22.0,
        22.0,
        24.0,
        12.0,
        9.0,
        13.0,
        12.0,
        27.0,
        24.0,
        26.0,
        18.0,
        37.0,
        21.0,
        7.0,
        6.0,
        5.0,
        8.0,
        31.0,
        26.0,
        24.0,
        28.0,
        28.0,
        29.0
      ],
      "initial_uv": [
        [
          0.025155866518616676,
          0.026978150010108948
        ],
        [
          0.012517656199634075,
          0.2113465517759323
        ],
        [
          0.0,
          0.415508508682251
        ],
        [
          0.017385579645633698,
          0.5880616307258606
        ],
        [
          0.04051018878817558,
          0.8033844828605652
        ],
        [
          0.014548981562256813,
          0.9830808043479919
        ],
        [
          0.20338577032089233,
          0.01598181389272213
        ],
        [
          0.20647671818733215,
          0.21404290199279785
        ],
        [
          0.1408999264240265,
          0.4025484323501587
        ],
        [
          0.1586627960205078,
          0.6168683767318726
        ],
        [
          0.15948250889778137,
          0.7756214141845703
        ],
        [
          0.16833962500095367,
          1.0
        ],
        [
          0.39575326442718506,
          0.0038756257854402065
        ],
        [
          0.39894118905067444,
          0.1784474402666092
        ],
        [
          0.6015897989273071,
          0.030779756605625153
        ],
        [
          0.5670230388641357,
          0.17951799929141998
        ],
        [
          0.7752583622932434,
          0.0
        ],
        [
          0.7976504564285278,
          0.1778126358985901
        ],
        [
          0.8728089928627014,
          0.4143224060535431
        ],
        [
          0.8601266741752625,
          0.6041605472564697
        ],
        [
          0.8688638210296631,
          0.8252089023590088
        ],
        [
          0.8698014616966248,
          0.975080668926239
        ],
        [
          0.9613676071166992,
          0.0059021166525781155
        ],
        [
          0.9985694885253906,
          0.18865421414375305
        ],
        [
          0.9983002543449402,
          0.3812573552131653
        ],
        [
          0.9746772646903992,
          0.5622727274894714
        ],
        [
          0.9815580248832703,
          0.7797409892082214
        ],
        [
          1.0,
          0.9742282629013062
        ]
      ],
      "idw_seed_control_grid": [
        [
          [
            -0.5965171456336975,
            -0.6170868873596191,
            0.0
          ],
          [
            -0.6448907852172852,
            -0.261509507894516,
            0.0
          ],
          [
            -0.6541464924812317,
            0.0512518435716629,
            0.0
          ],
          [
            -0.7105499505996704,
            0.5185463428497314,
            0.0
          ]
        ],
        [
          [
            -0.43803471326828003,
            -0.7186449766159058,
            0.0
          ],
          [
            -0.48952487111091614,
            -0.3675069212913513,
            0.0
          ],
          [
            -0.5739561915397644,
            0.09124298393726349,
            0.0
          ],
          [
            -0.503492534160614,
            0.5244256854057312,
            0.0
          ]
        ],
        [
          [
            -0.16181054711341858,
            -0.8017494678497314,
            0.0
          ],
          [
            -0.2816798686981201,
            -0.4540202021598816,
            0.0
          ],
          [
            -0.2790357172489166,
            0.13656148314476013,
            0.0
          ],
          [
            -0.18605534732341766,
            0.3580973744392395,
            0.0
          ]
        ],
        [
          [
            0.1484701782464981,
            -0.686657726764679,
            0.0
          ],
          [
            0.21843773126602173,
            -0.46538251638412476,
            0.0
          ],
          [
            0.2537407875061035,
            0.1545720100402832,
            0.0
          ],
          [
            0.14309574663639069,
            0.35395169258117676,
            0.0
          ]
        ],
        [
          [
            0.3968968987464905,
            -0.6982913017272949,
            0.0
          ],
          [
            0.5129945278167725,
            -0.31177952885627747,
            0.0
          ],
          [
            0.5450561046600342,
            0.08655957877635956,
            0.0
          ],
          [
            0.4585730731487274,
            0.43174681067466736,
            0.0
          ]
        ],
        [
          [
            0.5897565484046936,
            -0.6070776581764221,
            0.0
          ],
          [
            0.6660333871841431,
            -0.24054980278015137,
            0.0
          ],
          [
            0.6385281085968018,
            0.07836860418319702,
            0.0
          ],
          [
            0.6469916701316833,
            0.5562310814857483,
            0.0
          ]
        ]
      ],
      "rounds": [
        {
          "control_grid_after_lsq": [
            [
              [
                -0.8470461368560791,
                -0.879641592502594,
                0.0
              ],
              [
                -0.8531613349914551,
                -0.4521074891090393,
                0.0
              ],
              [
                -0.8719479441642761,
                0.3416633605957031,
                0.0
              ],
              [
                -0.8796144127845764,
                0.7691217660903931,
                0.0
              ]
            ],
            [
              [
                -0.6274487376213074,
                -0.8768262267112732,
                0.0
              ],
              [
                -0.6334543228149414,
                -0.4328453838825226,
                0.0
              ],
              [
                -0.6492230892181396,
                0.3644144535064697,
                0.0
              ],
              [
                -0.6526422500610352,
                0.7970882654190063,
                0.0
              ]
            ],
            [
              [
                -0.20845270156860352,
                -0.8620200157165527,
                0.0
              ],
              [
                -0.2236173152923584,
                -0.4336271584033966,
                0.0
              ],
              [
                -0.2507747411727905,
                0.23057469725608826,
                0.0
              ],
              [
                -0.26267209649086,
                0.7256470322608948,
                0.0
              ]
            ],
            [
              [
                0.2219846248626709,
                -0.8555686473846436,
                0.0
              ],
              [
                0.22097337245941162,
                -0.4234660565853119,
                0.0
              ],
              [
                0.22032247483730316,
                0.21699611842632294,
                0.0
              ],
              [
                0.2047843635082245,
                0.7327343225479126,
                0.0
              ]
            ],
            [
              [
                0.6420013308525085,
                -0.8474300503730774,
                0.0
              ],
              [
                0.6280360817909241,
                -0.39455318450927734,
                0.0
              ],
              [
                0.6139661073684692,
                0.3518899381160736,
                0.0
              ],
              [
                0.6021811962127686,
                0.8201139569282532,
                0.0
              ]
            ],
            [
              [
                0.8600842356681824,
                -0.8441469073295593,
                0.0
              ],
              [
                0.849971354007721,
                -0.4199634790420532,
                0.0
              ],
              [
                0.8381006121635437,
                0.38207972049713135,
                -0.0
              ],
              [
                0.8267681002616882,
                0.804816484451294,
                0.0
              ]
            ]
          ],
          "uv_after_footpoint": [
            [
              0.02520987018942833,
              0.02914438024163246
            ],
            [
              0.012350357137620449,
              0.2088109403848648
            ],
            [
              0.0003063273034058511,
              0.4145965576171875
            ],
            [
              0.017587237060070038,
              0.5905894637107849
            ],
            [
              0.0400419607758522,
              0.8052929639816284
            ],
            [
              0.014830969274044037,
              0.9817646741867065
            ],
            [
              0.2019767165184021,
              0.01773519068956375
            ],
            [
              0.20555436611175537,
              0.20945623517036438
            ],
            [
              0.13932202756404877,
              0.39857372641563416
            ],
            [
              0.15802115201950073,
              0.624114990234375
            ],
            [
              0.15879008173942566,
              0.7834835052490234
            ],
            [
              0.16694989800453186,
              0.9976735711097717
            ],
            [
              0.39619895815849304,
              0.004428906831890345
            ],
            [
              0.4008587598800659,
              0.1779656559228897
            ],
            [
              0.6007318496704102,
              0.030536096543073654
            ],
            [
              0.5652735233306885,
              0.17971689999103546
            ],
            [
              0.77604740858078,
              0.001308721723034978
            ],
            [
              0.7988052368164062,
              0.17115609347820282
            ],
            [
              0.8749036192893982,
              0.4120144248008728
            ],
            [
              0.8616628646850586,
              0.6179236769676208
            ],
            [
              0.870836079120636,
              0.8358601331710815
            ],
            [
              0.8725219964981079,
              0.9735495448112488
            ],
            [
              0.9615238308906555,
              0.007362804841250181
            ],
            [
              0.9984444379806519,
              0.18634004890918732
            ],
            [
              0.9980862736701965,
              0.3787136971950531
            ],
            [
              0.9748246073722839,
              0.5638535618782043
            ],
            [
              0.9814307689666748,
              0.7823953628540039
            ],
            [
              0.9998319745063782,
              0.9729899168014526
            ]
          ]
        },
        {
          "control_grid_after_lsq": [
            [
              [
                -0.848785936832428,
                -0.8845549821853638,
                0.0
              ],
              [
                -0.852984607219696,
                -0.44514307379722595,
                0.0
              ],
              [
                -0.8734087944030762,
                0.33582010865211487,
                0.0
              ],
              [
                -0.8806828260421753,
                0.7744129300117493,
                0.0
              ]
            ],
            [
              [
                -0.6233693361282349,
                -0.8817635774612427,
                0.0
              ],
              [
                -0.6309226155281067,
                -0.4126036465167999,
                0.0
              ],
              [
                -0.6460697054862976,
                0.3404313027858734,
                0.0
              ],
              [
                -0.649992823600769,
                0.7881546020507812,
                0.0
              ]
            ],
            [
              [
                -0.2107769399881363,
                -0.8628053665161133,
                0.0
              ],
              [
                -0.22770394384860992,
                -0.43109238147735596,
                0.0
              ],
              [
                -0.2506822645664215,
                0.22375288605690002,
                0.0
              ],
              [
                -0.2647706866264343,
                0.7758187651634216,
                0.0
              ]
            ],
            [
              [
                0.2249164581298828,
                -0.8577123880386353,
                0.0
              ],
              [
                0.22481870651245117,
                -0.4169143736362457,
                0.0
              ],
              [
                0.21660040318965912,
                0.20888172090053558,
                0.0
              ],
              [
                0.20323219895362854,
                0.790739119052887,
                0.0
              ]
            ],
            [
              [
                0.6385132670402527,
                -0.8481190204620361,
                0.0
              ],
              [
                0.6241229772567749,
                -0.37422505021095276,
                0.0
              ],
              [
                0.609824538230896,
                0.31669363379478455,
                0.0
              ],
              [
                0.5981996655464172,
                0.8205228447914124,
                0.0
              ]
            ],
            [
              [
                0.8618417382240295,
                -0.8480757474899292,
                0.0
              ],
              [
                0.8494762182235718,
                -0.4112447202205658,
                0.0
              ],
              [
                0.8402709364891052,
                0.3766629695892334,
                -0.0
              ],
              [
                0.8270425796508789,
                0.8075856566429138,
                0.0
              ]
            ]
          ],
          "uv_after_footpoint": [
            [
              0.02552192285656929,
              0.031008882448077202
            ],
            [
              0.01247697975486517,
              0.20737697184085846
            ],
            [
              0.0005197814898565412,
              0.4131816625595093
            ],
            [
              0.01783333346247673,
              0.5919479727745056
            ],
            [
              0.04010500758886337,
              0.8079950213432312
            ],
            [
              0.015171045437455177,
              0.9800717234611511
            ],
            [
              0.20101337134838104,
              0.0190812349319458
            ],
            [
              0.20494399964809418,
              0.20631727576255798
            ],
            [
              0.13849535584449768,
              0.39616677165031433
            ],
            [
              0.1571621596813202,
              0.6286982893943787
            ],
            [
              0.15791186690330505,
              0.7878856658935547
            ],
            [
              0.1661793291568756,
              0.994692325592041
            ],
            [
              0.3967466950416565,
              0.005143555346876383
            ],
            [
              0.401699423789978,
              0.17712406814098358
            ],
            [
              0.5998570322990417,
              0.0310041606426239
            ],
            [
              0.564631462097168,
              0.1785775125026703
            ],
            [
              0.7765734195709229,
              0.0019644065760076046
            ],
            [
              0.7995731830596924,
              0.16765612363815308
            ],
            [
              0.8761817812919617,
              0.4108690619468689
            ],
            [
              0.8633168935775757,
              0.6248542070388794
            ],
            [
              0.8724607825279236,
              0.8397866487503052
            ],
            [
              0.8739942312240601,
              0.9708836674690247
            ],
            [
              0.961399495601654,
              0.008816767483949661
            ],
            [
              0.9981176853179932,
              0.1846371442079544
            ],
            [
              0.9978659152984619,
              0.3762878179550171
            ],
            [
              0.9747617244720459,
              0.5654177665710449
            ],
            [
              0.9811776876449585,
              0.7847169041633606
            ],
            [
              0.9995473623275757,
              0.9718628525733948
            ]
          ]
        }
      ],
      "final_control_grid": [
        [
          [
            -0.848785936832428,
            -0.8845549821853638,
            0.0
          ],
          [
            -0.852984607219696,
            -0.44514307379722595,
            0.0
          ],
          [
            -0.8734087944030762,
            0.33582010865211487,
            0.0
          ],
          [
            -0.8806828260421753,
            0.7744129300117493,
            0.0
          ]
        ],
        [
          [
            -0.6233693361282349,
            -0.8817635774612427,
            0.0
          ],
          [
            -0.6309226155281067,
            -0.4126036465167999,
            0.0
          ],
          [
            -0.6460697054862976,
            0.3404313027858734,
            0.0
          ],
          [
            -0.649992823600769,
            0.7881546020507812,
            0.0
          ]
        ],
        [
          [
            -0.2107769399881363,
            -0.8628053665161133,
            0.0
          ],
          [
            -0.22770394384860992,
            -0.43109238147735596,
            0.0
          ],
          [
            -0.2506822645664215,
            0.22375288605690002,
            0.0
          ],
          [
            -0.2647706866264343,
            0.7758187651634216,
            0.0
          ]
        ],
        [
          [
            0.2249164581298828,
            -0.8577123880386353,
            0.0
          ],
          [
            0.22481870651245117,
            -0.4169143736362457,
            0.0
          ],
          [
            0.21660040318965912,
            0.20888172090053558,
            0.0
          ],
          [
            0.20323219895362854,
            0.790739119052887,
            0.0
          ]
        ],
        [
          [
            0.6385132670402527,
            -0.8481190204620361,
            0.0
          ],
          [
            0.6241229772567749,
            -0.37422505021095276,
            0.0
          ],
          [
            0.609824538230896,
            0.31669363379478455,
            0.0
          ],
          [
            0.5981996655464172,
            0.8205228447914124,
            0.0
          ]
        ],
        [
          [
            0.8618417382240295,
            -0.8480757474899292,
            0.0
          ],
          [
            0.8494762182235718,
            -0.4112447202205658,
            0.0
          ],
          [
            0.8402709364891052,
            0.3766629695892334,
            -0.0
          ],
          [
            0.8270425796508789,
            0.8075856566429138,
            0.0
          ]
        ]
      ],
      "final_weights": [
        [
          1.0,
          1.0,
          1.0,
          1.0
        ],
        [
          1.0,
          1.0,
          1.0,
          1.0
        ],
        [
          1.0,
          1.0,
          1.0,
          1.0
        ],
        [
          1.0,
          1.0,
          1.0,
          1.0
        ],
        [
          1.0,
          1.0,
          1.0,
          1.0
        ],
        [
          1.0,
          1.0,
          1.0,
          1.0
        ]
      ],
      "final_gaussian_indices": [
        0,
        1,
        2,
        3,
        4,
        5,
        6,
        7,
        8,
        9,
        10,
        11,
        12,
        13,
        14,
        15,
        16,
        17,
        18,
        19,
        20,
        21,
        22,
        23,
        24,
        25,
        26,
        27,
        28,
        29,
        30,
        31,
        32,
        33,
        34,
        35,
        36,
        37,
        38,
        39,
        40,
        41,
        42,
        43,
        44,
        45,
        46,
        47,
        48,
        49,
        50,
        51,
        52,
        53,
        54,
        55,
        56,
        57,
        58,
        59,
        60,
        61,
        62,
        63,
        64,
        65,
        66,
        67,
        68,
        69,
        70,
        71,
        72,
        73,
        74,
        75,
        76,
        77,
        78,
        79,
        80,
        81,
        82,
        83,
        84,
        85,
        86,
        87,
        88,
        89,
        90,
        91,
        92,
        93,
        94,
        95,
        96,
        97,
        98,
        99,
        100,
        101,
        102,
        103,
        104,
        105,
        106,
        107,
        108,
        109,
        110,
        111,
        112,
        113,
        114,
        115,
        116,
        117,
        118,
        119,
        120,
        121,
        122,
        123,
        124,
        125,
        126,
        127,
        128,
        129,
        130,
        131,
        132,
        133,
        134,
        135,
        136,
        137,
        138,
        139,
        140,
        141,
        142,
        143,
        144,
        145,
        146,
        147,
        148,
        149,
        150,
        151,
        152,
        153,
        154,
        155,
        156,
        157,
        158,
        159,
        160,
        161,
        162,
        163,
        164,
        165,
        166,
        167,
        168,
        169,
        170,
        171,
        172,
        173,
        174,
        175,
        176,
        177,
        178,
        179,
        180,
        181,
        182,
        183,
        184,
        185,
        186,
        187,
        188,
        189,
        190,
        191,
        192,
        193,
        194,
        195,
        196,
        197,
        198,
        199,
        200,
        201,
        202,
        203,
        204,
        205,
        206,
        207,
        208,
        209,
        210,
        211,
        212,
        213,
        214,
        215,
        216,
        217,
        218,
        219,
        220,
        221,
        222,
        223,
        224,
        225,
        226,
        227,
        228,
        229,
        230,
        231,
        232,
        233,
        234,
        235,
        236,
        237,
        238,
        239,
        240,
        241,
        242,
        243,
        244,
        245,
        246,
        247,
        248,
        249,
        250,
        251,
        252,
        253,
        254,
        255,
        256,
        257,
        258,
        259,
        260,
        261,
        262,
        263,
        264,
        265,
        266,
        267,
        268,
        269,
        270,
        271,
        272,
        273,
        274,
        275,
        276,
        277,
        278,
        279,
        280,
        281,
        282,
        283,
        284,
        285,
        286,
        287,
        288,
        289,
        290,
        291,
        292,
        293,
        294,
        295,
        296,
        297,
        298,
        299,
        300,
        301,
        302,
        303,
        304,
        305,
        306,
        307,
        308,
        309,
        310,
        311,
        312,
        313,
        314,
        315,
        316,
        317,
        318,
        319,
        320,
        321,
        322,
        323,
        324,
        325,
        326,
        327,
        328,
        329,
        330,
        331,
        332,
        333,
        334,
        335,
        336,
        337,
        338,
        339,
        340,
        341,
        342,
        343,
        344,
        345,
        346,
        347,
        348,
        349,
        350,
        351,
        352,
        353,
        354,
        355,
        356,
        357,
        358,
        359,
        360,
        361,
        362,
        363,
        364,
        365,
        366,
        367,
        368,
        369,
        370,
        371,
        372,
        373,
        374,
        375,
        376,
        377,
        378,
        379,
        380,
        381,
        382,
        383,
        384,
        385,
        386,
        387,
        388,
        389,
        390,
        391,
        392,
        393,
        394,
        395,
        396,
        397,
        398,
        399,
        400,
        401,
        402,
        403,
        404,
        405,
        406,
        407,
        408,
        409,
        410,
        411,
        412,
        413,
        414,
        415,
        416,
        417,
        418,
        419,
        420,
        421,
        422,
        423,
        424,
        425,
        426,
        427,
        428,
        429,
        430,
        431,
        432,
        433,
        434,
        435,
        436,
        437,
        438,
        439,
        440,
        441,
        442,
        443,
        444,
        445,
        446,
        447,
        448,
        449,
        450,
        451,
        452,
        453,
        454,
        455,
        456,
        457,
        458,
        459,
        460,
        461,
        462,
        463,
        464,
        465,
        466,
        467,
        468,
        469,
        470,
        471,
        472,
        473,
        474,
        475,
        476,
        477,
        478,
        479,
        480,
        481,
        482,
        483,
        484,
        485,
        486,
        487,
        488,
        489,
        490,
        491,
        492,
        493,
        494,
        495,
        496,
        497,
        498,
        499,
        500,
        501,
        502,
        503,
        504,
        505,
        506,
        507,
        508,
        509,
        510,
        511,
        512,
        513,
        514,
        515,
        516,
        517,
        518,
        519,
        520,
        521,
        522,
        523,
        524,
        525,
        526,
        527,
        528,
        529,
        530,
        531,
        532,
        533,
        534,
        535,
        536,
        537,
        538,
        539,
        540,
        541,
        542,
        543,
        544,
        545,
        546,
        547,
        548,
        549,
        550,
        551,
        552,
        553,
        554,
        555,
        556,
        557,
        558,
        559,
        560,
        561,
        562,
        563,
        564,
        565,
        566,
        567,
        568,
        569,
        570,
        571,
        572,
        573,
        574,
        575,
        576,
        577,
        578,
        579,
        580,
        581,
        582,
        583,
        584,
        585,
        586,
        587,
        588,
        589,
        590,
        591,
        592,
        593,
        594,
        595,
        596,
        597,
        598,
        599
      ],
      "final_gaussian_uv": [
        [
          0.015262870118021965,
          0.08456234633922577
        ],
        [
          0.0,
          0.13250234723091125
        ],
        [
          0.10074912756681442,
          0.25585368275642395
        ],
        [
          0.13128259778022766,
          0.36749371886253357
        ],
        [
          0.11781749129295349,
          0.24030855298042297
        ],
        [
          0.08399468660354614,
          0.0
        ],
        [
          0.17112085223197937,
          1.0
        ],
        [
          0.5294889807701111,
          0.21025176346302032
        ],
        [
          0.5933306217193604,
          0.0
        ],
        [
          0.07412074506282806,
          0.2094404548406601
        ],
        [
          0.8863199353218079,
          0.8801788091659546
        ],
        [
          0.8950396180152893,
          0.14650873839855194
        ],
        [
          0.604435920715332,
          0.04723512753844261
        ],
        [
          0.09109271317720413,
          0.20793268084526062
        ],
        [
          0.1605566442012787,
          0.7267650961875916
        ],
        [
          0.04819942265748978,
          0.30063292384147644
        ],
        [
          1.0,
          1.0
        ],
        [
          0.6112680435180664,
          0.0
        ],
        [
          0.550845742225647,
          0.13836432993412018
        ],
        [
          0.0,
          1.0
        ],
        [
          0.9405122399330139,
          0.0
        ],
        [
          0.4075189530849457,
          0.2475808560848236
        ],
        [
          0.7236892580986023,
          0.15043191611766815
        ],
        [
          0.9321580529212952,
          0.7528929114341736
        ],
        [
          0.0,
          0.14210954308509827
        ],
        [
          0.040744323283433914,
          0.17605015635490417
        ],
        [
          1.0,
          0.9198088049888611
        ],
        [
          0.0,
          0.5274086594581604
        ],
        [
          0.05441118776798248,
          0.06260416656732559
        ],
        [
          0.8997858762741089,
          0.003054473316296935
        ],
        [
          0.0,
          0.17370104789733887
        ],
        [
          0.3569444417953491,
          0.227997824549675
        ],
        [
          0.2914586365222931,
          0.02811376005411148
        ],
        [
          0.121019646525383,
          0.49841809272766113
        ],
        [
          0.9271589517593384,
          0.44863274693489075
        ],
        [
          1.0,
          0.8954015970230103
        ],
        [
          1.0,
          0.46380454301834106
        ],
        [
          0.0,
          0.24239912629127502
        ],
        [
          0.9080641865730286,
          0.5156281590461731
        ],
        [
          0.20348048210144043,
          0.06071038916707039
        ],
        [
          0.0,
          0.02367936260998249
        ],
        [
          0.8136640787124634,
          0.0
        ],
        [
          0.8650145530700684,
          0.03663652390241623
        ],
        [
          0.0,
          0.012355083599686623
        ],
        [
          0.0,
          0.49356940388679504
        ],
        [
          1.0,
          0.25949355959892273
        ],
        [
          1.0,
          0.7304123044013977
        ],
        [
          0.0,
          0.9191902279853821
        ],
        [
          0.9656524658203125,
          0.02254120260477066
        ],
        [
          0.9300302863121033,
          0.6960142850875854
        ],
        [
          0.028878886252641678,
          0.8643337488174438
        ],
        [
          0.9798910021781921,
          0.9285730123519897
        ],
        [
          0.09080550819635391,
          0.5604476928710938
        ],
        [
          0.08390713483095169,
          0.18832743167877197
        ],
        [
          0.16681934893131256,
          0.7512528300285339
        ],
        [
          0.15439094603061676,
          0.5201221108436584
        ],
        [
          0.053482815623283386,
          0.11101432889699936
        ],
        [
          0.1716352254152298,
          0.9550215601921082
        ],
        [
          0.040019840002059937,
          0.20657747983932495
        ],
        [
          0.9700273275375366,
          0.02062804065644741
        ],
        [
          0.004953557625412941,
          0.8378422260284424
        ],
        [
          0.0825890302658081,
          0.34933528304100037
        ],
        [
          0.8601129055023193,
          0.1213257759809494
        ],
        [
          0.7616411447525024,
          0.08117174357175827
        ],
        [
          0.7983947992324829,
          0.0
        ],
        [
          0.9217079281806946,
          0.011926901526749134
        ],
        [
          0.9877864718437195,
          0.32801660895347595
        ],
        [
          0.15102963149547577,
          0.2946690022945404
        ],
        [
          0.0,
          0.8150712251663208
        ],
        [
          0.21498101949691772,
          0.11695154011249542
        ],
        [
          0.17324396967887878,
          0.8864181041717529
        ],
        [
          0.9899668097496033,
          0.6819806694984436
        ],
        [
          0.22226181626319885,
          0.23428784310817719
        ],
        [
          0.0,
          0.6721637845039368
        ],
        [
          0.16382192075252533,
          0.0
        ],
        [
          1.0,
          0.11565954983234406
        ],
        [
          0.5161423087120056,
          0.11030223965644836
        ],
        [
          0.039881959557533264,
          1.0
        ],
        [
          0.15092833340168,
          0.7475266456604004
        ],
        [
          0.36954280734062195,
          0.14701800048351288
        ],
        [
          0.9049214720726013,
          0.05775994434952736
        ],
        [
          0.6105048060417175,
          0.06623063236474991
        ],
        [
          0.02289031632244587,
          0.4345818758010864
        ],
        [
          0.044989340007305145,
          0.5822399258613586
        ],
        [
          0.8552883267402649,
          0.6180942058563232
        ],
        [
          0.7753276824951172,
          0.2108922004699707
        ],
        [
          0.011306634172797203,
          0.013805296272039413
        ],
        [
          1.0,
          0.8935032486915588
        ],
        [
          0.10295265167951584,
          0.7759084105491638
        ],
        [
          1.0,
          0.9818416833877563
        ],
        [
          0.9929451942443848,
          0.8554209470748901
        ],
        [
          0.16036349534988403,
          1.0
        ],
        [
          0.1397857367992401,
          0.7155181169509888
        ],
        [
          0.09698670357465744,
          0.6751672029495239
        ],
        [
          0.09616173803806305,
          0.0
        ],
        [
          0.04275108501315117,
          1.0
        ],
        [
          0.9653017520904541,
          0.0
        ],
        [
          0.10142013430595398,
          0.42603302001953125
        ],
        [
          0.13024839758872986,
          0.951196551322937
        ],
        [
          0.055262546986341476,
          0.22700148820877075
        ],
        [
          0.0,
          0.18864528834819794
        ],
        [
          0.9976873397827148,
          1.0
        ],
        [
          0.9376007914543152,
          0.9783113598823547
        ],
        [
          1.0,
          0.35197773575782776
        ],
        [
          0.16642846167087555,
          0.17943456768989563
        ],
        [
          0.06062503531575203,
          0.9385480880737305
        ],
        [
          0.9242420196533203,
          0.44151514768600464
        ],
        [
          0.17348963022232056,
          0.9941704273223877
        ],
        [
          0.8849470019340515,
          0.5735723376274109
        ],
        [
          0.737075686454773,
          0.05249017849564552
        ],
        [
          1.0,
          0.9738085865974426
        ],
        [
          0.16913706064224243,
          0.43082284927368164
        ],
        [
          1.0,
          0.5368663668632507
        ],
        [
          0.08492647111415863,
          0.31810125708580017
        ],
        [
          0.5289995670318604,
          0.1440361738204956
        ],
        [
          0.787943959236145,
          0.0
        ],
        [
          0.39418262243270874,
          0.07021984457969666
        ],
        [
          0.09179364889860153,
          0.7637832164764404
        ],
        [
          1.0,
          0.5520616769790649
        ],
        [
          0.10830456763505936,
          0.3024372458457947
        ],
        [
          0.623289942741394,
          0.05429615452885628
        ],
        [
          0.7884302139282227,
          0.0
        ],
        [
          0.0,
          1.0
        ],
        [
          0.521774172782898,
          0.0
        ],
        [
          0.9971578121185303,
          0.8419933915138245
        ],
        [
          1.0,
          0.8142469525337219
        ],
        [
          0.12507079541683197,
          1.0
        ],
        [
          0.03138187527656555,
          0.3503829836845398
        ],
        [
          0.0,
          0.29880139231681824
        ],
        [
          0.6216133832931519,
          0.041109614074230194
        ],
        [
          0.577744722366333,
          0.11096084862947464
        ],
        [
          0.04617198184132576,
          0.3362879157066345
        ],
        [
          0.8450033068656921,
          0.4495546817779541
        ],
        [
          0.700146496295929,
          0.0
        ],
        [
          0.011521782726049423,
          0.8205358982086182
        ],
        [
          0.17820817232131958,
          0.8338078260421753
        ],
        [
          0.08389981836080551,
          0.22088715434074402
        ],
        [
          0.02890186570584774,
          0.8525924682617188
        ],
        [
          0.8788502812385559,
          0.8628990650177002
        ],
        [
          0.7902505397796631,
          0.08369883894920349
        ],
        [
          0.9962792992591858,
          0.4423665404319763
        ],
        [
          0.008472283370792866,
          0.19910749793052673
        ],
        [
          0.0,
          0.961889386177063
        ],
        [
          0.9958698749542236,
          0.1797977238893509
        ],
        [
          0.8478310108184814,
          0.45837587118148804
        ],
        [
          0.7020610570907593,
          0.07368077337741852
        ],
        [
          0.15266314148902893,
          0.21129386126995087
        ],
        [
          1.0,
          0.34487828612327576
        ],
        [
          0.4988081753253937,
          0.2293563187122345
        ],
        [
          0.053467150777578354,
          0.04046099632978439
        ],
        [
          0.05990390479564667,
          0.5285378694534302
        ],
        [
          0.3511493504047394,
          0.12389031797647476
        ],
        [
          0.3693559765815735,
          0.2298191487789154
        ],
        [
          0.10787897557020187,
          0.5621645450592041
        ],
        [
          1.0,
          0.12933263182640076
        ],
        [
          0.8823055624961853,
          0.5562406778335571
        ],
        [
          0.0,
          0.17568932473659515
        ],
        [
          0.9715834856033325,
          0.8235735297203064
        ],
        [
          1.0,
          0.8648484349250793
        ],
        [
          0.32218313217163086,
          0.11871719360351562
        ],
        [
          0.29801490902900696,
          0.0
        ],
        [
          0.330239862203598,
          0.022170595824718475
        ],
        [
          0.0,
          0.6920521855354309
        ],
        [
          0.45754557847976685,
          0.21672073006629944
        ],
        [
          0.9820582270622253,
          0.981305718421936
        ],
        [
          0.40885627269744873,
          0.0
        ],
        [
          0.006906282156705856,
          0.2977604269981384
        ],
        [
          0.24918515980243683,
          0.24368147552013397
        ],
        [
          0.8101471066474915,
          0.22332863509655
        ],
        [
          0.4417124390602112,
          0.04815870150923729
        ],
        [
          0.9899008274078369,
          0.23775017261505127
        ],
        [
          1.0,
          0.5949748754501343
        ],
        [
          0.6329343318939209,
          0.0
        ],
        [
          0.3329795002937317,
          0.10804004967212677
        ],
        [
          1.0,
          0.4071143567562103
        ],
        [
          0.0,
          0.49716711044311523
        ],
        [
          0.880401611328125,
          0.6926879286766052
        ],
        [
          0.2605697214603424,
          0.0
        ],
        [
          0.06761356443166733,
          0.8000194430351257
        ],
        [
          0.15883152186870575,
          0.6283257603645325
        ],
        [
          0.17217066884040833,
          1.0
        ],
        [
          0.03551065921783447,
          0.37925583124160767
        ],
        [
          0.9902125597000122,
          0.0918911024928093
        ],
        [
          0.008290886878967285,
          0.2530452609062195
        ],
        [
          0.9295823574066162,
          0.04082704707980156
        ],
        [
          0.0,
          0.4493924677371979
        ],
        [
          0.9075220227241516,
          0.34028342366218567
        ],
        [
          1.0,
          0.10599106550216675
        ],
        [
          0.4046247601509094,
          0.02000512182712555
        ],
        [
          0.7339303493499756,
          0.13508792221546173
        ],
        [
          0.5453571081161499,
          0.0
        ],
        [
          0.9109859466552734,
          0.05946866422891617
        ],
        [
          0.0,
          0.6777197122573853
        ],
        [
          0.13057774305343628,
          0.46107348799705505
        ],
        [
          0.42879825830459595,
          0.23642614483833313
        ],
        [
          0.0,
          0.0
        ],
        [
          1.0,
          0.3581453859806061
        ],
        [
          0.9182833433151245,
          1.0
        ],
        [
          0.9731128215789795,
          0.0608704574406147
        ],
        [
          0.4077298045158386,
          0.16208034753799438
        ],
        [
          0.17249535024166107,
          0.6885464191436768
        ],
        [
          1.0,
          0.026873435825109482
        ],
        [
          0.8578537702560425,
          0.1879590004682541
        ],
        [
          0.1023775041103363,
          1.0
        ],
        [
          0.423295795917511,
          0.07669902592897415
        ],
        [
          0.667625367641449,
          0.08279869705438614
        ],
        [
          0.04060131311416626,
          0.5711581707000732
        ],
        [
          0.9688509106636047,
          0.33300498127937317
        ],
        [
          0.8917481899261475,
          0.18422047793865204
        ],
        [
          0.03381022810935974,
          0.5328382849693298
        ],
        [
          0.9592764973640442,
          1.0
        ],
        [
          0.2535361647605896,
          0.1007821187376976
        ],
        [
          0.7077917456626892,
          0.08722985535860062
        ],
        [
          0.05096077546477318,
          0.3459562063217163
        ],
        [
          0.6873778104782104,
          0.0
        ],
        [
          0.8650213479995728,
          0.1182316392660141
        ],
        [
          1.0,
          0.1428571492433548
        ],
        [
          0.0,
          0.9081117510795593
        ],
        [
          0.17421498894691467,
          0.2643011510372162
        ],
        [
          0.322922945022583,
          0.0
        ],
        [
          1.0,
          0.6680647134780884
        ],
        [
          0.12014845758676529,
          0.10435916483402252
        ],
        [
          0.9659050703048706,
          0.08312824368476868
        ],
        [
          1.0,
          0.16140636801719666
        ],
        [
          0.6546697020530701,
          0.09250541776418686
        ],
        [
          1.0,
          0.3250563442707062
        ],
        [
          0.8787262439727783,
          0.38554537296295166
        ],
        [
          0.02005974017083645,
          0.7833369970321655
        ],
        [
          0.25254443287849426,
          0.1977180540561676
        ],
        [
          0.7522341012954712,
          0.0
        ],
        [
          0.5095438957214355,
          0.24524353444576263
        ],
        [
          0.8838751912117004,
          0.0
        ],
        [
          1.0,
          0.2517356872558594
        ],
        [
          0.0,
          0.5714285373687744
        ],
        [
          0.1553979218006134,
          0.4928637444972992
        ],
        [
          0.25906795263290405,
          0.0
        ],
        [
          0.8576177954673767,
          0.8564422130584717
        ],
        [
          0.8248528838157654,
          0.030511267483234406
        ],
        [
          0.1871861070394516,
          1.0
        ],
        [
          0.0,
          0.4952507019042969
        ],
        [
          1.0,
          0.918927788734436
        ],
        [
          0.9195865392684937,
          0.4317169785499573
        ],
        [
          0.045063141733407974,
          0.2979758381843567
        ],
        [
          0.4361947774887085,
          0.19421759247779846
        ],
        [
          1.0,
          0.7336558103561401
        ],
        [
          0.0,
          0.09202226996421814
        ],
        [
          0.7818730473518372,
          0.0
        ],
        [
          0.0,
          0.9084509015083313
        ],
        [
          0.8725693821907043,
          0.0
        ],
        [
          0.7191547751426697,
          0.04083967208862305
        ],
        [
          0.9546875953674316,
          0.7131374478340149
        ],
        [
          0.0,
          0.9461392760276794
        ],
        [
          1.0,
          0.883759081363678
        ],
        [
          0.8879740238189697,
          0.0037032694090157747
        ],
        [
          0.9203444719314575,
          0.0
        ],
        [
          0.6268836855888367,
          0.11768565326929092
        ],
        [
          0.14200536906719208,
          0.2795430123806
        ],
        [
          0.017891161143779755,
          0.0480518713593483
        ],
        [
          0.8662471175193787,
          0.839523196220398
        ],
        [
          0.575130820274353,
          0.18711327016353607
        ],
        [
          0.08748427033424377,
          0.6681864261627197
        ],
        [
          0.0,
          0.6199714541435242
        ],
        [
          0.9422016143798828,
          0.13612781465053558
        ],
        [
          1.0,
          0.9042170643806458
        ],
        [
          0.17601564526557922,
          0.5937768816947937
        ],
        [
          0.0,
          0.868423342704773
        ],
        [
          0.3240504264831543,
          0.0
        ],
        [
          0.6267507672309875,
          0.1858108788728714
        ],
        [
          0.5792759656906128,
          0.12295741587877274
        ],
        [
          0.061942603439092636,
          0.47647732496261597
        ],
        [
          0.9066172242164612,
          0.5570210218429565
        ],
        [
          0.44811055064201355,
          0.047512028366327286
        ],
        [
          0.4927692413330078,
          0.01749320887029171
        ],
        [
          0.08821040391921997,
          0.11652252078056335
        ],
        [
          0.797234058380127,
          0.09013789147138596
        ],
        [
          1.0,
          0.4647098779678345
        ],
        [
          0.16868041455745697,
          0.7188009023666382
        ],
        [
          0.8352875113487244,
          0.12595058977603912
        ],
        [
          0.1693558245897293,
          0.8104801774024963
        ],
        [
          0.4545454680919647,
          0.0
        ],
        [
          0.1712208241224289,
          0.7894229292869568
        ],
        [
          0.9713728427886963,
          0.6062223315238953
        ],
        [
          0.053517311811447144,
          0.37889835238456726
        ],
        [
          0.0252840556204319,
          0.9063782095909119
        ],
        [
          0.3509614169597626,
          0.17392361164093018
        ],
        [
          0.9194333553314209,
          0.7805420756340027
        ],
        [
          0.0,
          0.9208281636238098
        ],
        [
          0.8907101154327393,
          0.9563475251197815
        ],
        [
          0.0,
          0.47789350152015686
        ],
        [
          0.9908057451248169,
          0.7521613836288452
        ],
        [
          0.9959017634391785,
          0.297674298286438
        ],
        [
          0.19088982045650482,
          1.0
        ],
        [
          0.25344783067703247,
          0.13157032430171967
        ],
        [
          0.4270380139350891,
          0.0
        ],
        [
          0.7910963296890259,
          0.12146637588739395
        ],
        [
          0.0,
          0.39114415645599365
        ],
        [
          0.9854857325553894,
          0.575734555721283
        ],
        [
          0.7222236394882202,
          0.06792870908975601
        ],
        [
          0.46378758549690247,
          0.1393599808216095
        ],
        [
          0.5075660347938538,
          0.0
        ],
        [
          0.97762131690979,
          0.959389865398407
        ],
        [
          0.11153309792280197,
          0.8196172714233398
        ],
        [
          0.036146990954875946,
          0.01810188964009285
        ],
        [
          0.21880903840065002,
          0.0
        ],
        [
          0.5701839923858643,
          0.08038395643234253
        ],
        [
          0.0,
          0.2948896288871765
        ],
        [
          0.40187278389930725,
          0.0
        ],
        [
          0.11300946027040482,
          0.574760913848877
        ],
        [
          0.0,
          0.45020169019699097
        ],
        [
          0.11672006547451019,
          0.10446828603744507
        ],
        [
          0.7273572683334351,
          0.046870987862348557
        ],
        [
          0.06634513288736343,
          0.8803410530090332
        ],
        [
          0.34698978066444397,
          0.23043569922447205
        ],
        [
          0.9418489933013916,
          0.0
        ],
        [
          0.17487989366054535,
          0.21074195206165314
        ],
        [
          0.7797992825508118,
          0.0
        ],
        [
          0.6341696381568909,
          0.04712512344121933
        ],
        [
          0.7892107963562012,
          0.0
        ],
        [
          0.8577362895011902,
          0.0
        ],
        [
          0.013572290539741516,
          0.5431675314903259
        ],
        [
          0.9582749605178833,
          0.0
        ],
        [
          0.0,
          0.3430793583393097
        ],
        [
          0.7410426735877991,
          0.06906646490097046
        ],
        [
          0.25883111357688904,
          0.1739511340856552
        ],
        [
          0.0755232572555542,
          0.09521869570016861
        ],
        [
          0.3604142963886261,
          0.15324710309505463
        ],
        [
          0.9678387641906738,
          0.0
        ],
        [
          0.12004299461841583,
          0.03676990047097206
        ],
        [
          1.0,
          0.0
        ],
        [
          0.482422411441803,
          0.11156968027353287
        ],
        [
          0.8931490778923035,
          0.294814795255661
        ],
        [
          0.11058482527732849,
          0.268758088350296
        ],
        [
          0.44798871874809265,
          0.11738226562738419
        ],
        [
          0.23819339275360107,
          0.1847846955060959
        ],
        [
          0.7355201840400696,
          0.0
        ],
        [
          0.14274197816848755,
          0.6919666528701782
        ],
        [
          0.9421455264091492,
          0.6104727983474731
        ],
        [
          0.11120089888572693,
          0.8444367051124573
        ],
        [
          0.8320653438568115,
          0.13696035742759705
        ],
        [
          0.7908442616462708,
          0.037259310483932495
        ],
        [
          0.8677860498428345,
          0.0
        ],
        [
          0.024228155612945557,
          0.8097361326217651
        ],
        [
          0.7063202857971191,
          0.0
        ],
        [
          0.1656065285205841,
          0.0
        ],
        [
          0.07832054793834686,
          0.2474868893623352
        ],
        [
          0.9890324473381042,
          0.3857748508453369
        ],
        [
          0.7640337944030762,
          0.0
        ],
        [
          0.9491453766822815,
          0.0
        ],
        [
          0.8803277015686035,
          1.0
        ],
        [
          0.0,
          0.6031362414360046
        ],
        [
          0.997273325920105,
          0.06948338449001312
        ],
        [
          0.9963140487670898,
          1.0
        ],
        [
          0.0,
          0.20369768142700195
        ],
        [
          1.0,
          0.7977588772773743
        ],
        [
          0.8950858116149902,
          0.9301567077636719
        ],
        [
          0.06469577550888062,
          0.4563833773136139
        ],
        [
          0.34241703152656555,
          0.09989062696695328
        ],
        [
          0.9147235155105591,
          0.927431046962738
        ],
        [
          0.06251899152994156,
          0.026503104716539383
        ],
        [
          0.9637569785118103,
          0.026689860969781876
        ],
        [
          0.9110273718833923,
          0.7949903011322021
        ],
        [
          0.2271343469619751,
          0.08983727544546127
        ],
        [
          0.0,
          0.5674244165420532
        ],
        [
          1.0,
          0.3917815089225769
        ],
        [
          0.47352129220962524,
          0.07863150537014008
        ],
        [
          0.0,
          0.10864908993244171
        ],
        [
          0.9445334076881409,
          0.667506992816925
        ],
        [
          0.41063082218170166,
          0.09634953737258911
        ],
        [
          0.0,
          0.9346319437026978
        ],
        [
          0.35127124190330505,
          0.19103673100471497
        ],
        [
          0.32282617688179016,
          0.005065805744379759
        ],
        [
          0.9508204460144043,
          0.7705869078636169
        ],
        [
          0.13776524364948273,
          0.6930716037750244
        ],
        [
          1.0,
          0.018048474565148354
        ],
        [
          0.1427394300699234,
          0.8595485091209412
        ],
        [
          0.04992971196770668,
          1.0
        ],
        [
          0.17744489014148712,
          0.9222526550292969
        ],
        [
          0.0,
          0.4285714626312256
        ],
        [
          1.0,
          0.1208575889468193
        ],
        [
          1.0,
          1.0
        ],
        [
          0.14925195276737213,
          0.9630499482154846
        ],
        [
          0.8547804951667786,
          1.0
        ],
        [
          0.9631175994873047,
          0.11292499303817749
        ],
        [
          0.5471863150596619,
          0.09822414070367813
        ],
        [
          0.0,
          0.7678406238555908
        ],
        [
          0.9024364948272705,
          0.24866342544555664
        ],
        [
          0.7060568928718567,
          0.1768960803747177
        ],
        [
          0.9303576946258545,
          1.0
        ],
        [
          1.0,
          0.5381523370742798
        ],
        [
          0.8421844840049744,
          0.0
        ],
        [
          0.16258390247821808,
          0.6509994864463806
        ],
        [
          0.4999920725822449,
          0.04359177127480507
        ],
        [
          0.24103282392024994,
          0.23681001365184784
        ],
        [
          0.0,
          0.599705159664154
        ],
        [
          0.9131530523300171,
          0.7746684551239014
        ],
        [
          0.2142992466688156,
          0.0
        ],
        [
          0.03255978599190712,
          0.544498860836029
        ],
        [
          0.9076425433158875,
          0.25640422105789185
        ],
        [
          0.17845524847507477,
          0.19565321505069733
        ],
        [
          0.4446650743484497,
          0.0
        ],
        [
          0.3394695520401001,
          0.0
        ],
        [
          0.49157974123954773,
          0.0
        ],
        [
          0.9442857503890991,
          0.997726559638977
        ],
        [
          0.9050845503807068,
          0.30379751324653625
        ],
        [
          0.8033493757247925,
          0.0
        ],
        [
          0.32573941349983215,
          0.0
        ],
        [
          0.40040913224220276,
          0.009137340821325779
        ],
        [
          0.8576069474220276,
          0.8549780249595642
        ],
        [
          1.0,
          0.30525946617126465
        ],
        [
          0.1901310533285141,
          0.014022369869053364
        ],
        [
          0.0,
          0.2380424290895462
        ],
        [
          1.0,
          0.7194463610649109
        ],
        [
          1.0,
          0.9622833132743835
        ],
        [
          0.5068930387496948,
          0.14312613010406494
        ],
        [
          1.0,
          1.0
        ],
        [
          0.7537808418273926,
          0.17604359984397888
        ],
        [
          0.9693425297737122,
          0.5719860792160034
        ],
        [
          0.9015787243843079,
          0.7831037044525146
        ],
        [
          0.809108555316925,
          0.0
        ],
        [
          0.18672944605350494,
          0.9010656476020813
        ],
        [
          0.3746490776538849,
          0.0
        ],
        [
          1.0,
          0.49685728549957275
        ],
        [
          0.9700407981872559,
          0.03758261725306511
        ],
        [
          0.15382269024848938,
          0.0
        ],
        [
          0.3242175877094269,
          0.0
        ],
        [
          0.4641231894493103,
          0.22556939721107483
        ],
        [
          0.9222676753997803,
          0.8638283014297485
        ],
        [
          0.8890563249588013,
          1.0
        ],
        [
          0.0,
          0.4012792706489563
        ],
        [
          1.0,
          0.4179689288139343
        ],
        [
          1.0,
          0.5139645338058472
        ],
        [
          0.4376848042011261,
          0.1670764833688736
        ],
        [
          1.0,
          0.09270958602428436
        ],
        [
          0.5066045522689819,
          0.06485721468925476
        ],
        [
          1.0,
          0.7142857313156128
        ],
        [
          0.15571482479572296,
          0.020968353375792503
        ],
        [
          0.054659824818372726,
          0.024478226900100708
        ],
        [
          0.24345232546329498,
          0.0
        ],
        [
          0.8195040822029114,
          0.15983988344669342
        ],
        [
          0.39950990676879883,
          0.014341750182211399
        ],
        [
          0.17890815436840057,
          0.7970097064971924
        ],
        [
          0.0,
          0.18572011590003967
        ],
        [
          0.9416618347167969,
          0.19229601323604584
        ],
        [
          0.7493166923522949,
          0.11115588992834091
        ],
        [
          0.06238917261362076,
          0.8110693693161011
        ],
        [
          0.025885920971632004,
          0.7803655862808228
        ],
        [
          0.8899247646331787,
          0.40305858850479126
        ],
        [
          1.0,
          0.5087592005729675
        ],
        [
          0.03732055798172951,
          0.48536986112594604
        ],
        [
          0.1515323668718338,
          0.6539087891578674
        ],
        [
          0.034955792129039764,
          0.7191728949546814
        ],
        [
          0.04921196028590202,
          0.5296007394790649
        ],
        [
          0.49671223759651184,
          0.0
        ],
        [
          0.9524306058883667,
          0.8557049036026001
        ],
        [
          0.9191957116127014,
          0.7614462375640869
        ],
        [
          0.8473174571990967,
          0.9239133596420288
        ],
        [
          0.9265092015266418,
          0.5175237655639648
        ],
        [
          0.11299711465835571,
          0.05826141685247421
        ],
        [
          0.8475716710090637,
          1.0
        ],
        [
          0.9638482928276062,
          0.6205119490623474
        ],
        [
          0.901475727558136,
          0.0
        ],
        [
          0.07129278779029846,
          0.0
        ],
        [
          0.9784599542617798,
          0.5067407488822937
        ],
        [
          0.2798762023448944,
          0.13205736875534058
        ],
        [
          0.07643209397792816,
          0.12588107585906982
        ],
        [
          0.5458947420120239,
          0.21642066538333893
        ],
        [
          0.0,
          0.1376335322856903
        ],
        [
          0.9281094670295715,
          0.6393256187438965
        ],
        [
          0.1580556184053421,
          0.5291979312896729
        ],
        [
          1.0,
          0.2760775685310364
        ],
        [
          0.0,
          0.2408660352230072
        ],
        [
          0.0,
          1.0
        ],
        [
          0.23340845108032227,
          0.09582444280385971
        ],
        [
          0.4364614486694336,
          0.11118132621049881
        ],
        [
          0.06943344324827194,
          0.8226414918899536
        ],
        [
          0.9356871843338013,
          0.5152196288108826
        ],
        [
          0.7604531049728394,
          0.16716767847537994
        ],
        [
          0.0,
          0.472262442111969
        ],
        [
          0.6110804677009583,
          0.0
        ],
        [
          0.2848052978515625,
          0.04325758293271065
        ],
        [
          0.7372802495956421,
          0.07039289176464081
        ],
        [
          0.9514966607093811,
          0.6597732305526733
        ],
        [
          0.8401868939399719,
          0.6539524793624878
        ],
        [
          1.0,
          0.744147539138794
        ],
        [
          0.9690391421318054,
          0.023862669244408607
        ],
        [
          0.9730261564254761,
          0.22567197680473328
        ],
        [
          1.0,
          0.14682132005691528
        ],
        [
          0.6767016649246216,
          0.02911996841430664
        ],
        [
          0.9152035713195801,
          1.0
        ],
        [
          1.0,
          0.8186371326446533
        ],
        [
          0.08350986987352371,
          1.0
        ],
        [
          0.5283029675483704,
          0.22616581618785858
        ],
        [
          0.0,
          0.21946416795253754
        ],
        [
          0.9324227571487427,
          0.14124399423599243
        ],
        [
          0.16932779550552368,
          0.3308003544807434
        ],
        [
          0.9632154107093811,
          0.20630541443824768
        ],
        [
          0.6986818909645081,
          0.20335090160369873
        ],
        [
          0.14728963375091553,
          0.3065020740032196
        ],
        [
          1.0,
          0.6043908596038818
        ],
        [
          0.8332436084747314,
          0.15225127339363098
        ],
        [
          0.34306275844573975,
          0.017349587753415108
        ],
        [
          0.0,
          0.87778240442276
        ],
        [
          0.9785869717597961,
          0.8358280658721924
        ],
        [
          0.08130335807800293,
          0.678480327129364
        ],
        [
          0.07850669324398041,
          0.8307638764381409
        ],
        [
          0.15032631158828735,
          0.3214237093925476
        ],
        [
          0.09656219929456711,
          0.8460079431533813
        ],
        [
          0.9718530774116516,
          0.6384286284446716
        ],
        [
          0.6953751444816589,
          0.040951672941446304
        ],
        [
          0.0,
          0.37826138734817505
        ],
        [
          0.0,
          0.8281869888305664
        ],
        [
          0.1348150223493576,
          0.4454699754714966
        ],
        [
          0.659294843673706,
          0.05430561676621437
        ],
        [
          0.08576702326536179,
          0.04498714208602905
        ],
        [
          1.0,
          0.26342281699180603
        ],
        [
          0.9488092660903931,
          0.85685133934021
        ],
        [
          0.9984699487686157,
          0.8272176384925842
        ],
        [
          0.22502082586288452,
          0.19807660579681396
        ],
        [
          1.0,
          0.35437723994255066
        ],
        [
          0.660012423992157,
          0.15977156162261963
        ],
        [
          0.5524811744689941,
          0.05781538039445877
        ],
        [
          1.0,
          0.0
        ],
        [
          0.14545303583145142,
          0.0
        ],
        [
          0.6431972980499268,
          0.049476258456707
        ],
        [
          0.6860833168029785,
          0.09167221188545227
        ],
        [
          0.12168644368648529,
          0.2100866734981537
        ],
        [
          1.0,
          0.46201956272125244
        ],
        [
          0.0,
          0.3345089554786682
        ],
        [
          0.5719989538192749,
          0.2098945677280426
        ],
        [
          0.0,
          0.9466514587402344
        ],
        [
          0.43747735023498535,
          0.0
        ],
        [
          0.964821457862854,
          0.17840424180030823
        ],
        [
          0.321979284286499,
          0.18000110983848572
        ],
        [
          0.0,
          0.0065956455655395985
        ],
        [
          0.9032917022705078,
          0.5500065684318542
        ],
        [
          0.0,
          0.0032998661044985056
        ],
        [
          0.050315264612436295,
          0.5429585576057434
        ],
        [
          0.1288030743598938,
          0.32561254501342773
        ],
        [
          1.0,
          0.12326481938362122
        ],
        [
          1.0,
          0.31870636343955994
        ],
        [
          0.2686707079410553,
          0.13672275841236115
        ],
        [
          0.9372111558914185,
          0.33213236927986145
        ],
        [
          1.0,
          0.484055757522583
        ],
        [
          0.09869284182786942,
          1.0
        ],
        [
          0.30270910263061523,
          0.2433268278837204
        ],
        [
          0.08572876453399658,
          0.22933822870254517
        ],
        [
          0.0389871820807457,
          0.17535258829593658
        ],
        [
          0.0,
          0.4100986421108246
        ],
        [
          0.7329164743423462,
          0.05265159532427788
        ],
        [
          0.42516523599624634,
          0.2180459201335907
        ],
        [
          0.047283995896577835,
          0.16875717043876648
        ],
        [
          0.7987736463546753,
          0.0
        ],
        [
          0.0,
          0.22042126953601837
        ],
        [
          0.8829212784767151,
          0.4158971905708313
        ],
        [
          0.8361773490905762,
          0.6506778001785278
        ],
        [
          0.8697731494903564,
          0.2533813416957855
        ],
        [
          0.10727346688508987,
          0.8176287412643433
        ],
        [
          0.08654343336820602,
          0.7330553531646729
        ],
        [
          0.9193896055221558,
          0.5982012748718262
        ],
        [
          0.07518355548381805,
          0.1167534664273262
        ],
        [
          0.0,
          0.15574434399604797
        ],
        [
          0.5151543021202087,
          0.24935004115104675
        ],
        [
          0.9892026782035828,
          0.24221865832805634
        ],
        [
          0.7233502268791199,
          0.1868324726819992
        ],
        [
          0.8948298096656799,
          0.47786450386047363
        ],
        [
          0.8870008587837219,
          0.24828939139842987
        ],
        [
          0.12915368378162384,
          0.8002804517745972
        ],
        [
          1.0,
          1.0
        ],
        [
          0.05755254626274109,
          0.75993812084198
        ],
        [
          0.0,
          0.3034438192844391
        ],
        [
          0.10318629443645477,
          0.2260763943195343
        ],
        [
          0.0679648146033287,
          0.9264675378799438
        ],
        [
          0.9901842474937439,
          0.20677320659160614
        ],
        [
          0.5992656946182251,
          0.20695126056671143
        ],
        [
          0.622739851474762,
          0.23772501945495605
        ],
        [
          0.2701409161090851,
          0.11544955521821976
        ],
        [
          0.025740310549736023,
          1.0
        ],
        [
          0.16328009963035583,
          0.2734237611293793
        ],
        [
          0.03833664953708649,
          0.023917129263281822
        ],
        [
          1.0,
          0.04342326521873474
        ],
        [
          0.0640505999326706,
          1.0
        ],
        [
          0.0,
          0.602083683013916
        ],
        [
          0.9191388487815857,
          1.0
        ],
        [
          0.951020359992981,
          0.8981198668479919
        ],
        [
          0.003646678989753127,
          0.20262201130390167
        ],
        [
          0.9314236640930176,
          0.4934786856174469
        ],
        [
          0.11699970066547394,
          0.48749840259552
        ],
        [
          0.9899559617042542,
          0.8954078555107117
        ],
        [
          0.933649480342865,
          0.0
        ],
        [
          0.011960853822529316,
          0.702997088432312
        ],
        [
          0.1242637038230896,
          0.799122154712677
        ],
        [
          0.9705044031143188,
          0.0
        ],
        [
          1.0,
          0.7985894083976746
        ],
        [
          0.0,
          0.12246467173099518
        ],
        [
          0.0,
          0.46620675921440125
        ],
        [
          0.9616486430168152,
          0.9772855043411255
        ],
        [
          0.6409860253334045,
          0.04883279651403427
        ],
        [
          0.7326567769050598,
          0.0
        ],
        [
          0.9383379817008972,
          0.49690496921539307
        ],
        [
          0.015911052003502846,
          0.3659858703613281
        ]
      ],
      "uv_support_mask": [
        [
          true,
          true,
          true,
          true,
          true,
          true,
          true,
          true,
          true,
          true,
          true,
          true,
          true,
          true,
          true,
          true,
          true,
          true,
          true,
          true,
          true,
          true,
          true,
          true
        ],
        [
          true,
          true,
          true,
          true,
          true,
          true,
          true,
          true,
          true,
          true,
          true,
          true,
          true,
          true,
          true,
          true,
          true,
          true,
          true,
          true,
          true,
          true,
          true,
          true
        ],
        [
          true,
          true,
          true,
          true,
          true,
          true,
          true,
          true,
          true,
          true,
          true,
          true,
          true,
          true,
          true,
          true,
          true,
          true,
          true,
          true,
          true,
          true,
          true,
          true
        ],
        [
          true,
          true,
          true,
          true,
          true,
          true,
          true,
          true,
          true,
          true,
          true,
          true,
          true,
          true,
          true,
          true,
          true,
          true,
          true,
          true,
          true,
          true,
          true,
          true
        ],
        [
          true,
          true,
          true,
          true,
          true,
          true,
          true,
          true,
          true,
          true,
          true,
          true,
          true,
          true,
          true,
          true,
          true,
          true,
          true,
          true,
          true,
          true,
          true,
          true
        ],
        [
          true,
          true,
          true,
          true,
          true,
          true,
          true,
          true,
          true,
          true,
          true,
          true,
          false,
          true,
          true,
          true,
          true,
          true,
          true,
          true,
          true,
          true,
          true,
          true
        ],
        [
          true,
          true,
          true,
          true,
          true,
          true,
          true,
          false,
          false,
          false,
          false,
          false,
          false,
          false,
          false,
          false,
          false,
          false,
          false,
          false,
          false,
          false,
          false,
          false
        ],
        [
          true,
          true,
          true,
          true,
          true,
          true,
          true,
          false,
          false,
          false,
          false,
          false,
          false,
          false,
          false,
          false,
          false,
          false,
          false,
          false,
          false,
          false,
          false,
          false
        ],
        [
          true,
          true,
          true,
          true,
          true,
          true,
          true,
          false,
          false,
          false,
          false,
          false,
          false,
          false,
          false,
          false,
          false,
          false,
          false,
          false,
          false,
          false,
          false,
          false
        ],
        [
          true,
          true,
          true,
          true,
          true,
          true,
          true,
          false,
          false,
          false,
          false,
          false,
          false,
          false,
          false,
          false,
          false,
          false,
          false,
          false,
          false,
          false,
          false,
          false
        ],
        [
          true,
          true,
          true,
          true,
          true,
          true,
          true,
          false,
          false,
          false,
          false,
          false,
          false,
          false,
          false,
          false,
          false,
          false,
          false,
          false,
          false,
          false,
          false,
          false
        ],
        [
          true,
          true,
          true,
          true,
          true,
          true,
          true,
          false,
          false,
          false,
          false,
          false,
          false,
          false,
          false,
          false,
          false,
          false,
          false,
          false,
          false,
          false,
          false,
          false
        ],
        [
          true,
          true,
          true,
          true,
          true,
          true,
          true,
          false,
          false,
          false,
          false,
          false,
          false,
          false,
          false,
          false,
          false,
          false,
          false,
          false,
          false,
          false,
          false,
          false
        ],
        [
          true,
          true,
          true,
          true,
          true,
          true,
          true,
          false,
          false,
          false,
          false,
          false,
          false,
          false,
          false,
          false,
          false,
          false,
          false,
          false,
          false,
          false,
          false,
          false
        ],
        [
          true,
          true,
          true,
          true,
          true,
          true,
          true,
          false,
          false,
          false,
          false,
          false,
          false,
          false,
          false,
          false,
          false,
          false,
          false,
          false,
          false,
          false,
          false,
          false
        ],
        [
          true,
          true,
          true,
          true,
          true,
          true,
          true,
          false,
          false,
          false,
          false,
          false,
          false,
          false,
          false,
          false,
          false,
          false,
          false,
          false,
          false,
          false,
          false,
          false
        ],
        [
          true,
          true,
          true,
          true,
          true,
          true,
          false,
          false,
          false,
          false,
          false,
          false,
          false,
          false,
          false,
          false,
          false,
          false,
          false,
          false,
          false,
          false,
          false,
          false
        ],
        [
          true,
          true,
          true,
          true,
          true,
          true,
          true,
          false,
          false,
          false,
          false,
          false,
          false,
          false,
          false,
          false,
          false,
          false,
          false,
          false,
          false,
          false,
          false,
          false
        ],
        [
          true,
          true,
          true,
          true,
          true,
          true,
          true,
          false,
          false,
          false,
          false,
          false,
          false,
          false,
          false,
          false,
          false,
          false,
          false,
          false,
          false,
          false,
          false,
          false
        ],
        [
          true,
          true,
          true,
          true,
          true,
          true,
          true,
          true,
          false,
          true,
          true,
          true,
          true,
          true,
          true,
          true,
          true,
          false,
          false,
          true,
          true,
          true,
          true,
          true
        ],
        [
          true,
          true,
          true,
          true,
          true,
          true,
          true,
          true,
          true,
          true,
          true,
          true,
          true,
          true,
          true,
          true,
          true,
          true,
          true,
          true,
          true,
          true,
          true,
          true
        ],
        [
          true,
          true,
          true,
          true,
          true,
          true,
          true,
          true,
          true,
          true,
          true,
          true,
          true,
          true,
          true,
          true,
          true,
          true,
          true,
          true,
          true,
          true,
          true,
          true
        ],
        [
          true,
          true,
          true,
          true,
          true,
          true,
          true,
          true,
          true,
          true,
          true,
          true,
          true,
          true,
          true,
          true,
          true,
          true,
          true,
          true,
          true,
          true,
          true,
          true
        ],
        [
          true,
          true,
          true,
          true,
          true,
          true,
          true,
          true,
          true,
          true,
          true,
          true,
          true,
          true,
          true,
          true,
          true,
          true,
          true,
          true,
          true,
          true,
          true,
          true
        ]
      ],
      "stages": [
        {
          "stage": "idw_seed",
          "grid": {
            "extent": 1.93367338180542,
            "edge_median": 0.3249277174472809,
            "edge_min": 0.08960901200771332
          },
          "uv_support": {
            "point_count": 28,
            "occupied_cells": 28,
            "coverage_ratio": 0.02734375
          },
          "mapping": {
            "jacobian_median": 1.4072129726409912,
            "jacobian_min": 0.6183388233184814,
            "degenerate_fraction": 0.0,
            "fold_fraction": 0.0
          }
        },
        {
          "stage": "round_1",
          "grid": {
            "extent": 2.432225465774536,
            "edge_median": 0.42752715945243835,
            "edge_min": 0.21810761094093323
          },
          "uv_support": {
            "point_count": 28,
            "occupied_cells": 28,
            "coverage_ratio": 0.02734375
          },
          "fit_rms": 4.6910773932040684e-08,
          "mapping": {
            "jacobian_median": 2.814074754714966,
            "jacobian_min": 2.2547476291656494,
            "degenerate_fraction": 0.0,
            "fold_fraction": 0.0
          }
        },
        {
          "stage": "round_2",
          "grid": {
            "extent": 2.437966823577881,
            "edge_median": 0.4357231557369232,
            "edge_min": 0.22332848608493805
          },
          "uv_support": {
            "point_count": 28,
            "occupied_cells": 28,
            "coverage_ratio": 0.02734375
          },
          "fit_rms": 5.6968588069139514e-08,
          "mapping": {
            "jacobian_median": 2.8526482582092285,
            "jacobian_min": 2.1359174251556396,
            "degenerate_fraction": 0.0,
            "fold_fraction": 0.0
          }
        }
      ],
      "final_mapping": {
        "jacobian_median": 2.8526482582092285,
        "jacobian_min": 2.1359174251556396,
        "degenerate_fraction": 0.0,
        "fold_fraction": 0.0
      }
    }
  ]
}