{
  "patches": [
    {
      "patch_id": 0,
      "fit_point_count": 21,
      "point_weights": [
        22.0,
        21.0,
        15.0,
        35.0,
        44.0,
        19.0,
        30.0,
        28.0,
        29.0,
        22.0,
        40.0,
        34.0,
        31.0,
        27.0,
        19.0,
        40.0,
        29.0,
        31.0,
        31.0,
        35.0,
        18.0
      ],
      "initial_uv": [
        [
          0.0,
          1.0
        ],
        [
          0.09077820181846619,
          0.8103970289230347
        ],
        [
          0.20129793882369995,
          0.9676593542098999
        ],
        [
          0.2008223831653595,
          0.6240890026092529
        ],
        [
          0.29875296354293823,
          0.8311864137649536
        ],
        [
          0.40243586897850037,
          0.9786287546157837
        ],
        [
          0.31450000405311584,
          0.42709416151046753
        ],
        [
          0.3933701813220978,
          0.6404558420181274
        ],
        [
          0.49353665113449097,
          0.8097941279411316
        ],
        [
          0.5968655943870544,
          0.9623009562492371
        ],
        [
          0.38254401087760925,
          0.20716455578804016
        ],
        [
          0.49129560589790344,
          0.4085010886192322
        ],
        [
          0.5918141007423401,
          0.6302732825279236
        ],
        [
          0.6887534856796265,
          0.8489418625831604
        ],
        [
          0.7855783104896545,
          0.981473982334137
        ],
        [
          0.4805709421634674,
          0.0
        ],
        [
          0.5933114886283875,
          0.18048396706581116
        ],
        [
          0.6919230222702026,
          0.3944668173789978
        ],
        [
          0.775733470916748,
          0.6205596327781677
        ],
        [
          0.8889054656028748,
          0.8254700303077698
        ],
        [
          1.0,
          0.9645361304283142
        ]
      ],
      "idw_seed_control_grid": [
        [
          [
            0.26733332872390747,
            -0.5661805272102356,
            0.0
          ],
          [
            0.18733292818069458,
            -0.5726715326309204,
            0.0
          ],
          [
            -0.016314923763275146,
            -0.5595390200614929,
            0.0
          ],
          [
            -0.7797068953514099,
            -0.8672585487365723,
            0.0
          ]
        ],
        [
          [
            0.3329395353794098,
            -0.5614265203475952,
            0.0
          ],
          [
            0.2242445945739746,
            -0.5813179016113281,
            0.0
          ],
          [
            -0.014164488762617111,
            -0.5656156539916992,
            0.0
          ],
          [
            -0.15556970238685608,
            -0.46432918310165405,
            0.0
          ]
        ],
        [
          [
            0.415228933095932,
            -0.5598987340927124,
            0.0
          ],
          [
            0.3128269910812378,
            -0.5659463405609131,
            0.0
          ],
          [
            0.06579712778329849,
            -0.4971292316913605,
            0.0
          ],
          [
            -0.04525309428572655,
            -0.36739450693130493,
            0.0
          ]
        ],
        [
          [
            0.5879697799682617,
            -0.6083863973617554,
            0.0
          ],
          [
            0.4037017524242401,
            -0.5092384219169617,
            0.0
          ],
          [
            0.19742892682552338,
            -0.37943416833877563,
            0.0
          ],
          [
            0.041168343275785446,
            -0.2136571705341339,
            0.0
          ]
        ],
        [
          [
            0.5643913149833679,
            -0.5366466045379639,
            0.0
          ],
          [
            0.509252667427063,
            -0.39607760310173035,
            0.0
          ],
          [
            0.38202962279319763,
            -0.19437909126281738,
            0.0
          ],
          [
            0.21828997135162354,
            -0.05476384609937668,
            0.0
          ]
        ],
        [
          [
            0.5508542656898499,
            -0.405486524105072,
            0.0
          ],
          [
            0.5915312767028809,
            -0.29326191544532776,
            0.0
          ],
          [
            0.504418134689331,
            -0.05156528204679489,
            0.0
          ],
          [
            0.37606748938560486,
            0.07136846333742142,
            0.0
          ]
        ],
        [
          [
            0.5710530281066895,
            -0.3025352954864502,
            0.0
          ],
          [
            0.5820949077606201,
            -0.2164822816848755,
            0.0
          ],
          [
            0.5417742133140564,
            0.010230842977762222,
            0.0
          ],
          [
            0.4743003845214844,
            0.1584988385438919,
            0.0
          ]
        ],
        [
          [
            0.561441957950592,
            -0.2612314224243164,
            0.0
          ],
          [
            0.5684228539466858,
            -0.18251702189445496,
            0.0
          ],
          [
            0.5470007061958313,
            0.017661355435848236,
            0.0
          ],
          [
            0.6347148418426514,
            0.3648325800895691,
            0.0
          ]
        ]
      ],
      "rounds": [
        {
          "control_grid_after_lsq": [
            [
              [
                0.2548682391643524,
                -0.6393699049949646,
                0.0
              ],
              [
                -0.10865886509418488,
                -0.8040254712104797,
                0.0
              ],
              [
                -0.4829190969467163,
                -0.9211363792419434,
                0.0
              ],
              [
                -0.7835964560508728,
                -0.870448112487793,
                0.0
              ]
            ],
            [
              [
                0.3785315752029419,
                -0.8468664884567261,
                0.0
              ],
              [
                -0.01434281561523676,
                -0.9592658281326294,
                0.0
              ],
              [
                -0.443817138671875,
                -0.983523964881897,
                -0.0
              ],
              [
                -0.6574224233627319,
                -0.7796904444694519,
                0.0
              ]
            ],
            [
              [
                0.5253931283950806,
                -1.0287184715270996,
                0.0
              ],
              [
                0.22961480915546417,
                -0.9965959191322327,
                0.0
              ],
              [
                -0.16744951903820038,
                -0.703724205493927,
                -0.0
              ],
              [
                -0.3711390793323517,
                -0.41021114587783813,
                -0.0
              ]
            ],
            [
              [
                0.7099252343177795,
                -0.9620442986488342,
                0.0
              ],
              [
                0.4871084690093994,
                -0.7977210879325867,
                -0.0
              ],
              [
                0.1172274574637413,
                -0.3475460112094879,
                0.0
              ],
              [
                -0.09595058858394623,
                -0.16972990334033966,
                0.0
              ]
            ],
            [
              [
                0.9889758825302124,
                -0.6802154779434204,
                0.0
              ],
              [
                0.8165236711502075,
                -0.4497750401496887,
                0.0
              ],
              [
                0.3664344847202301,
                -0.09951503574848175,
                0.0
              ],
              [
                0.1779552847146988,
                0.11408261209726334,
                0.0
              ]
            ],
            [
              [
                1.0072664022445679,
                -0.5103588104248047,
                0.0
              ],
              [
                1.0210553407669067,
                -0.1983838826417923,
                0.0
              ],
              [
                0.7233507037162781,
                0.20314578711986542,
                0.0
              ],
              [
                0.42306724190711975,
                0.38685858249664307,
                0.0
              ]
            ],
            [
              [
                0.8127269148826599,
                -0.37627702951431274,
                0.0
              ],
              [
                0.913447916507721,
                0.016522256657481194,
                0.0
              ],
              [
                0.9380086660385132,
                0.46229228377342224,
                0.0
              ],
              [
                0.7999238967895508,
                0.706274688243866,
                0.0
              ]
            ],
            [
              [
                0.5937050580978394,
                -0.27002114057540894,
                0.0
              ],
              [
                0.72638338804245,
                0.0767320916056633,
                0.0
              ],
              [
                0.8512811660766602,
                0.4601008892059326,
                0.0
              ],
              [
                0.9024690985679626,
                0.8376553654670715,
                -0.0
              ]
            ]
          ],
          "uv_after_footpoint": [
            [
              0.001502318074926734,
              1.0
            ],
            [
              0.0,
              0.7142857313156128
            ],
            [
              0.20212504267692566,
              0.9647093415260315
            ],
            [
              0.1987505704164505,
              0.6219407916069031
            ],
            [
              0.29990723729133606,
              0.835073709487915
            ],
            [
              0.40085548162460327,
              0.9756615161895752
            ],
            [
              0.3153281807899475,
              0.4238993227481842
            ],
            [
              0.3940959572792053,
              0.6434102654457092
            ],
            [
              0.49334755539894104,
              0.8090546727180481
            ],
            [
              0.5986841320991516,
              0.9599930644035339
            ],
            [
              0.13333334028720856,
              0.0
            ],
            [
              0.4918260872364044,
              0.41173291206359863
            ],
            [
              0.5905370712280273,
              0.6332749128341675
            ],
            [
              0.6872251033782959,
              0.8539841175079346
            ],
            [
              0.7843447923660278,
              0.9793132543563843
            ],
            [
              0.4808637201786041,
              0.0025722046848386526
            ],
            [
              0.5955137014389038,
              0.1752490997314453
            ],
            [
              0.9060463309288025,
              0.13909350335597992
            ],
            [
              0.7765999436378479,
              0.6211987137794495
            ],
            [
              1.0,
              0.7258228063583374
            ],
            [
              0.9987388849258423,
              0.9659945964813232
            ]
          ]
        },
        {
          "control_grid_after_lsq": [
            [
              [
                0.27175670862197876,
                -0.6674419641494751,
                0.0
              ],
              [
                -0.1320100724697113,
                -0.8095929622650146,
                0.0
              ],
              [
                -0.4816804528236389,
                -0.879714846611023,
                -0.0
              ],
              [
                -0.7851234674453735,
                -0.8714701533317566,
                0.0
              ]
            ],
            [
              [
                0.4533086121082306,
                -0.8077707886695862,
                -0.0
              ],
              [
                -0.018547557294368744,
                -0.9658828377723694,
                0.0
              ],
              [
                -0.40772509574890137,
                -0.9398831725120544,
                -0.0
              ],
              [
                -0.6447065472602844,
                -0.7480156421661377,
                0.0
              ]
            ],
            [
              [
                0.5805227160453796,
                -0.9648002982139587,
                0.0
              ],
              [
                0.21236874163150787,
                -0.9909560680389404,
                0.0
              ],
              [
                -0.16809168457984924,
                -0.7169695496559143,
                -0.0
              ],
              [
                -0.3785412609577179,
                -0.4192406237125397,
                -0.0
              ]
            ],
            [
              [
                0.7081664800643921,
                -0.9424978494644165,
                0.0
              ],
              [
                0.4942471385002136,
                -0.779420793056488,
                0.0
              ],
              [
                0.1204153522849083,
                -0.36012184619903564,
                0.0
              ],
              [
                -0.094423808157444,
                -0.15728448331356049,
                0.0
              ]
            ],
            [
              [
                0.9962175488471985,
                -0.7118400931358337,
                0.0
              ],
              [
                0.7973878383636475,
                -0.44491761922836304,
                0.0
              ],
              [
                0.37876951694488525,
                -0.10542207956314087,
                0.0
              ],
              [
                0.16447526216506958,
                0.11139258742332458,
                0.0
              ]
            ],
            [
              [
                1.0445353984832764,
                -0.5143896341323853,
                0.0
              ],
              [
                0.9835608601570129,
                -0.13411866128444672,
                0.0
              ],
              [
                0.7432609796524048,
                0.19334326684474945,
                -0.0
              ],
              [
                0.4371888339519501,
                0.4027045965194702,
                0.0
              ]
            ],
            [
              [
                0.8337726593017578,
                -0.3873690068721771,
                0.0
              ],
              [
                0.9031134843826294,
                0.019138455390930176,
                0.0
              ],
              [
                0.8935596346855164,
                0.38466790318489075,
                0.0
              ],
              [
                0.7515881061553955,
                0.6685070395469666,
                0.0
              ]
            ],
            [
              [
                0.5837012529373169,
                -0.27593955397605896,
                0.0
              ],
              [
                0.7135107517242432,
                0.09942980110645294,
                0.0
              ],
              [
                0.8229345679283142,
                0.4696005582809448,
                -0.0
              ],
              [
                0.9080731868743896,
                0.8372697830200195,
                0.0
              ]
            ]
          ],
          "uv_after_footpoint": [
            [
              0.0018963166512548923,
              1.0
            ],
            [
              0.0,
              0.7142857313156128
            ],
            [
              0.20082738995552063,
              0.9629826545715332
            ],
            [
              0.0120288310572505,
              0.33290183544158936
            ],
            [
              0.3020668029785156,
              0.837410569190979
            ],
            [
              0.39944007992744446,
              0.971917986869812
            ],
            [
              0.3150878846645355,
              0.4192502200603485
            ],
            [
              0.394581139087677,
              0.6470221877098083
            ],
            [
              0.49355432391166687,
              0.8113787770271301
            ],
            [
              0.5997835397720337,
              0.9571738243103027
            ],
            [
              0.13333334028720856,
              0.0
            ],
            [
              0.49071240425109863,
              0.4087562561035156
            ],
            [
              0.5900159478187561,
              0.6352950930595398
            ],
            [
              0.6846241354942322,
              0.857242226600647
            ],
            [
              0.7851201295852661,
              0.9785293340682983
            ],
            [
              0.4801720380783081,
              0.0037291725166141987
            ],
            [
              0.597929060459137,
              0.1729392260313034
            ],
            [
              0.9067969918251038,
              0.13815729320049286
            ],
            [
              0.7800286412239075,
              0.6178187131881714
            ],
            [
              1.0,
              0.7250899076461792
            ],
            [
              0.9983929991722107,
              0.9662545919418335
            ]
          ]
        }
      ],
      "final_control_grid": [
        [
          [
            0.27175670862197876,
            -0.6674419641494751,
            0.0
          ],
          [
            -0.1320100724697113,
            -0.8095929622650146,
            0.0
          ],
          [
            -0.4816804528236389,
            -0.879714846611023,
            -0.0
          ],
          [
            -0.7851234674453735,
            -0.8714701533317566,
            0.0
          ]
        ],
        [
          [
            0.4533086121082306,
            -0.8077707886695862,
            -0.0
          ],
          [
            -0.018547557294368744,
            -0.9658828377723694,
            0.0
          ],
          [
            -0.40772509574890137,
            -0.9398831725120544,
            -0.0
          ],
          [
            -0.6447065472602844,
            -0.7480156421661377,
            0.0
          ]
        ],
        [
          [
            0.5805227160453796,
            -0.9648002982139587,
            0.0
          ],
          [
            0.21236874163150787,
            -0.9909560680389404,
            0.0
          ],
          [
            -0.16809168457984924,
            -0.7169695496559143,
            -0.0
          ],
          [
            -0.3785412609577179,
            -0.4192406237125397,
            -0.0
          ]
        ],
        [
          [
            0.7081664800643921,
            -0.9424978494644165,
            0.0
          ],
          [
            0.4942471385002136,
            -0.779420793056488,
            0.0
          ],
          [
            0.1204153522849083,
            -0.36012184619903564,
            0.0
          ],
          [
            -0.094423808157444,
            -0.15728448331356049,
            0.0
          ]
        ],
        [
          [
            0.9962175488471985,
            -0.7118400931358337,
            0.0
          ],
          [
            0.7973878383636475,
            -0.44491761922836304,
            0.0
          ],
          [
            0.37876951694488525,
            -0.10542207956314087,
            0.0
          ],
          [
            0.16447526216506958,
            0.11139258742332458,
            0.0
          ]
        ],
        [
          [
            1.0445353984832764,
            -0.5143896341323853,
            0.0
          ],
          [
            0.9835608601570129,
            -0.13411866128444672,
            0.0
          ],
          [
            0.7432609796524048,
            0.19334326684474945,
            -0.0
          ],
          [
            0.4371888339519501,
            0.4027045965194702,
            0.0
          ]
        ],
        [
          [
            0.8337726593017578,
            -0.3873690068721771,
            0.0
          ],
          [
            0.9031134843826294,
            0.019138455390930176,
            0.0
          ],
          [
            0.8935596346855164,
            0.38466790318489075,
            0.0
          ],
          [
            0.7515881061553955,
            0.6685070395469666,
            0.0
          ]
        ],
        [
          [
            0.5837012529373169,
            -0.27593955397605896,
            0.0
          ],
          [
            0.7135107517242432,
            0.09942980110645294,
            0.0
          ],
          [
            0.8229345679283142,
            0.4696005582809448,
            -0.0
          ],
          [
            0.9080731868743896,
            0.8372697830200195,
            0.0
          ]
        ]
      ],
      "final_weights": [
        [
          1.0,
          1.0,
          1.0,
          1.0
        ],
        [
          1.0,
          1.0,
          1.0,
          1.0
        ],
        [
          1.0,
          1.0,
          1.0,
          1.0
        ],
        [
          1.0,
          1.0,
          1.0,
          1.0
        ],
        [
          1.0,
          1.0,
          1.0,
          1.0
        ],
        [
          1.0,
          1.0,
          1.0,
          1.0
        ],
        [
          1.0,
          1.0,
          1.0,
          1.0
        ],
        [
          1.0,
          1.0,
          1.0,
          1.0
        ]
      ],
      "final_gaussian_indices": [
        0,
        1,
        2,
        3,
        4,
        5,
        6,
        7,
        8,
        9,
        10,
        11,
        12,
        13,
        14,
        15,
        16,
        17,
        18,
        19,
        20,
        21,
        22,
        23,
        24,
        25,
        26,
        27,
        28,
        29,
        30,
        31,
        32,
        33,
        34,
        35,
        36,
        37,
        38,
        39,
        40,
        41,
        42,
        43,
        44,
        45,
        46,
        47,
        48,
        49,
        50,
        51,
        52,
        53,
        54,
        55,
        56,
        57,
        58,
        59,
        60,
        61,
        62,
        63,
        64,
        65,
        66,
        67,
        68,
        69,
        70,
        71,
        72,
        73,
        74,
        75,
        76,
        77,
        78,
        79,
        80,
        81,
        82,
        83,
        84,
        85,
        86,
        87,
        88,
        89,
        90,
        91,
        92,
        93,
        94,
        95,
        96,
        97,
        98,
        99,
        100,
        101,
        102,
        103,
        104,
        105,
        106,
        107,
        108,
        109,
        110,
        111,
        112,
        113,
        114,
        115,
        116,
        117,
        118,
        119,
        120,
        121,
        122,
        123,
        124,
        125,
        126,
        127,
        128,
        129,
        130,
        131,
        132,
        133,
        134,
        135,
        136,
        137,
        138,
        139,
        140,
        141,
        142,
        143,
        144,
        145,
        146,
        147,
        148,
        149,
        150,
        151,
        152,
        153,
        154,
        155,
        156,
        157,
        158,
        159,
        160,
        161,
        162,
        163,
        164,
        165,
        166,
        167,
        168,
        169,
        170,
        171,
        172,
        173,
        174,
        175,
        176,
        177,
        178,
        179,
        180,
        181,
        182,
        183,
        184,
        185,
        186,
        187,
        188,
        189,
        190,
        191,
        192,
        193,
        194,
        195,
        196,
        197,
        198,
        199,
        200,
        201,
        202,
        203,
        204,
        205,
        206,
        207,
        208,
        209,
        210,
        211,
        212,
        213,
        214,
        215,
        216,
        217,
        218,
        219,
        220,
        221,
        222,
        223,
        224,
        225,
        226,
        227,
        228,
        229,
        230,
        231,
        232,
        233,
        234,
        235,
        236,
        237,
        238,
        239,
        240,
        241,
        242,
        243,
        244,
        245,
        246,
        247,
        248,
        249,
        250,
        251,
        252,
        253,
        254,
        255,
        256,
        257,
        258,
        259,
        260,
        261,
        262,
        263,
        264,
        265,
        266,
        267,
        268,
        269,
        270,
        271,
        272,
        273,
        274,
        275,
        276,
        277,
        278,
        279,
        280,
        281,
        282,
        283,
        284,
        285,
        286,
        287,
        288,
        289,
        290,
        291,
        292,
        293,
        294,
        295,
        296,
        297,
        298,
        299,
        300,
        301,
        302,
        303,
        304,
        305,
        306,
        307,
        308,
        309,
        310,
        311,
        312,
        313,
        314,
        315,
        316,
        317,
        318,
        319,
        320,
        321,
        322,
        323,
        324,
        325,
        326,
        327,
        328,
        329,
        330,
        331,
        332,
        333,
        334,
        335,
        336,
        337,
        338,
        339,
        340,
        341,
        342,
        343,
        344,
        345,
        346,
        347,
        348,
        349,
        350,
        351,
        352,
        353,
        354,
        355,
        356,
        357,
        358,
        359,
        360,
        361,
        362,
        363,
        364,
        365,
        366,
        367,
        368,
        369,
        370,
        371,
        372,
        373,
        374,
        375,
        376,
        377,
        378,
        379,
        380,
        381,
        382,
        383,
        384,
        385,
        386,
        387,
        388,
        389,
        390,
        391,
        392,
        393,
        394,
        395,
        396,
        397,
        398,
        399,
        400,
        401,
        402,
        403,
        404,
        405,
        406,
        407,
        408,
        409,
        410,
        411,
        412,
        413,
        414,
        415,
        416,
        417,
        418,
        419,
        420,
        421,
        422,
        423,
        424,
        425,
        426,
        427,
        428,
        429,
        430,
        431,
        432,
        433,
        434,
        435,
        436,
        437,
        438,
        439,
        440,
        441,
        442,
        443,
        444,
        445,
        446,
        447,
        448,
        449,
        450,
        451,
        452,
        453,
        454,
        455,
        456,
        457,
        458,
        459,
        460,
        461,
        462,
        463,
        464,
        465,
        466,
        467,
        468,
        469,
        470,
        471,
        472,
        473,
        474,
        475,
        476,
        477,
        478,
        479,
        480,
        481,
        482,
        483,
        484,
        485,
        486,
        487,
        488,
        489,
        490,
        491,
        492,
        493,
        494,
        495,
        496,
        497,
        498,
        499,
        500,
        501,
        502,
        503,
        504,
        505,
        506,
        507,
        508,
        509,
        510,
        511,
        512,
        513,
        514,
        515,
        516,
        517,
        518,
        519,
        520,
        521,
        522,
        523,
        524,
        525,
        526,
        527,
        528,
        529,
        530,
        531,
        532,
        533,
        534,
        535,
        536,
        537,
        538,
        539,
        540,
        541,
        542,
        543,
        544,
        545,
        546,
        547,
        548,
        549,
        550,
        551,
        552,
        553,
        554,
        555,
        556,
        557,
        558,
        559,
        560,
        561,
        562,
        563,
        564,
        565,
        566,
        567,
        568,
        569,
        570,
        571,
        572,
        573,
        574,
        575,
        576,
        577,
        578,
        579,
        580,
        581,
        582,
        583,
        584,
        585,
        586,
        587,
        588,
        589,
        590,
        591,
        592,
        593,
        594,
        595,
        596,
        597,
        598,
        599
      ],
      "final_gaussian_uv": [
        [
          0.4837646484375,
          0.0
        ],
        [
          0.0,
          0.8978909254074097
        ],
        [
          0.3586597740650177,
          0.7009508609771729
        ],
        [
          0.20682577788829803,
          0.2809077799320221
        ],
        [
          0.8574090003967285,
          1.0
        ],
        [
          0.6539430022239685,
          0.8800941109657288
        ],
        [
          0.5148547887802124,
          0.2538403868675232
        ],
        [
          0.3182489573955536,
          0.4397328197956085
        ],
        [
          0.753483235836029,
          0.9963979721069336
        ],
        [
          0.6172449588775635,
          0.623222291469574
        ],
        [
          0.0924520269036293,
          0.14669647812843323
        ],
        [
          0.33828243613243103,
          0.6062575578689575
        ],
        [
          0.40000003576278687,
          0.0
        ],
        [
          0.5008817315101624,
          0.8219085335731506
        ],
        [
          0.310065358877182,
          0.8668810129165649
        ],
        [
          0.43246692419052124,
          0.43407630920410156
        ],
        [
          0.8272524476051331,
          0.8364139199256897
        ],
        [
          0.7032171487808228,
          0.8659639954566956
        ],
        [
          1.0,
          0.8571428656578064
        ],
        [
          0.048421893268823624,
          1.0
        ],
        [
          0.43778738379478455,
          0.08042951673269272
        ],
        [
          0.6303065419197083,
          0.8378868103027344
        ],
        [
          0.27516505122184753,
          0.900061309337616
        ],
        [
          0.0,
          0.5714285373687744
        ],
        [
          0.6695216298103333,
          0.5220341682434082
        ],
        [
          0.4775362014770508,
          0.9674124717712402
        ],
        [
          1.0,
          0.8571428656578064
        ],
        [
          0.8332130312919617,
          0.28561821579933167
        ],
        [
          0.687400221824646,
          0.6157000660896301
        ],
        [
          0.11172449588775635,
          0.8893921375274658
        ],
        [
          0.28480440378189087,
          0.04582688584923744
        ],
        [
          0.4415777623653412,
          0.15912683308124542
        ],
        [
          0.3095005750656128,
          0.9221975207328796
        ],
        [
          0.374623566865921,
          1.0
        ],
        [
          0.8742906451225281,
          0.00560637516900897
        ],
        [
          0.943332850933075,
          0.6670231819152832
        ],
        [
          0.3280375003814697,
          0.8442256450653076
        ],
        [
          0.488984614610672,
          0.04083820804953575
        ],
        [
          0.46328988671302795,
          0.8463451266288757
        ],
        [
          1.0,
          0.45933660864830017
        ],
        [
          0.7449445128440857,
          0.9562099575996399
        ],
        [
          0.9360052943229675,
          0.976614773273468
        ],
        [
          0.6421152353286743,
          0.895095705986023
        ],
        [
          0.4318090081214905,
          0.922890305519104
        ],
        [
          0.4629610776901245,
          0.8238533139228821
        ],
        [
          0.490408718585968,
          0.03426716849207878
        ],
        [
          0.6124500036239624,
          0.8369264602661133
        ],
        [
          0.48584121465682983,
          0.26409581303596497
        ],
        [
          0.41545990109443665,
          0.3181633949279785
        ],
        [
          0.2570236027240753,
          0.04463116452097893
        ],
        [
          0.45710498094558716,
          0.07076756656169891
        ],
        [
          0.44684669375419617,
          0.9264675974845886
        ],
        [
          0.6532027125358582,
          0.31389471888542175
        ],
        [
          0.1518956422805786,
          0.9387203454971313
        ],
        [
          0.5021357536315918,
          0.6106243133544922
        ],
        [
          0.9631507396697998,
          0.5319411158561707
        ],
        [
          0.0,
          0.791606068611145
        ],
        [
          0.5650609135627747,
          0.09058976918458939
        ],
        [
          0.0,
          0.1428571492433548
        ],
        [
          0.5851695537567139,
          0.8337699174880981
        ],
        [
          0.2468302696943283,
          0.8135764598846436
        ],
        [
          0.4755000174045563,
          0.14432260394096375
        ],
        [
          0.5151135921478271,
          0.578994870185852
        ],
        [
          0.33238697052001953,
          0.45692071318626404
        ],
        [
          0.5756237506866455,
          0.7203531265258789
        ],
        [
          0.4881174564361572,
          0.6012699604034424
        ],
        [
          0.6413770318031311,
          0.8368748426437378
        ],
        [
          0.7035828232765198,
          0.7692057490348816
        ],
        [
          0.4868145287036896,
          0.4473005533218384
        ],
        [
          0.0,
          1.0
        ],
        [
          1.0,
          0.8571428656578064
        ],
        [
          0.9840850830078125,
          0.9780335426330566
        ],
        [
          0.3184804320335388,
          0.9616124629974365
        ],
        [
          0.9388283491134644,
          0.8662479519844055
        ],
        [
          0.0,
          0.8571428656578064
        ],
        [
          0.4584018290042877,
          0.0
        ],
        [
          0.9600533843040466,
          1.0
        ],
        [
          0.8754506707191467,
          0.10679693520069122
        ],
        [
          0.45650795102119446,
          0.8241037130355835
        ],
        [
          0.664979875087738,
          0.517970860004425
        ],
        [
          1.0,
          0.247481107711792
        ],
        [
          0.06666667014360428,
          0.0
        ],
        [
          1.0,
          1.0
        ],
        [
          0.9211748838424683,
          0.31416746973991394
        ],
        [
          0.32987064123153687,
          0.6371390223503113
        ],
        [
          0.32929763197898865,
          0.12917013466358185
        ],
        [
          0.22026421129703522,
          0.7058572173118591
        ],
        [
          0.9232016801834106,
          0.335910439491272
        ],
        [
          0.3316291570663452,
          0.42791736125946045
        ],
        [
          0.33504804968833923,
          0.13491034507751465
        ],
        [
          0.0,
          1.0
        ],
        [
          0.2130097895860672,
          0.4116644859313965
        ],
        [
          0.9446108341217041,
          0.8386934995651245
        ],
        [
          0.9494021534919739,
          0.7759686708450317
        ],
        [
          0.32259929180145264,
          0.4127975404262543
        ],
        [
          0.3389863073825836,
          0.5462763905525208
        ],
        [
          0.6282221674919128,
          0.6150795221328735
        ],
        [
          0.23244114220142365,
          0.14669957756996155
        ],
        [
          0.8454943299293518,
          0.9981669783592224
        ],
        [
          0.41037818789482117,
          0.8334101438522339
        ],
        [
          0.43128272891044617,
          0.29273584485054016
        ],
        [
          0.7120140790939331,
          0.41225799918174744
        ],
        [
          0.5875588655471802,
          0.16863450407981873
        ],
        [
          0.2969227433204651,
          0.9756101965904236
        ],
        [
          1.0,
          0.10667074471712112
        ],
        [
          0.5136297941207886,
          0.7051200270652771
        ],
        [
          0.0365506075322628,
          0.0
        ],
        [
          0.8517272472381592,
          0.1126948669552803
        ],
        [
          0.3505631387233734,
          0.7529639601707458
        ],
        [
          1.0,
          1.0
        ],
        [
          0.034133102744817734,
          1.0
        ],
        [
          0.22575880587100983,
          0.8093623518943787
        ],
        [
          0.28254783153533936,
          0.8894949555397034
        ],
        [
          0.0,
          1.0
        ],
        [
          0.6260982751846313,
          0.025137173011898994
        ],
        [
          0.528384804725647,
          0.8685479760169983
        ],
        [
          0.3604429066181183,
          1.0
        ],
        [
          0.6905787587165833,
          0.683466374874115
        ],
        [
          1.0,
          0.7142857313156128
        ],
        [
          0.9863634705543518,
          0.8213818073272705
        ],
        [
          0.20758670568466187,
          0.8334154486656189
        ],
        [
          0.06338401138782501,
          0.6274164915084839
        ],
        [
          0.15115953981876373,
          0.7096310257911682
        ],
        [
          0.3239613473415375,
          0.7869939208030701
        ],
        [
          0.9457466006278992,
          1.0
        ],
        [
          0.04682409390807152,
          0.38010668754577637
        ],
        [
          0.761580765247345,
          1.0
        ],
        [
          1.0,
          1.0
        ],
        [
          0.22522413730621338,
          1.0
        ],
        [
          0.5096064209938049,
          0.4248340427875519
        ],
        [
          0.0,
          0.2623325288295746
        ],
        [
          0.8958067893981934,
          0.0
        ],
        [
          0.6835085153579712,
          0.8230342268943787
        ],
        [
          0.8096815347671509,
          0.5635057687759399
        ],
        [
          0.20153553783893585,
          0.2052081823348999
        ],
        [
          0.20786862075328827,
          0.8115765452384949
        ],
        [
          0.7138634324073792,
          0.3421817421913147
        ],
        [
          0.7565948963165283,
          0.8217570781707764
        ],
        [
          0.6196057796478271,
          0.9013772010803223
        ],
        [
          0.5329982042312622,
          0.6606154441833496
        ],
        [
          0.041151341050863266,
          0.6749019622802734
        ],
        [
          0.613725483417511,
          0.8867515921592712
        ],
        [
          0.5309463739395142,
          0.4448271095752716
        ],
        [
          0.5390850901603699,
          0.09159716963768005
        ],
        [
          0.47922003269195557,
          0.0988370031118393
        ],
        [
          0.6117230653762817,
          0.4328989088535309
        ],
        [
          0.5597428679466248,
          0.08190012723207474
        ],
        [
          0.010962252505123615,
          0.34162259101867676
        ],
        [
          0.7312570214271545,
          0.9188646078109741
        ],
        [
          0.4301418960094452,
          0.4072035849094391
        ],
        [
          0.14689937233924866,
          0.2848469018936157
        ],
        [
          0.4796169698238373,
          0.14007465541362762
        ],
        [
          0.6116205453872681,
          0.9803863167762756
        ],
        [
          0.31685951352119446,
          0.835195779800415
        ],
        [
          0.0,
          1.0
        ],
        [
          0.7711336612701416,
          0.18029484152793884
        ],
        [
          0.5131770968437195,
          0.07730236649513245
        ],
        [
          0.2742982506752014,
          0.7888588309288025
        ],
        [
          0.5399563312530518,
          0.0
        ],
        [
          0.5162723064422607,
          0.33776628971099854
        ],
        [
          0.0,
          0.2857142984867096
        ],
        [
          0.021588003262877464,
          0.014425145462155342
        ],
        [
          0.6430237889289856,
          0.34555649757385254
        ],
        [
          0.5311456918716431,
          0.29659244418144226
        ],
        [
          0.3659999966621399,
          0.91521155834198
        ],
        [
          0.16253603994846344,
          0.8843348622322083
        ],
        [
          0.39197343587875366,
          0.37881287932395935
        ],
        [
          0.30947017669677734,
          0.26645609736442566
        ],
        [
          0.8157194256782532,
          1.0
        ],
        [
          0.4867202639579773,
          0.2554759383201599
        ],
        [
          0.6504486799240112,
          0.032250601798295975
        ],
        [
          0.5108146667480469,
          0.0
        ],
        [
          0.5470300912857056,
          1.0
        ],
        [
          0.06666667014360428,
          0.5714285373687744
        ],
        [
          0.913320004940033,
          0.5685909986495972
        ],
        [
          0.2575128376483917,
          1.0
        ],
        [
          0.09989994764328003,
          1.0
        ],
        [
          0.39038652181625366,
          1.0
        ],
        [
          0.4977268874645233,
          0.4987526834011078
        ],
        [
          0.5205157399177551,
          0.10904309898614883
        ],
        [
          0.6546582579612732,
          0.038881417363882065
        ],
        [
          0.5880860686302185,
          0.9952191114425659
        ],
        [
          0.011510001495480537,
          0.015537611208856106
        ],
        [
          0.7798278331756592,
          0.12693150341510773
        ],
        [
          1.0,
          0.0
        ],
        [
          0.39741018414497375,
          1.0
        ],
        [
          0.37919652462005615,
          0.8170104026794434
        ],
        [
          0.5795900821685791,
          0.9166606664657593
        ],
        [
          0.6176049709320068,
          0.5141423940658569
        ],
        [
          0.4123438000679016,
          0.753950297832489
        ],
        [
          0.4122805893421173,
          0.7194607853889465
        ],
        [
          0.5503655076026917,
          0.6195341944694519
        ],
        [
          0.20799894630908966,
          0.9736994504928589
        ],
        [
          0.13709531724452972,
          0.03214135020971298
        ],
        [
          0.3627537190914154,
          0.7554092407226562
        ],
        [
          0.3759661018848419,
          0.02180265076458454
        ],
        [
          0.5377753973007202,
          0.8739385604858398
        ],
        [
          0.7117964625358582,
          0.10146866738796234
        ],
        [
          0.34075233340263367,
          0.827777624130249
        ],
        [
          0.4777698814868927,
          0.8424926400184631
        ],
        [
          0.05325910076498985,
          0.6952188014984131
        ],
        [
          0.8303844928741455,
          1.0
        ],
        [
          0.41582056879997253,
          0.19151927530765533
        ],
        [
          0.6892194747924805,
          1.0
        ],
        [
          1.0,
          0.8571428656578064
        ],
        [
          0.6583899259567261,
          0.5132266283035278
        ],
        [
          0.30342715978622437,
          0.7892354726791382
        ],
        [
          0.7525772452354431,
          0.9391492009162903
        ],
        [
          0.9373733997344971,
          0.6701236367225647
        ],
        [
          0.6655933260917664,
          0.8560340404510498
        ],
        [
          0.2578621506690979,
          0.052993565797805786
        ],
        [
          0.38882941007614136,
          0.05745363608002663
        ],
        [
          0.06936735659837723,
          0.013100087642669678
        ],
        [
          1.0,
          0.5243588089942932
        ],
        [
          0.49845609068870544,
          0.0
        ],
        [
          0.9799314737319946,
          0.8571428656578064
        ],
        [
          0.43124765157699585,
          0.09282682090997696
        ],
        [
          0.40000003576278687,
          0.0
        ],
        [
          0.0,
          0.014169788919389248
        ],
        [
          0.48239967226982117,
          0.5389959216117859
        ],
        [
          0.826923668384552,
          0.9823505878448486
        ],
        [
          0.3723590672016144,
          0.6280449628829956
        ],
        [
          0.6096207499504089,
          0.8635786175727844
        ],
        [
          0.46666669845581055,
          0.0
        ],
        [
          0.5340035557746887,
          0.19054946303367615
        ],
        [
          0.6556576490402222,
          0.9747545123100281
        ],
        [
          1.0,
          0.8571428656578064
        ],
        [
          0.06666667014360428,
          0.5714285373687744
        ],
        [
          0.39862531423568726,
          0.5708696246147156
        ],
        [
          0.3454418182373047,
          0.5575964450836182
        ],
        [
          0.4532833993434906,
          0.729295551776886
        ],
        [
          1.0,
          0.24589963257312775
        ],
        [
          0.4533518850803375,
          0.7290769219398499
        ],
        [
          0.43684524297714233,
          0.9194647669792175
        ],
        [
          0.0,
          0.2551978528499603
        ],
        [
          0.03408246859908104,
          0.2352060228586197
        ],
        [
          0.3347626328468323,
          1.0
        ],
        [
          0.600566029548645,
          1.0
        ],
        [
          0.43838629126548767,
          0.29333606362342834
        ],
        [
          0.7375055551528931,
          0.40824055671691895
        ],
        [
          0.4759696125984192,
          0.2952757179737091
        ],
        [
          0.13821744918823242,
          0.41963842511177063
        ],
        [
          0.7777448892593384,
          0.6342356204986572
        ],
        [
          0.3745269477367401,
          0.8957722783088684
        ],
        [
          0.24905622005462646,
          0.8577073812484741
        ],
        [
          0.679590106010437,
          0.8411750793457031
        ],
        [
          0.8320080041885376,
          0.8776609897613525
        ],
        [
          0.3069552481174469,
          0.8892681002616882
        ],
        [
          0.893961489200592,
          0.755324125289917
        ],
        [
          0.6449864506721497,
          0.27418532967567444
        ],
        [
          0.17836593091487885,
          0.9143019914627075
        ],
        [
          0.1257408857345581,
          0.45327630639076233
        ],
        [
          0.5390233993530273,
          0.8318672180175781
        ],
        [
          0.4518759548664093,
          0.33554401993751526
        ],
        [
          0.48579150438308716,
          0.0
        ],
        [
          0.7737982273101807,
          0.5787668228149414
        ],
        [
          0.04593754932284355,
          0.0
        ],
        [
          0.5711788535118103,
          0.7483453154563904
        ],
        [
          0.5986135601997375,
          0.7222829461097717
        ],
        [
          0.293872207403183,
          0.7062961459159851
        ],
        [
          0.18970490992069244,
          0.40157946944236755
        ],
        [
          0.46123024821281433,
          0.9814443588256836
        ],
        [
          0.4057827889919281,
          0.9700919389724731
        ],
        [
          0.9388216733932495,
          1.0
        ],
        [
          0.011849549598991871,
          1.0
        ],
        [
          0.5929414629936218,
          0.8612799048423767
        ],
        [
          0.0,
          0.7142857313156128
        ],
        [
          0.0,
          1.0
        ],
        [
          0.3200058341026306,
          0.5200942158699036
        ],
        [
          0.07272110879421234,
          0.42781710624694824
        ],
        [
          0.09846556186676025,
          1.0
        ],
        [
          0.06573957204818726,
          0.0020519050303846598
        ],
        [
          0.27083706855773926,
          0.9118239879608154
        ],
        [
          0.40000003576278687,
          0.0
        ],
        [
          0.24556566774845123,
          0.06220153719186783
        ],
        [
          0.3324025571346283,
          0.4069003760814667
        ],
        [
          0.13726919889450073,
          0.0
        ],
        [
          0.2666666805744171,
          0.0
        ],
        [
          0.46814459562301636,
          0.014272655360400677
        ],
        [
          0.39804670214653015,
          0.32376253604888916
        ],
        [
          0.5426081418991089,
          0.931143581867218
        ],
        [
          0.20083294808864594,
          0.9473368525505066
        ],
        [
          0.5881236791610718,
          0.8900091052055359
        ],
        [
          0.24479804933071136,
          0.8288275003433228
        ],
        [
          0.320329874753952,
          0.905838668346405
        ],
        [
          0.4290497601032257,
          0.0
        ],
        [
          0.052369482815265656,
          0.9430487155914307
        ],
        [
          0.4943753778934479,
          0.0
        ],
        [
          0.2904702126979828,
          0.6563926339149475
        ],
        [
          0.583572268486023,
          0.405076801776886
        ],
        [
          0.572746217250824,
          0.56527179479599
        ],
        [
          0.5006667375564575,
          0.0
        ],
        [
          0.2749647796154022,
          0.700861394405365
        ],
        [
          0.19527703523635864,
          0.976388692855835
        ],
        [
          0.33382871747016907,
          0.22078686952590942
        ],
        [
          0.0,
          1.0
        ],
        [
          0.755353569984436,
          0.6765154004096985
        ],
        [
          0.47979554533958435,
          0.3107846975326538
        ],
        [
          0.40270739793777466,
          0.23428866267204285
        ],
        [
          0.6837287545204163,
          0.9363271594047546
        ],
        [
          0.4068754315376282,
          0.09254930168390274
        ],
        [
          0.1888604462146759,
          0.11382334679365158
        ],
        [
          0.0,
          0.763333797454834
        ],
        [
          0.9158544540405273,
          0.11978020519018173
        ],
        [
          0.3323903977870941,
          0.17130126059055328
        ],
        [
          0.7603245973587036,
          0.9598349928855896
        ],
        [
          0.40000003576278687,
          0.0
        ],
        [
          0.5317603349685669,
          0.060952119529247284
        ],
        [
          0.33824485540390015,
          0.9832367897033691
        ],
        [
          0.9735244512557983,
          0.7298247814178467
        ],
        [
          0.525870144367218,
          0.4712758958339691
        ],
        [
          0.208640456199646,
          0.7933699488639832
        ],
        [
          0.8933989405632019,
          1.0
        ],
        [
          0.024750348180532455,
          0.9949878454208374
        ],
        [
          0.477939635515213,
          0.5439004898071289
        ],
        [
          0.4902132451534271,
          0.047657083719968796
        ],
        [
          0.8333014845848083,
          0.900368332862854
        ],
        [
          0.14297565817832947,
          0.8992918729782104
        ],
        [
          0.7817180752754211,
          0.2176651954650879
        ],
        [
          0.26851886510849,
          0.6291754841804504
        ],
        [
          1.0,
          0.4317852854728699
        ],
        [
          0.24396830797195435,
          0.7183874249458313
        ],
        [
          0.3473113477230072,
          0.8884588479995728
        ],
        [
          0.2566819190979004,
          0.872992753982544
        ],
        [
          0.12949445843696594,
          0.6869684457778931
        ],
        [
          0.8532861471176147,
          0.8357495665550232
        ],
        [
          0.5158737897872925,
          0.5321908593177795
        ],
        [
          0.5064515471458435,
          0.001898604561574757
        ],
        [
          0.6723434925079346,
          0.9336183667182922
        ],
        [
          0.5219039916992188,
          0.5129597187042236
        ],
        [
          0.6234251260757446,
          0.01573190465569496
        ],
        [
          0.3637436628341675,
          0.8442959189414978
        ],
        [
          1.0,
          1.0
        ],
        [
          0.3817777931690216,
          0.8479148149490356
        ],
        [
          0.5339716076850891,
          0.14325596392154694
        ],
        [
          0.45703136920928955,
          0.6054959297180176
        ],
        [
          0.6152870655059814,
          0.6774085760116577
        ],
        [
          0.317497581243515,
          0.5673229694366455
        ],
        [
          0.5941794514656067,
          0.9462077021598816
        ],
        [
          0.566913902759552,
          0.34867823123931885
        ],
        [
          0.4359453618526459,
          0.47981685400009155
        ],
        [
          0.4880388379096985,
          0.7733832597732544
        ],
        [
          0.7847352027893066,
          0.4785069227218628
        ],
        [
          0.2666666805744171,
          0.0
        ],
        [
          0.26196742057800293,
          0.5543668270111084
        ],
        [
          0.218441441655159,
          1.0
        ],
        [
          0.8241696357727051,
          0.8770269751548767
        ],
        [
          0.02731567993760109,
          0.7358366250991821
        ],
        [
          0.9556457996368408,
          0.0
        ],
        [
          0.12630504369735718,
          0.41985228657722473
        ],
        [
          0.03042139671742916,
          0.4941307008266449
        ],
        [
          0.1398816704750061,
          0.3385833203792572
        ],
        [
          0.5938348174095154,
          0.3996526896953583
        ],
        [
          0.2301567643880844,
          0.028834477066993713
        ],
        [
          0.07701500505208969,
          0.5901415348052979
        ],
        [
          0.020996272563934326,
          0.36159101128578186
        ],
        [
          0.8296641707420349,
          1.0
        ],
        [
          0.6979820728302002,
          0.19555260241031647
        ],
        [
          1.0,
          1.0
        ],
        [
          0.055834103375673294,
          0.8264548778533936
        ],
        [
          0.8980394005775452,
          0.6927443742752075
        ],
        [
          1.0,
          1.0
        ],
        [
          0.3181806802749634,
          0.6615613102912903
        ],
        [
          1.0,
          1.0
        ],
        [
          0.4598607122898102,
          0.432028204202652
        ],
        [
          0.7564486861228943,
          0.5997589230537415
        ],
        [
          0.8203468322753906,
          0.8958128094673157
        ],
        [
          0.1617271453142166,
          0.0
        ],
        [
          0.15292394161224365,
          0.6190086603164673
        ],
        [
          0.8532422184944153,
          0.3170260488986969
        ],
        [
          0.4995000660419464,
          0.05418939143419266
        ],
        [
          0.48366180062294006,
          0.5958805680274963
        ],
        [
          0.5179451704025269,
          0.8052695989608765
        ],
        [
          0.0,
          0.7916909456253052
        ],
        [
          0.07610031962394714,
          0.5942727327346802
        ],
        [
          0.33096468448638916,
          0.7878630757331848
        ],
        [
          0.8731244206428528,
          0.9640567302703857
        ],
        [
          0.30109232664108276,
          0.947038471698761
        ],
        [
          0.3577902913093567,
          0.8783838748931885
        ],
        [
          0.9047411680221558,
          0.16640439629554749
        ],
        [
          0.919382631778717,
          0.28183627128601074
        ],
        [
          0.29252955317497253,
          0.7620438933372498
        ],
        [
          0.6153820753097534,
          0.7490407824516296
        ],
        [
          0.5848930478096008,
          0.020451338961720467
        ],
        [
          0.278493195772171,
          0.5745803117752075
        ],
        [
          0.9054065346717834,
          0.6670745015144348
        ],
        [
          0.048973117023706436,
          0.8771357536315918
        ],
        [
          0.021140191704034805,
          1.0
        ],
        [
          0.6200913190841675,
          1.0
        ],
        [
          0.06526906043291092,
          0.7142857313156128
        ],
        [
          0.48466384410858154,
          0.34867581725120544
        ],
        [
          0.1842241734266281,
          0.6233832240104675
        ],
        [
          0.5610410571098328,
          0.2470773309469223
        ],
        [
          0.42567890882492065,
          0.36527788639068604
        ],
        [
          0.5695621371269226,
          0.7342351675033569
        ],
        [
          0.6309092044830322,
          0.5191918015480042
        ],
        [
          0.7482185363769531,
          0.9702812433242798
        ],
        [
          0.8340404033660889,
          0.3199238181114197
        ],
        [
          0.5428140163421631,
          0.5276001691818237
        ],
        [
          0.5988931059837341,
          0.6075944900512695
        ],
        [
          0.47856202721595764,
          0.9419471621513367
        ],
        [
          0.5782848596572876,
          0.916712760925293
        ],
        [
          0.6201053261756897,
          0.6385217308998108
        ],
        [
          0.05607946962118149,
          0.254635751247406
        ],
        [
          0.8929848074913025,
          0.9253650307655334
        ],
        [
          0.8215935230255127,
          0.8577013611793518
        ],
        [
          0.698927640914917,
          0.5965806841850281
        ],
        [
          0.06778839975595474,
          0.9791325926780701
        ],
        [
          0.9786560535430908,
          0.38328468799591064
        ],
        [
          0.3996806740760803,
          0.01834097132086754
        ],
        [
          0.0,
          0.8929373621940613
        ],
        [
          0.9437018632888794,
          0.2478359490633011
        ],
        [
          0.1920223832130432,
          0.8886635899543762
        ],
        [
          0.6655831933021545,
          0.9138669371604919
        ],
        [
          0.36981910467147827,
          0.6884950995445251
        ],
        [
          0.6879608631134033,
          0.8548125624656677
        ],
        [
          1.0,
          0.37039464712142944
        ],
        [
          0.733874499797821,
          0.971799910068512
        ],
        [
          0.5071282386779785,
          0.7380983233451843
        ],
        [
          0.6990343928337097,
          0.1500803679227829
        ],
        [
          0.14962869882583618,
          0.8993393182754517
        ],
        [
          0.2656732201576233,
          0.7067927122116089
        ],
        [
          0.7035060524940491,
          0.582969069480896
        ],
        [
          0.459018737077713,
          0.41608715057373047
        ],
        [
          0.09210673719644547,
          0.14659197628498077
        ],
        [
          0.5232469439506531,
          0.5002243518829346
        ],
        [
          0.0,
          0.5714285373687744
        ],
        [
          0.06666667014360428,
          0.0
        ],
        [
          0.9986493587493896,
          0.4282350540161133
        ],
        [
          0.249161496758461,
          0.9945871829986572
        ],
        [
          0.7124762535095215,
          0.816600501537323
        ],
        [
          0.9259536862373352,
          0.7017025947570801
        ],
        [
          0.49163395166397095,
          0.03909142687916756
        ],
        [
          0.5954514741897583,
          0.23994098603725433
        ],
        [
          0.5876171588897705,
          0.10853344202041626
        ],
        [
          0.34032875299453735,
          0.33792680501937866
        ],
        [
          0.6279518604278564,
          0.6569275259971619
        ],
        [
          0.4466976225376129,
          0.6238273978233337
        ],
        [
          0.9752793312072754,
          0.7651212215423584
        ],
        [
          0.47761112451553345,
          1.0
        ],
        [
          0.3647252023220062,
          0.717102587223053
        ],
        [
          0.531310498714447,
          0.20682404935359955
        ],
        [
          0.3951702415943146,
          0.8882272839546204
        ],
        [
          0.5801190137863159,
          0.23428687453269958
        ],
        [
          0.444217324256897,
          0.5145849585533142
        ],
        [
          0.8666666746139526,
          0.4285714626312256
        ],
        [
          0.3736284673213959,
          0.7457978129386902
        ],
        [
          0.48772236704826355,
          0.3261891305446625
        ],
        [
          0.000472142273792997,
          0.4422524869441986
        ],
        [
          0.9126209020614624,
          0.8691999912261963
        ],
        [
          0.5359693765640259,
          0.6332927346229553
        ],
        [
          0.7993364334106445,
          1.0
        ],
        [
          0.5910958051681519,
          0.8109079003334045
        ],
        [
          0.5439965724945068,
          0.9474915862083435
        ],
        [
          0.7974401712417603,
          0.6683337688446045
        ],
        [
          0.06327009946107864,
          0.030536437407135963
        ],
        [
          0.42400237917900085,
          0.7519279718399048
        ],
        [
          0.0,
          1.0
        ],
        [
          0.34883978962898254,
          0.3889719843864441
        ],
        [
          0.04754117503762245,
          0.9925460815429688
        ],
        [
          0.7013269066810608,
          0.9660469889640808
        ],
        [
          0.7124497294425964,
          0.11659060418605804
        ],
        [
          0.47822636365890503,
          0.5734812617301941
        ],
        [
          0.6232640147209167,
          0.7048887610435486
        ],
        [
          0.89035564661026,
          0.9305705428123474
        ],
        [
          0.9454898238182068,
          0.8148899674415588
        ],
        [
          1.0,
          1.0
        ],
        [
          0.1943855583667755,
          1.0
        ],
        [
          0.7680565118789673,
          0.9743088483810425
        ],
        [
          0.6752201318740845,
          0.3174818158149719
        ],
        [
          0.40410324931144714,
          0.5089157223701477
        ],
        [
          0.013960172422230244,
          0.13365226984024048
        ],
        [
          0.28648221492767334,
          0.973739743232727
        ],
        [
          0.4834504723548889,
          0.0
        ],
        [
          0.0,
          0.8571428656578064
        ],
        [
          0.3381439745426178,
          0.40009716153144836
        ],
        [
          0.38359513878822327,
          0.4061999022960663
        ],
        [
          0.8052292466163635,
          0.3071677088737488
        ],
        [
          0.713016152381897,
          0.9391646385192871
        ],
        [
          0.38065266609191895,
          0.6535742878913879
        ],
        [
          0.4290286898612976,
          1.0
        ],
        [
          0.1917746663093567,
          0.5538234114646912
        ],
        [
          0.5674463510513306,
          0.20585860311985016
        ],
        [
          0.23626887798309326,
          0.8917519450187683
        ],
        [
          0.5159047842025757,
          1.0
        ],
        [
          1.0,
          0.23535895347595215
        ],
        [
          0.7506389021873474,
          1.0
        ],
        [
          0.0,
          1.0
        ],
        [
          0.5792554020881653,
          0.08066049218177795
        ],
        [
          0.6679407358169556,
          0.267156720161438
        ],
        [
          0.1885591447353363,
          0.904127836227417
        ],
        [
          0.6239808797836304,
          0.38721591234207153
        ],
        [
          0.8254250288009644,
          0.3223479986190796
        ],
        [
          0.2525534927845001,
          0.9647517800331116
        ],
        [
          0.06666667014360428,
          0.0
        ],
        [
          0.3831750452518463,
          0.8192688822746277
        ],
        [
          0.3074883222579956,
          0.8225833773612976
        ],
        [
          0.6545446515083313,
          0.9924052953720093
        ],
        [
          0.6078149676322937,
          0.6153188347816467
        ],
        [
          0.3536873161792755,
          0.14093874394893646
        ],
        [
          0.9950982332229614,
          0.0874880701303482
        ],
        [
          0.5296400189399719,
          1.0
        ],
        [
          0.7086220383644104,
          0.8165850639343262
        ],
        [
          0.552649199962616,
          0.3909364640712738
        ],
        [
          0.7327430844306946,
          0.688983142375946
        ],
        [
          0.3674176037311554,
          0.7528939843177795
        ],
        [
          0.5749958157539368,
          0.921168863773346
        ],
        [
          0.8969624638557434,
          0.0
        ],
        [
          0.44943737983703613,
          0.4730304479598999
        ],
        [
          0.9990922212600708,
          0.15420477092266083
        ],
        [
          0.689109206199646,
          0.8530588150024414
        ],
        [
          0.5588791966438293,
          0.3662574589252472
        ],
        [
          0.4194810390472412,
          0.7749902009963989
        ],
        [
          0.729917585849762,
          1.0
        ],
        [
          0.5972281098365784,
          0.20042307674884796
        ],
        [
          0.3936346769332886,
          0.6211684942245483
        ],
        [
          0.4194965958595276,
          0.6259526014328003
        ],
        [
          0.1786782592535019,
          0.8822677135467529
        ],
        [
          0.01741625741124153,
          1.0
        ],
        [
          0.529903769493103,
          0.015151810832321644
        ],
        [
          0.3644119203090668,
          0.9458996057510376
        ],
        [
          0.6871294975280762,
          0.9702540636062622
        ],
        [
          0.3981625735759735,
          0.9478912949562073
        ],
        [
          0.42674583196640015,
          0.7462575435638428
        ],
        [
          0.9056994915008545,
          0.9741103053092957
        ],
        [
          0.46553799510002136,
          0.7631784081459045
        ],
        [
          0.46747246384620667,
          0.8529838919639587
        ],
        [
          0.6912246942520142,
          0.5651623010635376
        ],
        [
          0.9413006901741028,
          0.9219532012939453
        ],
        [
          0.4363539516925812,
          0.009383861906826496
        ],
        [
          0.47596558928489685,
          0.003535195719450712
        ],
        [
          0.9619073867797852,
          0.7493665218353271
        ],
        [
          0.45942422747612,
          0.7511623501777649
        ],
        [
          0.683633029460907,
          0.8273515701293945
        ],
        [
          0.33669313788414,
          0.40166985988616943
        ],
        [
          0.2666666805744171,
          0.1428571492433548
        ],
        [
          0.6968774199485779,
          0.5600392818450928
        ],
        [
          0.5599901080131531,
          0.8294382691383362
        ],
        [
          0.8666666746139526,
          0.5714285373687744
        ],
        [
          0.6193352341651917,
          0.5606065988540649
        ],
        [
          0.5658823251724243,
          0.7393558025360107
        ],
        [
          0.4154902398586273,
          0.16070327162742615
        ],
        [
          0.522459864616394,
          0.6928013563156128
        ],
        [
          0.29026126861572266,
          0.9476217031478882
        ],
        [
          0.2703284025192261,
          0.6938899159431458
        ],
        [
          0.2842196226119995,
          0.7978290915489197
        ],
        [
          0.45220792293548584,
          0.29837679862976074
        ],
        [
          0.8781079053878784,
          0.7891276478767395
        ],
        [
          0.02036471851170063,
          0.8851602077484131
        ],
        [
          0.37980473041534424,
          0.6874951124191284
        ],
        [
          0.47160977125167847,
          0.09865529835224152
        ],
        [
          0.9513371586799622,
          0.8871645331382751
        ],
        [
          0.6742929220199585,
          0.2737758159637451
        ],
        [
          0.11516044288873672,
          1.0
        ],
        [
          0.5944244861602783,
          0.20065125823020935
        ],
        [
          0.40930843353271484,
          1.0
        ],
        [
          0.056652508676052094,
          0.12974712252616882
        ],
        [
          0.5119592547416687,
          0.08055689930915833
        ],
        [
          0.732989490032196,
          0.10929537564516068
        ],
        [
          0.5286374688148499,
          0.7448486089706421
        ],
        [
          0.9504826068878174,
          0.7758168578147888
        ],
        [
          0.8980088233947754,
          0.5982153415679932
        ],
        [
          0.0059973993338644505,
          0.2608581483364105
        ],
        [
          0.3000045716762543,
          0.6591388583183289
        ],
        [
          0.9459278583526611,
          1.0
        ],
        [
          1.0,
          0.0
        ],
        [
          0.3140855133533478,
          0.598088800907135
        ],
        [
          0.9358270168304443,
          0.4308924674987793
        ],
        [
          0.15507853031158447,
          0.0
        ],
        [
          0.28587427735328674,
          0.7926576733589172
        ],
        [
          1.0,
          0.6850066184997559
        ],
        [
          0.6557492017745972,
          0.9982220530509949
        ],
        [
          0.2569466829299927,
          0.825741171836853
        ],
        [
          0.6909334659576416,
          0.9616279602050781
        ],
        [
          0.5758962035179138,
          0.7389418482780457
        ],
        [
          0.34210142493247986,
          0.3942410349845886
        ],
        [
          0.6233797669410706,
          0.9506182670593262
        ],
        [
          0.7191309928894043,
          0.7318264842033386
        ],
        [
          0.5441563725471497,
          0.8329648971557617
        ],
        [
          0.3734239935874939,
          0.0
        ],
        [
          0.023806676268577576,
          0.6702642440795898
        ],
        [
          0.4885537326335907,
          0.3105434477329254
        ],
        [
          1.0,
          0.503680944442749
        ],
        [
          0.3915718197822571,
          0.42220577597618103
        ],
        [
          0.48331785202026367,
          0.7202321887016296
        ],
        [
          0.7236750721931458,
          0.39235368371009827
        ],
        [
          0.40475594997406006,
          0.5278745889663696
        ],
        [
          0.0,
          0.8571428656578064
        ],
        [
          0.2466554492712021,
          0.7715069055557251
        ],
        [
          0.4591302275657654,
          0.7663657665252686
        ],
        [
          0.42220538854599,
          0.7329365015029907
        ],
        [
          0.5391417145729065,
          0.22549739480018616
        ],
        [
          0.30507227778434753,
          0.14592234790325165
        ],
        [
          0.43040698766708374,
          0.8526301383972168
        ],
        [
          0.789233922958374,
          0.855259895324707
        ],
        [
          0.4905034601688385,
          0.04079858958721161
        ],
        [
          0.7344406247138977,
          0.3626917898654938
        ],
        [
          0.8524622321128845,
          0.14873678982257843
        ],
        [
          0.25050869584083557,
          0.38716721534729004
        ],
        [
          0.9516080021858215,
          0.8517798185348511
        ]
      ],
      "uv_support_mask": [
        [
          true,
          true,
          true,
          true,
          true,
          true,
          true,
          true,
          true,
          true,
          true,
          true,
          true,
          true,
          true,
          true,
          true,
          true,
          true,
          true,
          true,
          true,
          true,
          true
        ],
        [
          true,
          true,
          true,
          true,
          true,
          true,
          true,
          true,
          true,
          true,
          true,
          true,
          true,
          true,
          true,
          true,
          true,
          true,
          true,
          true,
          true,
          true,
          true,
          true
        ],
        [
          true,
          true,
          true,
          true,
          true,
          true,
          true,
          true,
          true,
          true,
          true,
          true,
          true,
          true,
          true,
          true,
          true,
          true,
          true,
          true,
          true,
          true,
          true,
          true
        ],
        [
          true,
          true,
          true,
          true,
          true,
          true,
          true,
          true,
          true,
          true,
          true,
          true,
          true,
          true,
          true,
          true,
          true,
          true,
          true,
          true,
          true,
          true,
          true,
          true
        ],
        [
          true,
          true,
          true,
          true,
          true,
          true,
          true,
          true,
          true,
          true,
          true,
          true,
          true,
          true,
          true,
          true,
          true,
          true,
          true,
          true,
          true,
          true,
          true,
          true
        ],
        [
          true,
          true,
          true,
          true,
          true,
          true,
          true,
          true,
          true,
          true,
          true,
          false,
          true,
          true,
          true,
          true,
          true,
          true,
          true,
          true,
          true,
          true,
          true,
          true
        ],
        [
          true,
          true,
          true,
          true,
          true,
          true,
          true,
          true,
          true,
          true,
          true,
          true,
          true,
          true,
          true,
          true,
          true,
          true,
          true,
          true,
          true,
          true,
          true,
          true
        ],
        [
          true,
          true,
          true,
          true,
          true,
          true,
          true,
          true,
          true,
          true,
          true,
          true,
          true,
          true,
          true,
          true,
          true,
          true,
          true,
          true,
          true,
          true,
          true,
          true
        ],
        [
          true,
          true,
          true,
          true,
          true,
          true,
          true,
          true,
          true,
          true,
          true,
          true,
          true,
          true,
          true,
          true,
          true,
          true,
          true,
          true,
          true,
          true,
          true,
          true
        ],
        [
          true,
          true,
          true,
          true,
          true,
          true,
          true,
          true,
          true,
          true,
          true,
          true,
          true,
          true,
          true,
          true,
          true,
          true,
          true,
          true,
          true,
          true,
          true,
          true
        ],
        [
          true,
          true,
          true,
          true,
          true,
          true,
          true,
          true,
          true,
          true,
          true,
          true,
          true,
          true,
          true,
          true,
          true,
          true,
          true,
          true,
          true,
          true,
          true,
          true
        ],
        [
          true,
          true,
          true,
          true,
          true,
          true,
          true,
          true,
          true,
          true,
          true,
          true,
          true,
          true,
          true,
          true,
          true,
          true,
          true,
          true,
          true,
          true,
          true,
          true
        ],
        [
          true,
          true,
          true,
          true,
          true,
          true,
          true,
          true,
          true,
          true,
          true,
          true,
          true,
          true,
          true,
          true,
          true,
          true,
          true,
          true,
          true,
          true,
          true,
          true
        ],
        [
          true,
          true,
          true,
          true,
          true,
          true,
          true,
          true,
          true,
          true,
          true,
          true,
          true,
          true,
          true,
          true,
          true,
          true,
          true,
          true,
          true,
          true,
          true,
          true
        ],
        [
          true,
          true,
          true,
          true,
          true,
          true,
          true,
          true,
          true,
          true,
          true,
          true,
          true,
          true,
          true,
          true,
          true,
          true,
          true,
          true,
          true,
          true,
          true,
          true
        ],
        [
          true,
          true,
          true,
          true,
          true,
          true,
          true,
          true,
          true,
          true,
          true,
          true,
          true,
          true,
          true,
          true,
          true,
          true,
          true,
          true,
          true,
          true,
          true,
          true
        ],
        [
          true,
          true,
          true,
          true,
          true,
          true,
          true,
          true,
          true,
          true,
          true,
          true,
          true,
          true,
          true,
          true,
          true,
          true,
          true,
          true,
          true,
          true,
          true,
          true
        ],
        [
          false,
          true,
          true,
          true,
          true,
          true,
          true,
          true,
          true,
          true,
          true,
          true,
          true,
          true,
          true,
          true,
          true,
          true,
          true,
          true,
          true,
          true,
          true,
          true
        ],
        [
          false,
          true,
          true,
          true,
          true,
          true,
          true,
          true,
          true,
          true,
          true,
          true,
          true,
          true,
          true,
          true,
          true,
          true,
          true,
          true,
          true,
          true,
          true,
          true
        ],
        [
          true,
          true,
          true,
          true,
          true,
          true,
          true,
          true,
          true,
          true,
          true,
          true,
          true,
          true,
          true,
          true,
          true,
          true,
          true,
          true,
          true,
          true,
          true,
          true
        ],
        [
          true,
          true,
          true,
          true,
          true,
          true,
          true,
          true,
          true,
          true,
          true,
          true,
          true,
          true,
          true,
          true,
          true,
          true,
          true,
          true,
          true,
          true,
          true,
          true
        ],
        [
          true,
          true,
          true,
          true,
          true,
          true,
          true,
          true,
          true,
          true,
          true,
          true,
          true,
          true,
          true,
          true,
          true,
          true,
          true,
          true,
          true,
          true,
          true,
          true
        ],
        [
          true,
          true,
          true,
          true,
          true,
          true,
          true,
          true,
          true,
          true,
          true,
          true,
          true,
          true,
          true,
          true,
          true,
          true,
          true,
          true,
          true,
          true,
          true,
          true
        ],
        [
          true,
          true,
          true,
          true,
          true,
          true,
          true,
          true,
          true,
          true,
          true,
          true,
          true,
          true,
          false,
          true,
          true,
          true,
          true,
          true,
          true,
          true,
          true,
          true
        ]
      ],
      "stages": [
        {
          "stage": "idw_seed",
          "grid": {
            "extent": 1.8758032321929932,
            "edge_median": 0.1547461450099945,
            "edge_min": 0.006445917300879955
          },
          "uv_support": {
            "point_count": 21,
            "occupied_cells": 21,
            "coverage_ratio": 0.0205078125
          },
          "mapping": {
            "jacobian_median": 0.3170235753059387,
            "jacobian_min": 0.0010552811436355114,
            "degenerate_fraction": 0.0,
            "fold_fraction": 0.1510416716337204
          }
        },
        {
          "stage": "round_1",
          "grid": {
            "extent": 2.5961740016937256,
            "edge_median": 0.3365040123462677,
            "edge_min": 0.07362861931324005
          },
          "uv_support": {
            "point_count": 21,
            "occupied_cells": 21,
            "coverage_ratio": 0.0205078125
          },
          "fit_rms": 0.019184330478310585,
          "mapping": {
            "jacobian_median": 2.167097568511963,
            "jacobian_min": 0.003920495510101318,
            "degenerate_fraction": 0.0,
            "fold_fraction": 0.2621527910232544
          }
        },
        {
          "stage": "round_2",
          "grid": {
            "extent": 2.586515426635742,
            "edge_median": 0.36229321360588074,
            "edge_min": 0.09533951431512833
          },
          "uv_support": {
            "point_count": 21,
            "occupied_cells": 21,
            "coverage_ratio": 0.0205078125
          },
          "fit_rms": 0.00039986148476600647,
          "mapping": {
            "jacobian_median": 2.0743112564086914,
            "jacobian_min": 0.002630239352583885,
            "degenerate_fraction": 0.0,
            "fold_fraction": 0.2621527910232544
          }
        }
      ],
      "final_mapping": {
        "jacobian_median": 2.0743112564086914,
        "jacobian_min": 0.002630239352583885,
        "degenerate_fraction": 0.0,
        "fold_fraction": 0.2621527910232544
      }
    }
  ]
}